#pragma once

// Layer    : conv2d_2
// W shape  : (3, 3, 32, 64)
// B shape  : (64,)
// NOTE: Conv2D weight layout = (KH, KW, CIN, COUT)
//       Dense weight layout  = (IN_DIM, OUT_DIM)

#define CONV2D_2_KERNEL_H 3
#define CONV2D_2_KERNEL_W 3
#define CONV2D_2_IN_CH    32
#define CONV2D_2_OUT_CH   64

const float CONV2D_2_WEIGHTS[18432] = {
  2.05013342e-02f,  -2.45566946e-03f,  2.47260574e-02f,  9.53120291e-02f,  3.74918059e-02f,  5.54769933e-02f,  3.57951187e-02f,  -5.69794327e-03f,
  -1.56625528e-02f,  -6.14763610e-02f,  7.25481883e-02f,  6.28496483e-02f,  -1.01738544e-02f,  -3.10813659e-03f,  5.40785566e-02f,  -2.34051384e-02f,
  -2.98479684e-02f,  -4.56335396e-02f,  6.10117391e-02f,  5.90096377e-02f,  9.19482410e-02f,  -6.77451491e-02f,  -3.70156765e-02f,  2.99839787e-02f,
  5.51371500e-02f,  -2.84011457e-02f,  -4.63289134e-02f,  3.16444710e-02f,  -6.23042211e-02f,  -2.84533314e-02f,  -6.24025315e-02f,  -5.48697375e-02f,
  -6.29692450e-02f,  -1.39310295e-02f,  2.04977114e-02f,  -1.62532181e-02f,  1.62586290e-02f,  -2.53041238e-02f,  -8.79941508e-04f,  9.60274786e-02f,
  -2.20795125e-02f,  -6.02894984e-02f,  -7.33645493e-03f,  2.78075933e-02f,  5.44673838e-02f,  -1.33175272e-02f,  4.12934385e-02f,  1.49481492e-02f,
  -5.31547032e-02f,  -8.91299173e-03f,  -1.74617860e-02f,  -4.27689590e-02f,  -5.82041144e-02f,  3.06069311e-02f,  -1.99395139e-02f,  -1.20035633e-02f,
  8.21081474e-02f,  3.48324589e-02f,  1.61502752e-02f,  3.93540971e-02f,  1.09420614e-02f,  -1.08776316e-01f,  3.38820294e-02f,  7.80591220e-02f,
  5.69698624e-02f,  -5.96961118e-02f,  1.58691797e-02f,  8.15180242e-02f,  -4.87545580e-02f,  7.20342547e-02f,  6.24330379e-02f,  1.93943158e-02f,
  9.68387276e-02f,  -7.12466389e-02f,  3.53621244e-02f,  -7.16857761e-02f,  1.30598778e-02f,  1.54653750e-02f,  7.92321190e-02f,  -8.23871940e-02f,
  4.04218696e-02f,  -5.60091622e-02f,  7.07984194e-02f,  -5.21162525e-02f,  -7.54320771e-02f,  4.21070307e-02f,  -5.72149567e-02f,  4.74195853e-02f,
  -3.67381871e-02f,  -5.46768643e-02f,  8.20185170e-02f,  5.47515973e-02f,  -4.46294621e-02f,  -4.93567623e-02f,  4.27234778e-03f,  4.78917211e-02f,
  7.14836037e-03f,  1.13905221e-02f,  -1.35590034e-02f,  -6.19571693e-02f,  -4.61924858e-02f,  1.01623520e-01f,  5.34103699e-02f,  1.35483034e-02f,
  4.25003190e-03f,  -9.02458131e-02f,  9.36111882e-02f,  -7.05938935e-02f,  5.86092807e-02f,  1.50826015e-02f,  -7.19592199e-02f,  4.87721376e-02f,
  -1.00171126e-01f,  -5.29300189e-03f,  1.14276409e-02f,  6.28862530e-02f,  3.98056358e-02f,  -1.04428092e-02f,  2.50166394e-02f,  -6.06662855e-02f,
  5.33226207e-02f,  1.57832503e-02f,  9.76426974e-02f,  2.11060829e-02f,  8.69483873e-02f,  -1.41460365e-02f,  3.00292093e-02f,  1.38898240e-02f,
  7.29690492e-02f,  5.70294075e-03f,  -9.60563347e-02f,  -8.21667016e-02f,  3.05367876e-02f,  6.57255277e-02f,  1.06642514e-01f,  -7.51928538e-02f,
  -5.50659094e-03f,  6.92863949e-03f,  -6.18104301e-02f,  -1.04851708e-01f,  1.75766181e-02f,  -4.48648892e-02f,  7.77583346e-02f,  -6.65669888e-02f,
  9.87608880e-02f,  -9.38090608e-02f,  6.57148510e-02f,  -6.19390830e-02f,  -2.80713793e-02f,  -3.77232656e-02f,  -3.47327478e-02f,  -5.00602126e-02f,
  -1.06944278e-01f,  9.48760752e-03f,  -3.51222344e-02f,  2.38011461e-02f,  1.28580406e-02f,  -1.74668264e-02f,  -3.27490307e-02f,  5.11615016e-02f,
  8.18418860e-02f,  2.28206404e-02f,  3.21903378e-02f,  -4.62038778e-02f,  9.14105400e-02f,  7.98480399e-03f,  9.09078419e-02f,  -4.75218706e-02f,
  5.34531735e-02f,  -6.39318954e-04f,  9.90212932e-02f,  -5.35860769e-02f,  8.98261890e-02f,  -4.48006243e-02f,  5.63638918e-02f,  -5.61603047e-02f,
  -1.21568106e-01f,  7.45330900e-02f,  5.27547151e-02f,  -4.53927331e-02f,  -1.35760438e-02f,  -8.84547681e-02f,  2.56783757e-02f,  -5.12387566e-02f,
  5.26726469e-02f,  6.71589449e-02f,  2.38579474e-02f,  5.66994287e-02f,  -4.44150865e-02f,  -5.02064489e-02f,  7.22333044e-02f,  5.48277646e-02f,
  2.18996983e-02f,  -3.18032578e-02f,  6.76625296e-02f,  8.95182192e-02f,  -6.50151670e-02f,  3.46363969e-02f,  1.86699349e-02f,  -7.11792558e-02f,
  6.03137352e-03f,  1.14259217e-02f,  2.81429477e-02f,  -4.82282564e-02f,  -4.59661288e-03f,  -6.45066947e-02f,  -4.32968140e-03f,  5.28456457e-02f,
  -7.89825097e-02f,  -1.88536048e-02f,  1.15384214e-01f,  6.29327586e-03f,  3.59988888e-03f,  -3.86421233e-02f,  1.83878765e-02f,  -2.31940784e-02f,
  2.77058333e-02f,  -3.86023298e-02f,  1.26219660e-01f,  3.83106037e-03f,  2.42720172e-02f,  -6.78326562e-02f,  5.57438470e-02f,  4.66610827e-02f,
  -6.70559108e-02f,  -8.87337793e-03f,  1.27290692e-02f,  -9.31381583e-02f,  7.29522035e-02f,  1.33712873e-01f,  1.29773878e-02f,  -1.42625328e-02f,
  -4.40990031e-02f,  -5.98378666e-02f,  -4.82150838e-02f,  -9.32563096e-03f,  -5.09684160e-02f,  -7.64252320e-02f,  -6.61426112e-02f,  -3.91039737e-02f,
  -3.92148085e-02f,  3.12648993e-03f,  9.87720191e-02f,  -4.96991053e-02f,  1.07207321e-01f,  8.35068896e-03f,  7.09934831e-02f,  -8.05642605e-02f,
  5.40130958e-02f,  2.21518967e-02f,  -9.74886771e-03f,  -6.50870427e-02f,  6.03477098e-03f,  -1.78360511e-02f,  2.89622857e-03f,  -5.04194200e-02f,
  -1.06422693e-01f,  -6.51911274e-02f,  -3.35388407e-02f,  6.01151735e-02f,  1.05009764e-01f,  -5.04782461e-02f,  -3.98957357e-03f,  7.64373168e-02f,
  5.39380312e-02f,  -7.65286013e-02f,  3.93448696e-02f,  3.64836119e-02f,  2.86898110e-02f,  6.17149659e-02f,  -1.26035213e-02f,  1.55341271e-02f,
  7.22148195e-02f,  -8.01440328e-02f,  2.76073478e-02f,  5.72453104e-02f,  -1.92202963e-02f,  2.51930635e-02f,  3.32849063e-02f,  -7.92199895e-02f,
  -2.10948158e-02f,  3.50059792e-02f,  6.21367954e-02f,  3.75340804e-02f,  -5.18205687e-02f,  -1.51211005e-02f,  7.59097040e-02f,  3.13415267e-02f,
  1.37127358e-02f,  -7.46850967e-02f,  7.06737936e-02f,  -2.54404135e-02f,  1.42061021e-02f,  1.41107693e-01f,  9.41212401e-02f,  -1.22215608e-02f,
  7.82386810e-02f,  -7.52174184e-02f,  -1.86755750e-02f,  -5.91051802e-02f,  4.23624776e-02f,  7.86808133e-02f,  -3.58145796e-02f,  -4.43669818e-02f,
  7.57903652e-03f,  -3.26334313e-02f,  5.36928326e-02f,  8.80063921e-02f,  8.95659998e-02f,  -8.91876232e-04f,  5.01008555e-02f,  -4.72331271e-02f,
  -3.30714583e-02f,  -6.68230876e-02f,  -4.17422205e-02f,  8.52587521e-02f,  -4.89408188e-02f,  4.44018915e-02f,  -3.61890271e-02f,  -8.47665146e-02f,
  -2.54538059e-02f,  4.17653993e-02f,  3.11147720e-02f,  8.27054866e-03f,  5.55449426e-02f,  6.01523742e-02f,  3.71396244e-02f,  4.01588678e-02f,
  8.28935057e-02f,  2.15180926e-02f,  1.34814411e-01f,  -4.19004820e-02f,  1.07847070e-02f,  -1.09223248e-02f,  -1.85615420e-02f,  3.95327248e-02f,
  -1.79191008e-02f,  4.31444757e-02f,  9.79744121e-02f,  2.67898366e-02f,  8.77575055e-02f,  -5.14122099e-03f,  1.00685202e-01f,  2.37219222e-02f,
  -8.96907821e-02f,  -1.24946348e-02f,  -5.76515272e-02f,  6.07879425e-04f,  -5.72262816e-02f,  -5.97005635e-02f,  -5.83269680e-03f,  7.72506446e-02f,
  5.46953566e-02f,  -7.43399188e-02f,  -2.47074738e-02f,  -6.22128770e-02f,  1.15024604e-01f,  9.17394012e-02f,  -3.58779393e-02f,  -2.26517348e-03f,
  1.75501760e-02f,  3.66666238e-03f,  6.73471764e-02f,  -8.79946649e-02f,  8.37616697e-02f,  5.00353202e-02f,  -5.63754961e-02f,  6.77883849e-02f,
  -2.91841235e-02f,  -2.00660434e-02f,  -2.65589170e-02f,  6.72813505e-02f,  -6.73350915e-02f,  -5.89696541e-02f,  -6.52659908e-02f,  -3.44421715e-03f,
  -5.33588342e-02f,  -2.96518225e-02f,  -1.22751668e-01f,  5.37396781e-02f,  -4.16322351e-02f,  -2.19586380e-02f,  9.24895480e-02f,  1.09794207e-01f,
  2.02328004e-02f,  1.94900506e-03f,  -5.93698919e-02f,  -7.70716602e-03f,  9.61359814e-02f,  -5.56990728e-02f,  -4.30895463e-02f,  -5.56766801e-02f,
  -1.67723112e-02f,  -8.77774600e-03f,  5.12124673e-02f,  -4.31108102e-02f,  -1.53062036e-02f,  -3.50255370e-02f,  2.06873100e-02f,  -2.86310539e-02f,
  -3.73026505e-02f,  -6.48250803e-02f,  -3.04861404e-02f,  8.24785158e-02f,  2.46238261e-02f,  1.21594556e-02f,  1.28754543e-03f,  -8.19616318e-02f,
  -4.13312167e-02f,  6.03034012e-02f,  5.82584515e-02f,  2.98542976e-02f,  6.57256274e-03f,  -4.41713491e-03f,  -7.41034597e-02f,  1.05734505e-01f,
  -2.95582041e-02f,  -6.39540404e-02f,  9.45009198e-03f,  -3.97429988e-02f,  3.32688875e-02f,  -3.10602388e-03f,  4.35534231e-02f,  1.35553293e-02f,
  8.03068057e-02f,  -2.34576538e-02f,  -1.66591611e-02f,  1.29954927e-02f,  8.06648433e-02f,  -3.86092556e-03f,  8.40555578e-02f,  1.41764740e-02f,
  -5.09607196e-02f,  -4.89417091e-03f,  -5.83523549e-02f,  2.02902183e-02f,  6.59054937e-03f,  -5.32292984e-02f,  1.89055186e-02f,  -1.74460560e-03f,
  3.93489599e-02f,  8.65165219e-02f,  -3.92489396e-02f,  5.00990599e-02f,  1.08122274e-01f,  4.33321483e-02f,  9.59770232e-02f,  1.66839309e-04f,
  -3.71308299e-03f,  6.86727837e-02f,  -4.43357788e-02f,  5.52497394e-02f,  -8.16179719e-03f,  2.19584759e-02f,  -4.56402525e-02f,  3.38864550e-02f,
  -6.46433681e-02f,  -6.08251393e-02f,  6.59836903e-02f,  -1.44062331e-02f,  -5.56037091e-02f,  -5.47249205e-02f,  6.55651242e-02f,  2.74996068e-02f,
  -3.00560438e-04f,  3.95167917e-02f,  -5.92961460e-02f,  1.28196720e-02f,  8.35478157e-02f,  5.34171537e-02f,  -6.77620992e-02f,  -4.76240478e-02f,
  -7.48660192e-02f,  -6.72065988e-02f,  -4.24541458e-02f,  -4.28419262e-02f,  -5.45154773e-02f,  3.12344916e-03f,  -5.27101867e-02f,  9.35849771e-02f,
  -9.27437246e-02f,  1.54123483e-02f,  6.02644123e-02f,  -5.64711876e-02f,  4.13653329e-02f,  7.87969977e-02f,  2.65049282e-03f,  -6.60328642e-02f,
  4.37769480e-02f,  1.81518309e-02f,  -4.22812290e-02f,  1.12218875e-03f,  -7.63344094e-02f,  4.40040156e-02f,  2.82994751e-02f,  8.25482681e-02f,
  -6.64418638e-02f,  -2.93540861e-02f,  2.07010657e-02f,  3.52508202e-02f,  3.84489335e-02f,  2.68314462e-02f,  6.03581499e-03f,  -1.31562948e-02f,
  2.51963958e-02f,  -2.22885562e-03f,  9.65545848e-02f,  5.38688563e-02f,  -2.46761646e-03f,  -4.81553152e-02f,  2.64176112e-02f,  6.25035688e-02f,
  4.44844998e-02f,  -3.91534008e-02f,  5.96915297e-02f,  1.08025386e-03f,  -5.05497791e-02f,  1.00905783e-02f,  3.70782688e-02f,  -8.23528767e-02f,
  -8.90628397e-02f,  1.06139062e-02f,  1.96579229e-02f,  5.14858589e-02f,  -2.81201173e-02f,  3.26523334e-02f,  2.91267857e-02f,  8.14257264e-02f,
  -7.21450970e-02f,  3.34968381e-02f,  9.61568281e-02f,  6.79232553e-02f,  -7.36675560e-02f,  -2.04920974e-02f,  1.49887437e-02f,  8.22213143e-02f,
  6.78009838e-02f,  -3.59616391e-02f,  7.53683150e-02f,  6.56376556e-02f,  -2.92383619e-02f,  3.78578366e-03f,  -8.54897499e-02f,  4.32015248e-02f,
  -4.52977605e-03f,  4.39354852e-02f,  8.86366740e-02f,  1.42473010e-02f,  1.63055826e-02f,  -4.63429652e-02f,  1.03219725e-01f,  -9.63387638e-02f,
  6.83273226e-02f,  -2.36679222e-02f,  -5.16700298e-02f,  -5.69114499e-02f,  1.69667311e-03f,  5.58005683e-02f,  1.06107555e-01f,  3.68803274e-03f,
  -6.70534521e-02f,  3.73399891e-02f,  -4.33446392e-02f,  -2.34044753e-02f,  -2.12669875e-02f,  8.50673579e-03f,  1.30211879e-02f,  -5.52831106e-02f,
  7.31311068e-02f,  -3.28544825e-02f,  -5.59738018e-02f,  -4.36620526e-02f,  -6.89591914e-02f,  -1.05768397e-01f,  2.74549313e-02f,  -7.33767897e-02f,
  9.14629325e-02f,  -1.27782077e-02f,  -3.76952589e-02f,  9.87354591e-02f,  3.52295041e-02f,  -2.12335703e-03f,  6.47127554e-02f,  5.41965589e-02f,
  -5.72872860e-03f,  -7.15542212e-02f,  4.68675159e-02f,  -5.23300730e-02f,  -7.43417591e-02f,  -7.17803836e-03f,  -7.37173902e-03f,  6.85526654e-02f,
  -2.56560966e-02f,  -2.95928176e-02f,  2.60702558e-02f,  3.66209336e-02f,  -3.29116769e-02f,  -5.11045195e-02f,  8.05964693e-03f,  9.01770890e-02f,
  -5.26359379e-02f,  -3.34279276e-02f,  -2.73631383e-02f,  -5.76640628e-02f,  -2.07022615e-02f,  -1.47818904e-02f,  -1.90241411e-02f,  -1.82850100e-02f,
  -5.29857986e-02f,  -5.19223511e-02f,  8.64414200e-02f,  9.21770185e-02f,  -2.96853669e-02f,  -7.37251267e-02f,  5.40684164e-02f,  5.56987524e-02f,
  1.07919583e-02f,  2.17563882e-02f,  -4.17364873e-02f,  -5.57617061e-02f,  5.42032272e-02f,  3.43666710e-02f,  -4.93895859e-02f,  -5.07797562e-02f,
  7.46057630e-02f,  4.75725867e-02f,  -2.91581172e-02f,  1.55533012e-02f,  4.87505235e-02f,  6.04548790e-02f,  -7.69407824e-02f,  -1.07151493e-02f,
  6.89532980e-02f,  2.40781493e-02f,  5.25229909e-02f,  4.38125096e-02f,  9.76015702e-02f,  3.67113166e-02f,  -3.45772617e-02f,  7.12717995e-02f,
  -4.69872579e-02f,  2.31901966e-02f,  1.58736296e-02f,  9.14438367e-02f,  3.45001766e-03f,  -6.73851222e-02f,  -4.29958701e-02f,  -8.29040408e-02f,
  -5.21380231e-02f,  6.91481903e-02f,  2.83742175e-02f,  2.43132785e-02f,  -5.61051033e-02f,  -5.08344453e-03f,  -3.13622132e-02f,  1.17238890e-02f,
  -4.00282852e-02f,  2.65827887e-02f,  4.29690024e-03f,  -6.06948547e-02f,  2.58124787e-02f,  1.89452916e-02f,  3.35288197e-02f,  5.48983328e-02f,
  9.08640996e-02f,  -4.39702086e-02f,  4.44807410e-02f,  2.17812080e-02f,  5.18114083e-02f,  6.50546253e-02f,  -2.04665046e-02f,  4.44148630e-02f,
  4.57580052e-02f,  -1.21294875e-02f,  1.66613292e-02f,  -2.53096391e-02f,  -2.73642726e-02f,  -6.53886199e-02f,  1.76293273e-02f,  -5.19585051e-02f,
  -7.23692998e-02f,  6.11479357e-02f,  7.96924233e-02f,  2.96682566e-02f,  2.34839190e-02f,  -2.70149540e-02f,  -1.01535404e-02f,  -2.44965106e-02f,
  2.09362637e-02f,  -5.63703179e-02f,  -7.79360235e-02f,  3.72337003e-04f,  8.95715058e-02f,  -1.96560062e-02f,  4.37533371e-02f,  -1.72438473e-03f,
  -2.67594680e-02f,  -3.31777893e-02f,  -4.37008822e-03f,  1.05593139e-02f,  5.33614657e-04f,  -6.21972494e-02f,  8.33970401e-03f,  7.21340254e-02f,
  7.06250668e-02f,  -4.08941209e-02f,  -5.49901500e-02f,  7.10678101e-02f,  3.31453383e-02f,  -1.59665057e-03f,  8.16217437e-02f,  -5.95528893e-02f,
  7.66700283e-02f,  5.92301004e-02f,  -2.29360349e-03f,  -8.02903920e-02f,  4.58058864e-02f,  5.81528656e-02f,  2.37340555e-02f,  -2.34056339e-02f,
  8.96525383e-02f,  -4.93853278e-02f,  5.01564853e-02f,  -3.13219428e-02f,  7.82673955e-02f,  -3.31107527e-03f,  4.08540741e-02f,  4.56468835e-02f,
  -7.44846016e-02f,  -6.85546771e-02f,  9.08084512e-02f,  -2.83131860e-02f,  -4.85613476e-04f,  8.62888619e-02f,  1.66692212e-02f,  1.00575969e-01f,
  2.86118705e-02f,  5.28622456e-02f,  1.35848270e-04f,  3.93510684e-02f,  8.39913860e-02f,  3.06791179e-02f,  -4.59011421e-02f,  -2.56765801e-02f,
  7.02292249e-02f,  1.01883160e-02f,  7.27175027e-02f,  3.29047092e-03f,  4.73257340e-02f,  4.56920005e-02f,  -5.17341942e-02f,  -4.48907800e-02f,
  -1.09611645e-01f,  -3.53137031e-02f,  7.18101859e-02f,  -5.56010790e-02f,  6.49193898e-02f,  4.36127111e-02f,  -7.71788210e-02f,  -2.72155628e-02f,
  -8.19488168e-02f,  5.82660995e-02f,  1.31723424e-02f,  3.84507515e-02f,  6.52043521e-02f,  5.69409579e-02f,  -2.93894969e-02f,  6.61533000e-03f,
  -1.01503298e-01f,  3.19912098e-02f,  -1.66418869e-02f,  -1.10229999e-01f,  4.74934466e-02f,  1.15563162e-03f,  7.27346241e-02f,  6.70250505e-03f,
  5.42559214e-02f,  -6.76569343e-02f,  1.01695508e-01f,  -5.79979382e-02f,  8.95524099e-02f,  1.71384457e-02f,  4.56460491e-02f,  -2.70242319e-02f,
  3.27711478e-02f,  4.07611392e-03f,  8.89566243e-02f,  -2.72441246e-02f,  4.79863444e-03f,  5.54973371e-02f,  -5.57723343e-02f,  -4.29436192e-02f,
  -5.03388196e-02f,  -8.60372037e-02f,  2.98870895e-02f,  -1.90907102e-02f,  3.91447917e-04f,  7.08977506e-02f,  5.04290499e-02f,  1.96076427e-02f,
  7.62183815e-02f,  -2.65780520e-02f,  -1.71363261e-02f,  -6.16191514e-03f,  6.91992342e-02f,  1.18771285e-01f,  -8.08520019e-02f,  1.15849659e-01f,
  3.59294824e-02f,  1.09805822e-01f,  -3.38346660e-02f,  1.21316854e-02f,  1.29243717e-01f,  2.90167071e-02f,  -6.37697652e-02f,  2.46825498e-02f,
  -3.24211195e-02f,  -1.14328757e-01f,  1.07422629e-02f,  -9.28451717e-02f,  3.14759463e-02f,  2.89555086e-04f,  -8.70370790e-02f,  7.12887421e-02f,
  5.35474494e-02f,  5.65679744e-03f,  -3.49264368e-02f,  5.10862246e-02f,  -8.62106904e-02f,  4.74730618e-02f,  1.71227735e-02f,  1.25344723e-01f,
  3.77714168e-03f,  9.67280194e-02f,  -1.18074946e-01f,  1.55737437e-02f,  2.91510727e-02f,  -1.88525356e-02f,  3.51840034e-02f,  4.09021601e-02f,
  8.44000280e-02f,  9.94187500e-03f,  4.31551039e-02f,  5.65813156e-03f,  1.07957751e-01f,  -9.76230763e-03f,  7.80865625e-02f,  -7.20374584e-02f,
  7.67419040e-02f,  -1.10829949e-01f,  -5.02243359e-03f,  2.96937581e-02f,  -2.76444536e-02f,  4.46935110e-02f,  -6.03448488e-02f,  -6.98666945e-02f,
  2.40051486e-02f,  1.22987054e-01f,  9.39029232e-02f,  -1.98233197e-03f,  -7.97392875e-02f,  3.37788984e-02f,  9.04819742e-02f,  3.42623480e-02f,
  2.57862099e-02f,  -9.76975560e-02f,  8.97889733e-02f,  2.25809570e-02f,  1.81636214e-02f,  1.34416059e-01f,  1.97983813e-03f,  -3.19479480e-02f,
  2.02776231e-02f,  2.43629962e-02f,  -9.56556574e-03f,  5.44786081e-02f,  1.08365044e-02f,  5.19422218e-02f,  -5.75807951e-02f,  -1.87538296e-03f,
  -1.20076247e-01f,  7.94109926e-02f,  -2.46530119e-02f,  -4.91950735e-02f,  1.04270287e-01f,  4.74123098e-02f,  4.59348597e-03f,  5.76133206e-02f,
  -2.91327387e-03f,  4.52890061e-02f,  -2.03727540e-02f,  -5.08619025e-02f,  1.18793704e-01f,  -2.14977562e-02f,  1.30468816e-01f,  9.29943696e-02f,
  -3.65246795e-02f,  9.72726047e-02f,  8.48092958e-02f,  -5.67102879e-02f,  8.30813125e-03f,  -2.47980915e-02f,  -7.09755719e-02f,  -5.50001860e-02f,
  6.43824339e-02f,  -2.77157035e-02f,  -4.74177636e-02f,  5.40060923e-02f,  -7.37790465e-02f,  3.58062349e-02f,  -3.82401571e-02f,  -7.95781314e-02f,
  1.88228190e-02f,  -3.93844619e-02f,  -3.52677889e-02f,  5.15683852e-02f,  -2.53889840e-02f,  2.22968441e-02f,  5.71286641e-02f,  6.45110831e-02f,
  9.74052101e-02f,  7.35505819e-02f,  5.32074161e-02f,  1.25516588e-02f,  -6.25313669e-02f,  3.96620259e-02f,  6.35681227e-02f,  -4.97232005e-02f,
  -9.36895236e-03f,  8.11562985e-02f,  7.82049298e-02f,  1.61095690e-02f,  -4.61541191e-02f,  -4.73544970e-02f,  2.44467426e-02f,  -6.50372133e-02f,
  -4.12371010e-02f,  9.41306725e-02f,  -6.95183128e-03f,  -5.19473851e-02f,  -3.60462852e-02f,  -2.76624952e-02f,  1.44988382e-02f,  -6.70839027e-02f,
  -5.23121208e-02f,  -5.82892299e-02f,  5.96396849e-02f,  -1.86237954e-02f,  6.13109535e-03f,  6.38031438e-02f,  -7.82936215e-02f,  5.00685051e-02f,
  -7.94540495e-02f,  4.39131074e-03f,  -3.43971737e-02f,  6.38420805e-02f,  5.85090667e-02f,  -5.03570922e-02f,  -8.39881673e-02f,  5.18753901e-02f,
  5.88637777e-02f,  6.56198710e-02f,  2.39463663e-03f,  -5.83654605e-02f,  -7.17588048e-03f,  6.42358959e-02f,  -7.54155144e-02f,  -2.29081511e-02f,
  -2.73051355e-02f,  5.24673387e-02f,  1.86455380e-02f,  -3.99327651e-02f,  -4.25496139e-02f,  3.83364744e-02f,  -6.09213300e-02f,  -7.15791211e-02f,
  1.41159259e-02f,  -7.68752918e-02f,  -4.32055537e-03f,  -3.83671783e-02f,  -3.83565724e-02f,  -7.93300662e-03f,  4.29847538e-02f,  -3.33874822e-02f,
  7.34888911e-02f,  -8.87224730e-03f,  9.72423255e-02f,  8.09616446e-02f,  -3.69928107e-02f,  3.64125296e-02f,  1.18232276e-02f,  4.83679995e-02f,
  -4.67370562e-02f,  -6.83553070e-02f,  -1.94886737e-02f,  -7.32516078e-03f,  3.89719531e-02f,  4.16231900e-02f,  -3.65338884e-02f,  -7.62601942e-02f,
  -7.47067258e-02f,  2.47407407e-02f,  -5.48798479e-02f,  4.12106961e-02f,  2.05898043e-02f,  6.55301809e-02f,  2.17352388e-03f,  -3.56893847e-03f,
  6.74660653e-02f,  -6.36499301e-02f,  -5.93698472e-02f,  3.27911451e-02f,  3.76742110e-02f,  6.37067705e-02f,  5.69437183e-02f,  -4.27420959e-02f,
  -2.61228308e-02f,  -5.32700829e-02f,  5.00858575e-02f,  7.29611591e-02f,  2.23591104e-02f,  -1.79433618e-02f,  8.86796713e-02f,  -2.80019343e-02f,
  7.42836073e-02f,  2.47167386e-02f,  2.14541256e-02f,  6.46534488e-02f,  1.33958962e-02f,  -8.16692188e-02f,  -1.04002938e-01f,  -2.18260512e-02f,
  -1.49419047e-02f,  8.13364089e-02f,  -3.06365229e-02f,  5.16798608e-02f,  3.48668615e-03f,  5.18947095e-02f,  8.11986551e-02f,  3.36894616e-02f,
  -2.09880644e-03f,  5.31640835e-03f,  -4.77639884e-02f,  -2.34847218e-02f,  6.31425902e-02f,  -1.43183460e-02f,  3.45434658e-02f,  -5.60057051e-02f,
  2.38769990e-03f,  6.41963407e-02f,  -6.09043129e-02f,  -2.92905197e-02f,  7.17229992e-02f,  7.03238994e-02f,  -4.98989709e-02f,  5.34929521e-02f,
  4.32300977e-02f,  -3.19479592e-02f,  -4.51522507e-02f,  5.44089228e-02f,  1.36680203e-02f,  -9.62412581e-02f,  6.52700886e-02f,  -2.37563346e-02f,
  2.67011467e-02f,  6.48453161e-02f,  4.61782999e-02f,  -7.02475235e-02f,  -7.85552263e-02f,  -5.34906313e-02f,  5.91277843e-03f,  6.00317866e-03f,
  3.32668722e-02f,  8.12757947e-03f,  -3.59906873e-04f,  -7.44464295e-03f,  5.76826669e-02f,  7.04811439e-02f,  6.88096508e-02f,  -2.31702551e-02f,
  -5.76708727e-02f,  -4.61261123e-02f,  5.11219054e-02f,  6.00444786e-02f,  8.80363211e-02f,  -7.22438395e-02f,  1.51115749e-02f,  -4.62832041e-02f,
  -3.99305932e-02f,  -3.44919786e-02f,  -3.79910022e-02f,  -2.57800538e-02f,  3.03506218e-02f,  -5.28156478e-03f,  8.83948654e-02f,  -1.00212917e-02f,
  3.45648751e-02f,  1.28586695e-01f,  -3.07205506e-02f,  3.06357350e-02f,  9.67388302e-02f,  -1.10044152e-01f,  5.19068316e-02f,  -2.98310742e-02f,
  1.11556090e-01f,  -2.13297009e-02f,  8.74674842e-02f,  -1.75743178e-02f,  1.38552058e-02f,  -7.88527727e-02f,  1.91938374e-02f,  -9.82609987e-02f,
  5.75898737e-02f,  6.99888542e-02f,  5.99438846e-02f,  -1.78930797e-02f,  -4.27957363e-02f,  9.80915409e-03f,  1.37014046e-01f,  3.30542512e-02f,
  -4.71120887e-02f,  -1.16218708e-01f,  -1.34853512e-01f,  6.03418611e-03f,  4.79490720e-02f,  2.66011041e-02f,  -9.40540209e-02f,  -9.09713656e-03f,
  1.03899911e-01f,  -6.91729318e-03f,  9.86814573e-02f,  -3.12550962e-02f,  4.34771217e-02f,  3.68641391e-02f,  3.99776362e-02f,  7.42327794e-02f,
  3.55190337e-02f,  -4.76788022e-02f,  -2.34916192e-02f,  8.98893774e-02f,  -5.66710159e-02f,  1.39596924e-01f,  3.91071662e-02f,  -4.63464111e-03f,
  -2.01710686e-02f,  2.90450337e-03f,  1.03442647e-01f,  -2.32524574e-02f,  -2.29982473e-02f,  1.87428482e-02f,  8.66338536e-02f,  3.68469022e-02f,
  8.00437927e-02f,  3.19703529e-03f,  -8.37635472e-02f,  -2.59401090e-03f,  -5.11034876e-02f,  5.59958955e-03f,  3.87933291e-02f,  -7.87341446e-02f,
  8.69511664e-02f,  4.33671363e-02f,  -6.98705614e-02f,  4.89607826e-03f,  7.48489574e-02f,  -3.64766791e-02f,  6.63318038e-02f,  6.24804117e-04f,
  8.95582438e-02f,  -4.77216803e-02f,  -2.48911208e-03f,  3.98525186e-02f,  -7.18990564e-02f,  -4.58313851e-03f,  -2.47500539e-02f,  -9.20191854e-02f,
  -5.05377427e-02f,  1.30909216e-02f,  -5.16345687e-02f,  -6.86540902e-02f,  -3.57068665e-02f,  8.61008987e-02f,  9.47243497e-02f,  -3.38261798e-02f,
  -7.98354670e-02f,  -1.36314463e-02f,  -2.95593496e-02f,  5.65579813e-03f,  -1.33407228e-02f,  8.67975131e-02f,  -4.06348929e-02f,  7.08060488e-02f,
  1.40385022e-02f,  -4.69178520e-03f,  2.21198071e-02f,  5.27532734e-02f,  2.94078112e-04f,  8.38150829e-02f,  2.89815851e-03f,  -4.15651277e-02f,
  -4.23977785e-02f,  -1.98435783e-02f,  5.27328551e-02f,  -4.17898260e-02f,  -4.17295732e-02f,  6.23749476e-03f,  -9.11881030e-02f,  -6.55476451e-02f,
  2.44436413e-03f,  9.13499966e-02f,  3.90184112e-02f,  2.93008350e-02f,  -4.84389775e-02f,  9.73383989e-03f,  -5.22003360e-02f,  7.60722384e-02f,
  -2.21659765e-02f,  -6.24842681e-02f,  -4.88251522e-02f,  5.14829606e-02f,  -2.34114416e-02f,  -3.75981927e-02f,  8.16903934e-02f,  4.95641008e-02f,
  2.39058528e-02f,  -4.54544835e-03f,  -7.37533625e-03f,  2.14493480e-02f,  7.67572364e-03f,  -3.87704857e-02f,  -1.98064931e-03f,  -8.95545855e-02f,
  -3.93743888e-02f,  3.86043638e-02f,  4.94545102e-02f,  7.35689625e-02f,  7.49934539e-02f,  -4.38526012e-02f,  -4.82783578e-02f,  -6.23555668e-02f,
  4.48503830e-02f,  5.05686700e-02f,  1.52748600e-02f,  -4.59146947e-02f,  -1.87472682e-02f,  -8.37659612e-02f,  -2.40474883e-02f,  -5.51930442e-02f,
  -5.42881303e-02f,  -4.34680395e-02f,  6.14510523e-03f,  -4.04428206e-02f,  4.25326675e-02f,  7.69539699e-02f,  -2.82721445e-02f,  9.71466675e-03f,
  -3.01838666e-02f,  2.69815233e-03f,  -2.91283219e-03f,  -4.91520055e-02f,  -7.11335391e-02f,  1.01849828e-02f,  6.08881116e-02f,  1.01526929e-02f,
  -5.19342627e-03f,  6.81921616e-02f,  9.15014185e-03f,  -3.04314382e-02f,  2.50575151e-02f,  -6.40089884e-02f,  4.63046543e-02f,  -6.53940290e-02f,
  -2.71776319e-02f,  7.37237260e-02f,  -7.10399151e-02f,  -6.10982291e-02f,  -1.20610707e-02f,  -7.50530735e-02f,  5.42480126e-02f,  2.48717386e-02f,
  -5.92746697e-02f,  -1.03069255e-02f,  4.33036499e-02f,  8.87758099e-04f,  1.27502857e-02f,  -1.47441318e-02f,  -8.21124092e-02f,  -5.05509786e-02f,
  -2.09460245e-03f,  -3.23764123e-02f,  7.35202432e-03f,  1.66536719e-02f,  -5.03842682e-02f,  -5.88576943e-02f,  -1.86859891e-02f,  -8.65746066e-02f,
  -1.61287729e-02f,  -1.03266686e-02f,  6.93884678e-03f,  -5.83253838e-02f,  1.21934973e-02f,  1.00166653e-03f,  4.59732302e-02f,  6.20098300e-02f,
  5.07415831e-02f,  -6.14695102e-02f,  -3.82265970e-02f,  2.06225887e-02f,  -2.05461383e-02f,  -7.68892542e-02f,  -4.57795002e-02f,  -7.43343309e-02f,
  -8.89019668e-02f,  5.76778091e-02f,  8.85203183e-02f,  -7.14257807e-02f,  -6.08102307e-02f,  -3.84059884e-02f,  4.59476002e-02f,  -2.07274649e-02f,
  3.66107300e-02f,  -3.91183682e-02f,  5.04001649e-03f,  4.96053994e-02f,  -8.27152655e-02f,  4.96654771e-04f,  -3.11802756e-02f,  -8.20088387e-02f,
  -4.83627319e-02f,  -7.74752572e-02f,  6.47336021e-02f,  7.50948191e-02f,  -3.61615233e-02f,  2.59588882e-02f,  -8.18933323e-02f,  4.25095931e-02f,
  -4.32261825e-02f,  7.55347759e-02f,  -2.40134308e-03f,  1.77600067e-02f,  -4.89930324e-02f,  7.16616982e-04f,  -8.78886878e-02f,  -6.76860735e-02f,
  5.37744015e-02f,  -7.64335766e-02f,  -4.73770015e-02f,  4.56296392e-02f,  8.26600753e-03f,  -2.96991225e-02f,  -9.68317501e-03f,  2.25390196e-02f,
  -2.96147000e-02f,  5.77813126e-02f,  1.26460730e-03f,  5.96270934e-02f,  4.04404327e-02f,  5.37655354e-02f,  -6.60597533e-02f,  -5.38150594e-02f,
  3.33865844e-02f,  -7.19227418e-02f,  7.29202777e-02f,  -6.07976876e-02f,  -1.31443255e-02f,  -5.02015650e-02f,  -6.25712648e-02f,  -9.10492763e-02f,
  -4.47743945e-02f,  1.04299471e-01f,  9.65572447e-02f,  -5.58072254e-02f,  -7.17316344e-02f,  -1.43109821e-02f,  -6.26681140e-03f,  5.64633645e-02f,
  -4.04495113e-02f,  9.71035566e-04f,  8.29306990e-02f,  7.33894408e-02f,  8.00284967e-02f,  5.50226029e-03f,  1.24445207e-01f,  -7.13963807e-02f,
  -1.77505761e-02f,  -9.11666378e-02f,  3.69223692e-02f,  -8.53783190e-02f,  -8.39886591e-02f,  3.47762816e-02f,  -5.07191643e-02f,  6.08442016e-02f,
  5.02980910e-02f,  4.25963402e-02f,  1.03915334e-02f,  1.55368047e-02f,  1.21271051e-01f,  -4.92022298e-02f,  -4.18220162e-02f,  -3.91921625e-02f,
  -3.95385623e-02f,  -5.06810583e-02f,  8.10958520e-02f,  5.93915023e-03f,  1.08629838e-01f,  -1.22509142e-02f,  6.84343874e-02f,  1.21520832e-02f,
  -8.65085609e-03f,  5.26054837e-02f,  9.36135575e-02f,  3.33524980e-02f,  -8.94001871e-02f,  -6.19486831e-02f,  -7.48531520e-02f,  -4.65509519e-02f,
  1.25663634e-02f,  9.50379819e-02f,  -3.86340683e-03f,  4.81296070e-02f,  -4.19936553e-02f,  5.10386117e-02f,  1.73004214e-02f,  -7.36294687e-02f,
  -3.49057131e-02f,  -4.84268889e-02f,  3.05514708e-02f,  8.11625049e-02f,  6.38712943e-02f,  6.79307133e-02f,  -9.66334157e-03f,  -2.04209331e-02f,
  -3.06660105e-02f,  -4.74618338e-02f,  4.19638790e-02f,  -7.37926215e-02f,  4.66110359e-05f,  -5.15900254e-02f,  5.98800257e-02f,  4.45127785e-02f,
  -1.00537382e-01f,  7.78354779e-02f,  4.70796302e-02f,  1.04027633e-02f,  7.78710544e-02f,  -8.08446333e-02f,  -5.79112805e-02f,  2.13898793e-02f,
  7.66109722e-03f,  -5.50040714e-02f,  -3.97113636e-02f,  5.68743423e-02f,  -1.71231031e-02f,  1.26573339e-03f,  2.96389274e-02f,  1.01401964e-02f,
  6.91935569e-02f,  -2.24250951e-03f,  -4.96483780e-02f,  -3.13921720e-02f,  1.02415746e-02f,  3.18280980e-02f,  7.13092312e-02f,  1.72728300e-03f,
  -1.43031254e-02f,  7.21080676e-02f,  6.86883554e-03f,  -4.78407145e-02f,  -2.37659179e-02f,  -3.73860970e-02f,  -1.72237996e-02f,  5.99754192e-02f,
  -6.61976784e-02f,  -1.74789783e-02f,  -5.15730008e-02f,  5.65253310e-02f,  7.15600029e-02f,  -8.22896510e-02f,  5.01316898e-02f,  2.83333063e-02f,
  -6.58837100e-03f,  -6.45248890e-02f,  6.31667376e-02f,  7.00567961e-02f,  9.42526758e-02f,  -6.93222657e-02f,  -7.72727951e-02f,  -7.85390008e-03f,
  7.53168613e-02f,  6.95993751e-03f,  -2.11138409e-02f,  1.33450344e-01f,  5.41607570e-03f,  -7.29557350e-02f,  -2.76391348e-03f,  -4.15523313e-02f,
  6.40613660e-02f,  -1.98593698e-02f,  5.56922965e-02f,  4.90445681e-02f,  3.20953727e-02f,  7.98817724e-02f,  9.71377268e-02f,  -1.63995065e-02f,
  -2.73287371e-02f,  -5.03879189e-02f,  -3.77778076e-02f,  4.39342409e-02f,  1.13374583e-01f,  4.93431985e-02f,  6.36715144e-02f,  6.83005899e-02f,
  -3.51653202e-03f,  -7.39393756e-02f,  6.77398173e-03f,  2.46440079e-02f,  -5.31693101e-02f,  7.39495233e-02f,  4.80825976e-02f,  3.80680431e-03f,
  -6.06849790e-02f,  -5.30339591e-02f,  2.43370794e-02f,  6.57481477e-02f,  6.20442964e-02f,  4.80889492e-02f,  2.87480298e-02f,  -3.49611640e-02f,
  9.26947594e-03f,  9.11746174e-02f,  6.55092523e-02f,  2.50297561e-02f,  -4.81531098e-02f,  -6.65177777e-02f,  1.06756382e-01f,  1.79096535e-02f,
  -4.04671133e-02f,  1.93505492e-02f,  3.91005306e-04f,  -2.61784866e-02f,  -4.62982468e-02f,  6.20859228e-02f,  5.50499931e-02f,  1.81480870e-02f,
  9.24475957e-03f,  -6.16002269e-02f,  -2.09873691e-02f,  -9.43343341e-02f,  -3.58686298e-02f,  1.09512089e-02f,  -5.81564121e-02f,  6.70073107e-02f,
  1.59827154e-02f,  -6.14431538e-02f,  6.72639161e-02f,  1.25045208e-02f,  -2.72123842e-03f,  3.34606990e-02f,  1.12408102e-02f,  -3.64291221e-02f,
  -4.86438721e-02f,  4.81979689e-03f,  -1.60875209e-02f,  -2.55112629e-02f,  -2.82537043e-02f,  4.97429855e-02f,  4.57156673e-02f,  -4.22464907e-02f,
  7.66502768e-02f,  3.59283574e-02f,  5.39477449e-03f,  -8.82022381e-02f,  -2.15362143e-02f,  -5.69684571e-03f,  9.02417973e-02f,  2.31391396e-02f,
  2.30279621e-02f,  2.94109974e-02f,  4.11584377e-02f,  -9.33077484e-02f,  8.50706398e-02f,  3.64045091e-02f,  -7.95903504e-02f,  -3.98267359e-02f,
  8.88561917e-05f,  1.03087155e-02f,  3.65864784e-02f,  -2.26026122e-02f,  7.01733306e-02f,  -9.64657310e-03f,  -5.22618517e-02f,  7.84476623e-02f,
  2.42262110e-02f,  -5.56940399e-02f,  -1.89763345e-02f,  -8.67625419e-03f,  9.70249102e-02f,  5.20071648e-02f,  1.01815782e-01f,  3.93604450e-02f,
  9.26116928e-02f,  -6.67476580e-02f,  7.77242407e-02f,  2.43879855e-02f,  3.39956246e-02f,  1.05700288e-02f,  3.82760912e-02f,  -1.74065232e-02f,
  2.51585357e-02f,  -1.14375986e-02f,  8.39819759e-02f,  -5.95039129e-02f,  -5.43346405e-02f,  -4.34766384e-03f,  3.87405530e-02f,  6.91928267e-02f,
  8.65828842e-02f,  5.62297553e-02f,  9.84832123e-02f,  -1.90256652e-03f,  2.90446598e-02f,  2.34636515e-02f,  5.54898083e-02f,  -9.43127461e-03f,
  5.05921245e-02f,  3.39736231e-02f,  1.17150955e-01f,  1.03059709e-01f,  3.32943276e-02f,  -1.13037778e-02f,  -1.18562477e-02f,  -1.78603940e-02f,
  -2.54900940e-03f,  -1.22501757e-02f,  5.80492020e-02f,  6.23468719e-02f,  3.63820493e-02f,  1.06954640e-02f,  4.67409864e-02f,  9.74510610e-02f,
  1.09204076e-01f,  -8.90761390e-02f,  -3.80451828e-02f,  -7.88458809e-02f,  1.10698827e-04f,  -3.35671268e-02f,  -1.77271012e-02f,  1.29519198e-02f,
  -9.06215832e-02f,  7.86939636e-02f,  3.41166593e-02f,  -3.12197469e-02f,  5.49350642e-02f,  2.26504691e-02f,  -5.04093394e-02f,  6.42147884e-02f,
  4.78098765e-02f,  5.96533604e-02f,  9.74280946e-03f,  5.73502705e-02f,  3.58076096e-02f,  5.93229048e-02f,  8.37084204e-02f,  1.22633323e-01f,
  4.27491106e-02f,  -6.46123989e-03f,  -8.75788927e-02f,  8.12103376e-02f,  -5.17605729e-02f,  1.90326814e-02f,  2.91216727e-02f,  6.49914369e-02f,
  3.27837840e-02f,  3.29433307e-02f,  -9.43183806e-03f,  -8.26467052e-02f,  1.63679607e-02f,  3.23171318e-02f,  6.40208796e-02f,  1.63322687e-03f,
  3.14560123e-02f,  5.18803298e-02f,  1.08748414e-01f,  -6.54575229e-02f,  8.78920928e-02f,  4.33281995e-02f,  9.43689123e-02f,  -1.89813022e-02f,
  -3.85692753e-02f,  9.29167867e-02f,  -6.16049878e-02f,  -1.92764644e-02f,  -2.71604490e-02f,  4.54131141e-02f,  2.28330083e-02f,  6.42342716e-02f,
  5.17018954e-04f,  -1.08016707e-01f,  9.38907489e-02f,  4.64426205e-02f,  -5.82753159e-02f,  1.03731617e-01f,  1.21357948e-01f,  4.96826544e-02f,
  3.41141112e-02f,  -1.10138632e-01f,  3.60659398e-02f,  -5.76418452e-02f,  -3.69980372e-02f,  1.00679480e-01f,  5.19342422e-02f,  -1.27115066e-03f,
  -1.07369728e-01f,  -2.31051445e-02f,  -4.09128629e-02f,  4.38040756e-02f,  8.85449350e-02f,  -4.02761362e-02f,  2.70908829e-02f,  -9.78901237e-03f,
  -6.11890368e-02f,  -5.27093839e-03f,  6.77156970e-02f,  3.86621542e-02f,  1.22284181e-01f,  -1.30379209e-02f,  1.18310384e-01f,  3.37370969e-02f,
  6.79474473e-02f,  -4.00824996e-04f,  -1.58804469e-02f,  4.39306721e-02f,  -1.92693751e-02f,  4.38443124e-02f,  -6.01830445e-02f,  -7.30357617e-02f,
  -3.60977948e-02f,  -4.25122418e-02f,  1.83705911e-02f,  6.34602904e-02f,  7.22363889e-02f,  4.84171920e-02f,  -6.22405708e-02f,  6.81935698e-02f,
  4.77764718e-02f,  2.57840939e-02f,  1.79182105e-02f,  3.58745120e-02f,  6.24065064e-02f,  2.98912860e-02f,  1.25615322e-03f,  -9.06275411e-04f,
  7.30594769e-02f,  -4.01849635e-02f,  4.29467820e-02f,  -3.44671635e-03f,  -1.71074346e-02f,  -5.02344072e-02f,  -7.43534863e-02f,  -1.77382100e-02f,
  4.87293117e-02f,  7.60435462e-02f,  -3.23724300e-02f,  -7.01067448e-02f,  -3.65283228e-02f,  -5.70954476e-03f,  5.45424744e-02f,  -7.46320561e-02f,
  -1.80098624e-03f,  -6.64157197e-02f,  4.92038541e-02f,  7.80311301e-02f,  3.03950044e-04f,  1.66233554e-02f,  -4.61221263e-02f,  5.94494231e-02f,
  4.70725670e-02f,  -2.55982932e-02f,  -5.82125522e-02f,  -7.74531737e-02f,  -1.04644476e-02f,  3.95857580e-02f,  -8.64465535e-02f,  -3.30475383e-02f,
  -7.16677159e-02f,  7.26736262e-02f,  -5.32881264e-03f,  2.09908914e-02f,  7.30856657e-02f,  -2.74295807e-02f,  -5.38537391e-02f,  6.53729588e-02f,
  1.94935128e-04f,  -4.98711802e-02f,  -3.15704942e-03f,  -6.26945049e-02f,  -2.00750250e-02f,  -4.14065570e-02f,  4.69413027e-02f,  -3.81545238e-02f,
  8.15765709e-02f,  -6.07070746e-03f,  1.46379262e-01f,  6.51481003e-02f,  4.30940613e-02f,  3.74231264e-02f,  -5.41425943e-02f,  -8.08004290e-03f,
  2.07415465e-02f,  1.08695030e-01f,  1.42590836e-01f,  -6.31578788e-02f,  -3.43141779e-02f,  -2.89986357e-02f,  -5.50327562e-02f,  -3.21812630e-02f,
  6.91002011e-02f,  7.97739252e-02f,  4.60908562e-03f,  -1.90060809e-02f,  5.18406816e-02f,  -1.26488907e-02f,  5.27287507e-03f,  1.21480711e-01f,
  -5.37593327e-02f,  -5.89248091e-02f,  -1.44858867e-01f,  2.80021168e-02f,  3.24012600e-02f,  4.06122059e-02f,  -1.51050910e-02f,  1.01189338e-01f,
  7.67029002e-02f,  7.93770105e-02f,  2.83957161e-02f,  1.32147279e-02f,  9.84222144e-02f,  -2.96638887e-02f,  5.56047186e-02f,  -3.47829536e-02f,
  5.67327254e-02f,  -6.20425195e-02f,  -6.14994206e-02f,  3.52099128e-02f,  1.49789322e-02f,  2.42716465e-02f,  -4.75610495e-02f,  1.81405768e-02f,
  -1.82990059e-02f,  2.80015822e-02f,  -7.52499402e-02f,  -1.57009270e-02f,  -9.28082615e-02f,  -3.13563347e-02f,  1.32179216e-01f,  4.99520488e-02f,
  3.51285338e-02f,  -4.94431844e-03f,  -5.72985969e-03f,  -7.17625022e-03f,  2.76696924e-02f,  -7.50618204e-02f,  -9.40547734e-02f,  2.44380012e-02f,
  2.52526021e-03f,  -5.79572432e-02f,  -2.26552151e-02f,  1.03286812e-02f,  -4.75201868e-02f,  -5.55572845e-02f,  -5.08470424e-02f,  -8.25823564e-03f,
  -4.50551743e-03f,  6.87055513e-02f,  3.23421285e-02f,  8.30477923e-02f,  3.05137448e-02f,  -2.63735112e-02f,  9.30641498e-03f,  -1.60313696e-02f,
  -9.04358644e-03f,  8.32113326e-02f,  -6.87156543e-02f,  -4.80290353e-02f,  -2.58542988e-02f,  3.94249745e-02f,  8.81397277e-02f,  1.42180314e-02f,
  4.31601927e-02f,  6.85500726e-02f,  2.62227822e-02f,  1.63854100e-02f,  -1.97765641e-02f,  -6.50383458e-02f,  -3.49381007e-02f,  1.57655533e-02f,
  -6.59210235e-02f,  5.36007099e-02f,  -7.90882930e-02f,  -8.62065181e-02f,  2.06662313e-04f,  -7.62263909e-02f,  -1.43838162e-02f,  1.03326524e-02f,
  -5.84090222e-03f,  -3.68284807e-02f,  7.23916888e-02f,  -7.44809117e-03f,  -4.55589108e-02f,  4.07744832e-02f,  4.23586331e-02f,  6.00029603e-02f,
  5.47343865e-02f,  -3.99424843e-02f,  3.82923149e-02f,  5.23795150e-02f,  1.01839431e-01f,  -9.55765881e-03f,  5.86288162e-02f,  2.94880988e-03f,
  7.48389885e-02f,  -9.53820441e-03f,  -3.95463826e-03f,  3.15993018e-02f,  -4.47798111e-02f,  4.95850444e-02f,  -1.58488564e-02f,  4.36250344e-02f,
  -4.66276743e-02f,  -5.29170148e-02f,  3.33710574e-02f,  3.44310328e-02f,  5.16707897e-02f,  8.44032913e-02f,  -3.61858159e-02f,  5.75116202e-02f,
  -6.28768876e-02f,  6.17070161e-02f,  -6.88403621e-02f,  9.18233320e-02f,  5.01580425e-02f,  -6.88577518e-02f,  6.43513426e-02f,  -1.27245644e-02f,
  7.20996410e-02f,  8.27524513e-02f,  2.19656751e-02f,  -5.06876595e-02f,  2.06821552e-03f,  1.74484365e-02f,  -5.96496761e-02f,  -7.06834644e-02f,
  1.03682159e-02f,  2.53091417e-02f,  2.14987826e-02f,  7.56882951e-02f,  6.04909845e-02f,  -8.49180669e-03f,  -5.92770241e-02f,  2.55399244e-03f,
  -8.24584141e-02f,  -4.96092886e-02f,  -4.84276414e-02f,  2.41597611e-02f,  -4.68150806e-03f,  -3.62252258e-02f,  3.12008206e-02f,  -4.69456837e-02f,
  -5.33398846e-03f,  -7.84586295e-02f,  8.36759806e-02f,  2.99717356e-02f,  -4.33357805e-02f,  3.97928879e-02f,  -2.59401966e-02f,  -2.11832933e-02f,
  3.40390578e-02f,  -3.55245657e-02f,  8.68417919e-02f,  5.43317460e-02f,  4.94139045e-02f,  -3.86399706e-03f,  -5.44554330e-02f,  -8.90753940e-02f,
  1.42864389e-02f,  6.14174269e-03f,  6.03553429e-02f,  9.05351341e-02f,  -4.18278798e-02f,  3.34864706e-02f,  7.61443400e-04f,  4.96860594e-03f,
  -2.14497447e-02f,  -8.96307826e-03f,  7.75646865e-02f,  9.73686203e-02f,  -4.02031690e-02f,  2.10693721e-02f,  -5.06302640e-02f,  5.69126196e-02f,
  2.87643522e-02f,  5.02260104e-02f,  -6.56434447e-02f,  9.98379942e-03f,  3.09546739e-02f,  3.41137201e-02f,  5.01867346e-02f,  3.99434008e-02f,
  -6.59573078e-02f,  9.07564312e-02f,  3.26848612e-03f,  3.44217420e-02f,  -2.85015721e-02f,  -4.30663861e-02f,  -5.60688339e-02f,  -1.79916713e-02f,
  -8.33619088e-02f,  5.82334353e-03f,  8.89247581e-02f,  7.70525336e-02f,  -7.82380179e-02f,  2.60737203e-02f,  6.48307130e-02f,  -2.17170771e-02f,
  -5.48326187e-02f,  -6.46761805e-02f,  -1.01551972e-02f,  8.34285691e-02f,  -3.26385163e-02f,  -4.61492985e-02f,  3.12200859e-02f,  -3.34104076e-02f,
  -2.27553993e-02f,  5.06529249e-02f,  -5.82222752e-02f,  1.50803011e-02f,  3.05790547e-02f,  6.24343045e-02f,  -1.11158928e-02f,  -6.20126724e-03f,
  -7.68432617e-02f,  5.92175275e-02f,  2.32950761e-03f,  7.55271316e-02f,  2.51152515e-02f,  2.21347362e-02f,  8.10013711e-02f,  6.38139760e-03f,
  -2.63115671e-02f,  -5.59285246e-02f,  6.85522929e-02f,  4.15974185e-02f,  4.60951440e-02f,  9.62915048e-02f,  -1.23759257e-02f,  1.25280619e-02f,
  2.60147303e-02f,  -9.11946744e-02f,  8.45030695e-02f,  -9.08855116e-04f,  7.63006788e-03f,  -3.53056076e-03f,  -6.94848299e-02f,  2.74342243e-02f,
  -1.64469816e-02f,  -8.59553739e-02f,  -3.98726016e-02f,  7.58736730e-02f,  3.91233079e-02f,  -7.17343688e-02f,  9.72297713e-02f,  -3.02708559e-02f,
  1.46912802e-02f,  5.96176945e-02f,  -2.21856181e-02f,  3.19457389e-02f,  1.72331072e-02f,  -5.07111065e-02f,  -2.22633239e-02f,  4.80973721e-02f,
  -4.18508537e-02f,  4.60848361e-02f,  -1.00132292e-02f,  -5.92947677e-02f,  4.07632999e-02f,  4.43141498e-02f,  8.24952722e-02f,  2.37223227e-02f,
  1.01900458e-01f,  3.82609777e-02f,  5.92002720e-02f,  -4.24725637e-02f,  -7.14629069e-02f,  -6.82346225e-02f,  5.93030453e-02f,  3.18809748e-02f,
  -7.22838491e-02f,  6.92478791e-02f,  -4.05913182e-02f,  7.27624521e-02f,  7.06622079e-02f,  -7.56461546e-02f,  1.07668312e-02f,  -5.39012998e-03f,
  -2.09800601e-02f,  -4.41844910e-02f,  6.75817430e-02f,  7.84307420e-02f,  8.51358324e-02f,  -3.21863256e-02f,  -3.82508673e-02f,  9.72558111e-02f,
  -6.94539845e-02f,  -2.58443542e-02f,  5.92851080e-02f,  5.61981462e-02f,  5.62159643e-02f,  9.40656886e-02f,  9.19897780e-02f,  6.54324517e-02f,
  9.39648449e-02f,  2.12584641e-02f,  6.00633770e-02f,  -9.06210244e-02f,  -3.39847282e-02f,  2.17821021e-02f,  7.47696981e-02f,  5.81747070e-02f,
  -2.91846991e-02f,  9.98009369e-03f,  1.34078553e-02f,  -1.90026723e-02f,  -4.55554612e-02f,  4.26967666e-02f,  1.05718516e-01f,  -4.45717685e-02f,
  -1.00404210e-01f,  -2.09476463e-02f,  5.12913279e-02f,  6.35781288e-02f,  -1.92102231e-02f,  -8.93820524e-02f,  -4.92415614e-02f,  3.45743378e-03f,
  4.41396385e-02f,  -8.84476528e-02f,  7.90295601e-02f,  5.84137142e-02f,  9.82760787e-02f,  -3.94181833e-02f,  -5.08050546e-02f,  2.16800440e-02f,
  3.12363338e-02f,  -1.00510374e-01f,  -4.75391783e-02f,  -7.38961250e-02f,  1.78176705e-02f,  3.03286631e-02f,  -4.19658907e-02f,  -1.46612041e-02f,
  5.97655773e-02f,  -2.16758810e-02f,  -4.47126618e-03f,  -4.87467423e-02f,  -6.63702236e-03f,  -4.34184931e-02f,  5.49287423e-02f,  -6.52613267e-02f,
  1.43393502e-02f,  9.02549177e-02f,  -3.21014505e-03f,  4.77672331e-02f,  1.71775911e-02f,  -2.86882259e-02f,  -1.24911042e-02f,  -4.78012152e-02f,
  -4.62691188e-02f,  -8.20740163e-02f,  -1.10318087e-01f,  -2.87367422e-02f,  -3.48321646e-02f,  1.18659109e-01f,  9.72426161e-02f,  7.40897283e-02f,
  6.50296211e-02f,  -3.69232222e-02f,  2.52008718e-03f,  -7.41538331e-02f,  6.76475912e-02f,  4.01698761e-02f,  -8.99703801e-02f,  2.67403130e-03f,
  4.90841307e-02f,  -7.41782188e-02f,  1.01716183e-02f,  -1.14044733e-02f,  4.74524871e-02f,  7.06871897e-02f,  8.31852704e-02f,  9.03997384e-03f,
  -8.48347619e-02f,  -7.50700850e-03f,  4.24042307e-02f,  -3.27247269e-02f,  -2.36095693e-02f,  -2.13809256e-02f,  -3.59990969e-02f,  -5.20684943e-02f,
  2.82010101e-02f,  1.14095490e-02f,  1.81185659e-02f,  -5.07097766e-02f,  -6.18752129e-02f,  9.75592658e-02f,  -1.66610572e-02f,  1.60646513e-02f,
  4.57050391e-02f,  -8.67798477e-02f,  7.28012249e-02f,  -2.32214257e-02f,  -2.98828948e-02f,  6.64892197e-02f,  -7.35275298e-02f,  -5.28417900e-02f,
  9.24355350e-03f,  -5.41359633e-02f,  -3.37890908e-02f,  5.38918786e-02f,  7.50033408e-02f,  -9.78142917e-02f,  1.42044537e-02f,  3.40025052e-02f,
  4.01001573e-02f,  -3.43712159e-02f,  3.60670760e-02f,  6.79475740e-02f,  5.17602488e-02f,  -6.32208586e-02f,  1.26067353e-02f,  1.04357019e-01f,
  -5.49781621e-02f,  -1.61686242e-02f,  -7.00746626e-02f,  7.70338485e-03f,  -7.44296238e-02f,  7.13151619e-02f,  8.94605964e-02f,  2.26328000e-02f,
  5.36955521e-03f,  -9.94085819e-02f,  4.19163369e-02f,  3.14401016e-02f,  -6.33236617e-02f,  -2.78848149e-02f,  -3.33265066e-02f,  8.77579078e-02f,
  2.45322734e-02f,  7.77723491e-02f,  7.69851729e-02f,  4.18903157e-02f,  -1.02673166e-01f,  -6.97362050e-02f,  5.44864088e-02f,  6.75839484e-02f,
  -4.23038192e-02f,  1.77534912e-02f,  1.06002085e-01f,  7.10270703e-02f,  -1.95393600e-02f,  -4.07308377e-02f,  8.22089985e-02f,  7.41915628e-02f,
  -7.60139078e-02f,  4.49333191e-02f,  -4.43442911e-02f,  -3.88084352e-02f,  -3.11750136e-02f,  8.83100554e-02f,  -3.15938033e-02f,  -3.33902352e-02f,
  2.43242108e-03f,  -8.31818059e-02f,  1.22904172e-02f,  -4.38496359e-02f,  -7.65561685e-02f,  8.00397992e-02f,  -6.09399080e-02f,  1.70836486e-02f,
  -2.45608538e-02f,  8.21721628e-02f,  2.60258056e-02f,  -2.51982231e-02f,  -8.37757159e-03f,  -2.89411843e-02f,  -4.44515534e-02f,  7.05412254e-02f,
  3.00820693e-02f,  3.22887413e-02f,  3.21696065e-02f,  5.28414808e-02f,  -2.30334923e-02f,  -9.15185511e-02f,  -7.17976782e-03f,  -4.97949496e-02f,
  3.90939340e-02f,  -7.43184239e-02f,  -2.86990348e-02f,  -4.26558629e-02f,  6.15954809e-02f,  3.61517258e-02f,  -5.24151977e-03f,  -4.32435498e-02f,
  1.93419270e-02f,  -1.98619533e-02f,  1.28293270e-02f,  -1.89318433e-02f,  -1.85850225e-02f,  6.56260028e-02f,  -2.30403896e-02f,  5.76761775e-02f,
  6.53083250e-02f,  -5.36906607e-02f,  7.39895478e-02f,  -2.36262977e-02f,  4.38329056e-02f,  -5.23481071e-02f,  7.88826030e-03f,  2.18885131e-02f,
  -5.48780523e-02f,  -4.76179458e-02f,  9.72194597e-02f,  5.05872592e-02f,  3.28235142e-02f,  -1.97398271e-02f,  9.10510719e-02f,  8.17345604e-02f,
  1.04710743e-01f,  1.76590495e-02f,  7.62558505e-02f,  -4.12068777e-02f,  8.10870826e-02f,  3.79490107e-02f,  6.49496913e-02f,  2.70364955e-02f,
  -9.85525083e-04f,  -9.11632776e-02f,  4.78989333e-02f,  -2.79718265e-02f,  7.57810622e-02f,  -3.78183983e-02f,  3.01643112e-03f,  4.89071086e-02f,
  1.64284706e-02f,  -1.56262033e-02f,  -5.52177802e-02f,  6.61848933e-02f,  1.84487086e-02f,  -1.49902189e-03f,  3.34371254e-02f,  3.48411500e-04f,
  3.85551676e-02f,  -3.29769179e-02f,  -4.08061929e-02f,  -6.01376779e-02f,  -7.03580528e-02f,  4.41702865e-02f,  1.36530936e-01f,  -7.39108473e-02f,
  -4.86735441e-02f,  -2.28050668e-02f,  6.20258301e-02f,  6.80048242e-02f,  9.97144207e-02f,  -1.55612640e-02f,  3.69536616e-02f,  5.06970659e-02f,
  1.15129404e-01f,  -1.95247885e-02f,  6.31525740e-02f,  -7.25395158e-02f,  -6.20291084e-02f,  -5.39848804e-02f,  6.22333139e-02f,  -2.41808426e-02f,
  4.47114289e-04f,  6.85344487e-02f,  6.25461340e-02f,  -7.09209442e-02f,  3.54299992e-02f,  4.20706347e-02f,  1.18514068e-01f,  1.69998556e-02f,
  -7.17265680e-02f,  -6.99517354e-02f,  1.07342720e-01f,  3.87614071e-02f,  -3.19944583e-02f,  2.57633794e-02f,  2.75187567e-02f,  -4.04703850e-03f,
  9.58758965e-02f,  -1.39274076e-01f,  7.45599419e-02f,  -6.99623600e-02f,  4.74719815e-02f,  5.38488850e-02f,  -1.19501151e-01f,  -2.19264179e-02f,
  6.99069127e-02f,  -7.43617862e-02f,  -5.98808862e-02f,  1.89931449e-02f,  6.38027340e-02f,  8.85665938e-02f,  1.98470317e-02f,  -1.57870091e-02f,
  5.24243265e-02f,  -1.94199085e-02f,  -4.07036059e-02f,  -2.64176726e-02f,  -2.36958615e-03f,  1.03147030e-01f,  -3.42494175e-02f,  -7.51023740e-02f,
  -7.45728612e-02f,  -3.63506712e-02f,  1.49345659e-02f,  3.84124927e-02f,  -3.43175381e-02f,  3.42381783e-02f,  -1.31164994e-02f,  -1.82966851e-02f,
  4.39018756e-02f,  -1.46812769e-02f,  -1.12348780e-01f,  -2.12700106e-02f,  5.23441583e-02f,  3.57505120e-02f,  -4.44339914e-03f,  -1.75729170e-02f,
  1.11545613e-02f,  -1.20442122e-01f,  -4.26049903e-02f,  -9.04631913e-02f,  -4.19843830e-02f,  8.54901224e-03f,  4.25642310e-03f,  -3.60686556e-02f,
  1.15803089e-02f,  -1.10910572e-02f,  7.21431375e-02f,  3.01863998e-03f,  1.09772831e-01f,  -3.77588719e-02f,  -4.71712463e-02f,  -1.91697124e-02f,
  5.00877313e-02f,  9.46524069e-02f,  8.98984969e-02f,  4.56923172e-02f,  2.31302679e-02f,  -1.61056183e-02f,  -4.23368476e-02f,  -1.80969201e-02f,
  4.33771871e-02f,  -6.28811568e-02f,  -1.10690705e-02f,  -4.79765423e-02f,  7.95865357e-02f,  6.88910931e-02f,  3.45505439e-02f,  1.07896090e-01f,
  -4.04248238e-02f,  -6.15879223e-02f,  7.59480447e-02f,  5.27653359e-02f,  -2.33971141e-02f,  7.66459061e-03f,  -8.23557451e-02f,  -6.50607282e-03f,
  -5.32938875e-02f,  -9.27660614e-03f,  1.48766618e-02f,  -1.28037203e-02f,  8.58340338e-02f,  2.12893449e-02f,  -3.15414183e-02f,  -4.29546051e-02f,
  1.59708261e-02f,  8.24201703e-02f,  4.66159470e-02f,  6.96952567e-02f,  4.86284979e-02f,  -4.47220318e-02f,  1.20744891e-02f,  8.23409483e-02f,
  6.94369823e-02f,  -5.08602262e-02f,  -2.25555766e-02f,  -2.35912371e-02f,  -1.12947412e-02f,  5.91630526e-02f,  8.11202005e-02f,  7.02751651e-02f,
  9.53352451e-02f,  -5.49792163e-02f,  -1.66096259e-02f,  -4.61763069e-02f,  -3.15176696e-02f,  2.68001873e-02f,  -4.18687016e-02f,  7.75202289e-02f,
  2.42395867e-02f,  4.46113199e-02f,  1.71446875e-02f,  5.96114993e-02f,  7.65019432e-02f,  -3.53050679e-02f,  6.61712140e-02f,  7.36287758e-02f,
  5.19010648e-02f,  -7.09988177e-02f,  5.93684316e-02f,  -3.52858976e-02f,  -3.04163210e-02f,  -7.99066350e-02f,  -5.47006838e-02f,  -1.76406547e-03f,
  6.41081557e-02f,  5.90197779e-02f,  6.08549230e-02f,  -5.26385792e-02f,  2.16419739e-03f,  1.08202599e-01f,  1.69209819e-02f,  -3.93390190e-03f,
  -4.27745096e-02f,  2.21102331e-02f,  -4.42906022e-02f,  1.58393383e-03f,  -1.75150926e-03f,  8.59248191e-02f,  -9.09295902e-02f,  -7.04763085e-02f,
  8.46313685e-03f,  -6.27068579e-02f,  -1.76031664e-02f,  2.31047589e-02f,  -8.19139108e-02f,  -4.06412594e-02f,  4.47491929e-02f,  4.69373688e-02f,
  1.19879246e-02f,  8.06746408e-02f,  -3.38046625e-02f,  7.86113068e-02f,  -4.09099390e-04f,  -7.48212636e-02f,  -3.96023914e-02f,  2.82503515e-02f,
  -2.43937876e-02f,  -7.41184801e-02f,  4.81498726e-02f,  -1.05477855e-01f,  -2.92061865e-02f,  1.47068640e-02f,  5.09236306e-02f,  -7.51906037e-02f,
  -1.15945330e-02f,  -6.95536882e-02f,  -6.84726983e-02f,  -3.22291367e-02f,  -1.07374601e-01f,  7.71829486e-02f,  -7.00411275e-02f,  4.94512282e-02f,
  -9.73083265e-03f,  -6.97745383e-03f,  9.83812008e-03f,  5.57443798e-02f,  -3.88376862e-02f,  -8.82598292e-03f,  2.06828769e-02f,  8.51597488e-02f,
  2.00625248e-02f,  -3.36328670e-02f,  2.24886686e-02f,  -5.43705970e-02f,  -3.17167118e-02f,  -7.09511563e-02f,  -2.43415460e-02f,  1.90746430e-02f,
  -2.41008643e-02f,  -4.55319881e-02f,  -3.87518369e-02f,  1.99845545e-02f,  4.58322801e-02f,  8.49404335e-02f,  7.81435072e-02f,  5.73963560e-02f,
  1.12177156e-01f,  -1.31910536e-02f,  4.28659050e-03f,  -6.85912147e-02f,  -3.47547443e-03f,  5.78346252e-02f,  6.31825030e-02f,  -8.53940099e-02f,
  3.89863141e-02f,  6.88731894e-02f,  8.20852444e-02f,  3.00879646e-02f,  -5.08446768e-02f,  -1.12088751e-02f,  4.26480696e-02f,  -5.10855727e-02f,
  5.23450598e-02f,  8.07750076e-02f,  1.52976103e-02f,  -2.79865670e-03f,  -1.40608000e-02f,  1.04915082e-01f,  7.12383538e-02f,  -8.10979232e-02f,
  6.84419880e-04f,  3.80460806e-02f,  2.69278162e-03f,  3.22722867e-02f,  -3.72364782e-02f,  -3.60123329e-02f,  -5.82190268e-02f,  -6.16275072e-02f,
  -5.19589372e-02f,  -1.50745614e-02f,  -3.56301665e-02f,  5.89352585e-02f,  2.73850951e-02f,  -2.09648237e-02f,  -3.98417413e-02f,  2.02899352e-02f,
  -3.93283404e-02f,  5.25993928e-02f,  -1.52457682e-02f,  -2.68910807e-02f,  7.67733455e-02f,  -3.23976134e-03f,  -6.37806728e-02f,  3.96880619e-02f,
  -7.49108521e-03f,  6.60159513e-02f,  -5.73432371e-02f,  6.57998845e-02f,  3.31608802e-02f,  1.82398092e-02f,  -7.07674026e-02f,  5.90725318e-02f,
  -8.63231905e-03f,  5.74969612e-02f,  1.60023682e-02f,  -3.55352722e-02f,  -6.80039823e-02f,  1.94135569e-02f,  3.37588601e-02f,  3.50552006e-03f,
  -5.70754223e-02f,  9.35114101e-02f,  -2.57721581e-02f,  -6.31649867e-02f,  7.97813088e-02f,  -2.33946871e-02f,  -4.27416861e-02f,  -3.72083113e-02f,
  7.93915018e-02f,  -2.31264774e-02f,  6.89588860e-02f,  6.32856712e-02f,  -2.90597249e-02f,  -6.09755665e-02f,  4.97357026e-02f,  -2.25632191e-02f,
  -5.52171469e-02f,  -6.71502873e-02f,  8.92792866e-02f,  4.41684648e-02f,  8.22968259e-02f,  -3.48336026e-02f,  -5.08931130e-02f,  9.99852456e-03f,
  5.25697656e-02f,  -5.74156642e-02f,  -1.35373920e-02f,  7.42711648e-02f,  -7.15153478e-03f,  4.04683650e-02f,  5.37016243e-02f,  -3.18245701e-02f,
  6.30879179e-02f,  4.57590669e-02f,  -2.93619558e-02f,  9.54073519e-02f,  -4.09280509e-02f,  -1.93459843e-03f,  -3.16892751e-02f,  -7.29813352e-02f,
  7.93844238e-02f,  4.24170606e-02f,  -7.71868452e-02f,  6.39106408e-02f,  4.56738546e-02f,  1.29215363e-02f,  -4.03467417e-02f,  1.13282189e-01f,
  8.04021209e-02f,  -5.72985113e-02f,  -4.48883027e-02f,  -5.65717742e-02f,  8.11925624e-03f,  -8.03494006e-02f,  -5.66877276e-02f,  -5.94439209e-02f,
  -1.34296287e-02f,  -2.66883392e-02f,  6.70019239e-02f,  7.51197338e-02f,  4.48708748e-03f,  -6.99717179e-02f,  -3.23357023e-02f,  -2.68454105e-02f,
  -7.32674776e-03f,  4.84801969e-03f,  -2.34925803e-02f,  1.37220407e-02f,  -7.20200688e-02f,  -1.48369772e-02f,  4.09530476e-02f,  -5.04248478e-02f,
  -5.47507331e-02f,  6.80211112e-02f,  -1.09142037e-02f,  2.09188499e-02f,  5.36421034e-03f,  4.23702085e-03f,  -5.29522784e-02f,  7.76184574e-02f,
  5.36653027e-02f,  -4.77628149e-02f,  6.94030314e-05f,  -1.34042641e-02f,  2.79438607e-02f,  -3.19778919e-02f,  -5.68664260e-02f,  1.18551273e-02f,
  -8.34197924e-02f,  6.69480190e-02f,  9.32674855e-02f,  1.10043492e-02f,  1.06896237e-01f,  2.05309428e-02f,  -1.28693143e-02f,  -7.94410706e-04f,
  -1.29481237e-02f,  -4.16606694e-04f,  -3.80546823e-02f,  3.45279388e-02f,  5.43897599e-02f,  4.14535366e-02f,  -5.20011969e-02f,  -6.94066808e-02f,
  8.30116868e-03f,  -4.32587862e-02f,  -4.39079851e-02f,  6.59428611e-02f,  3.42962076e-03f,  -2.81958655e-02f,  -6.37754723e-02f,  7.65464976e-02f,
  -3.76635082e-02f,  -5.53189330e-02f,  -3.11461724e-02f,  -5.01003079e-02f,  3.83192264e-02f,  -3.24476473e-02f,  3.05377990e-02f,  -5.02589308e-02f,
  -6.25888258e-02f,  6.89624771e-02f,  6.73387349e-02f,  7.18571246e-02f,  -4.21212614e-02f,  7.36532733e-02f,  4.96964753e-02f,  4.50782813e-02f,
  -7.37072015e-03f,  7.68251717e-02f,  6.80562705e-02f,  1.09590543e-02f,  -8.10975060e-02f,  4.97730523e-02f,  -7.63806850e-02f,  3.45707089e-02f,
  -9.93269756e-02f,  5.17913215e-02f,  6.66690692e-02f,  -5.30944914e-02f,  -2.06896607e-02f,  -2.37612575e-02f,  -3.30042206e-02f,  -6.60486668e-02f,
  -3.73519883e-02f,  8.05054680e-02f,  -6.40331581e-02f,  -6.76804408e-02f,  4.17484716e-02f,  6.02416806e-02f,  9.87423658e-02f,  1.72120836e-02f,
  -6.13792390e-02f,  3.02737337e-02f,  -1.54390503e-02f,  -2.70924736e-02f,  1.28464038e-02f,  -3.48492078e-02f,  4.51828800e-02f,  -1.03409290e-02f,
  -2.49987338e-02f,  1.52714863e-01f,  1.35821298e-01f,  5.24349473e-02f,  -9.33345594e-03f,  -9.95147377e-02f,  -7.32044578e-02f,  -4.26036939e-02f,
  -6.03492595e-02f,  -5.33515848e-02f,  7.12747201e-02f,  3.17742117e-02f,  -2.25153156e-02f,  3.15197706e-02f,  -3.74245197e-02f,  -1.87495984e-02f,
  3.08223460e-02f,  -9.27994698e-02f,  1.48933139e-02f,  4.50237244e-02f,  -3.24513689e-02f,  6.73586056e-02f,  -1.83742959e-04f,  -3.22557800e-02f,
  2.88514663e-02f,  -1.12436879e-02f,  3.79848033e-02f,  -1.52829627e-03f,  1.31378546e-01f,  8.13987926e-02f,  -2.15820335e-02f,  -9.69404262e-03f,
  -7.95511436e-03f,  -3.19696330e-02f,  7.19446689e-02f,  -1.80845447e-02f,  1.10437967e-01f,  1.16708726e-01f,  -2.79744975e-02f,  -8.35741125e-03f,
  3.19766179e-02f,  -1.81827806e-02f,  1.03655584e-01f,  -1.67186577e-02f,  -9.62364003e-02f,  2.67601330e-02f,  -9.11075156e-03f,  -7.60289058e-02f,
  -2.49338970e-02f,  6.46222234e-02f,  -5.89524396e-02f,  1.69231407e-02f,  -1.39623910e-01f,  6.27854317e-02f,  9.31582525e-02f,  2.04592180e-02f,
  9.59152803e-02f,  3.65993418e-02f,  -4.87794587e-03f,  7.00435042e-02f,  1.09981536e-03f,  -4.00007516e-02f,  1.35368541e-01f,  3.37990373e-03f,
  7.80710578e-02f,  -6.50136024e-02f,  -6.39597923e-02f,  -1.36870787e-01f,  8.77674893e-02f,  -2.42785085e-02f,  -7.19751343e-02f,  -1.45456828e-02f,
  1.44664841e-02f,  1.38137932e-03f,  -2.55050790e-02f,  1.53431008e-02f,  8.80663544e-02f,  4.32359800e-02f,  4.16165739e-02f,  2.11691484e-02f,
  -4.03050780e-02f,  -1.82006378e-02f,  8.57097879e-02f,  5.98350391e-02f,  7.88046606e-03f,  2.79654656e-03f,  -1.03425700e-02f,  -4.05810364e-02f,
  -1.71859581e-02f,  -2.52926946e-02f,  6.55553266e-02f,  1.12961762e-01f,  -6.37284154e-03f,  9.40409303e-02f,  4.67772484e-02f,  6.07128069e-02f,
  -5.11789061e-02f,  -6.82778610e-03f,  2.22368003e-03f,  -2.21045576e-02f,  -3.97470146e-02f,  -4.84382315e-03f,  4.60494198e-02f,  -3.77363060e-03f,
  5.22033796e-02f,  -1.25179607e-02f,  -1.15730120e-02f,  -4.28632163e-02f,  7.43687302e-02f,  -4.09282483e-02f,  -4.70953323e-02f,  2.39989385e-02f,
  -2.36292705e-02f,  5.62397279e-02f,  7.60005340e-02f,  -2.50690430e-02f,  1.20893732e-01f,  2.29791179e-02f,  -3.26371705e-03f,  1.33022666e-01f,
  -4.16456424e-02f,  -3.82150733e-03f,  8.95069912e-02f,  -2.66594626e-02f,  1.08459303e-02f,  -6.96874708e-02f,  -9.33538452e-02f,  8.12074766e-02f,
  2.85681766e-02f,  -6.68908954e-02f,  -6.71905428e-02f,  -1.31955314e-02f,  -5.13083749e-02f,  -1.33950878e-02f,  2.84518171e-02f,  3.63385910e-03f,
  -2.62274966e-03f,  5.68427853e-02f,  -8.33488163e-03f,  2.70662736e-03f,  8.63641128e-02f,  6.42700419e-02f,  -4.40765023e-02f,  5.15200682e-02f,
  -4.09977660e-02f,  -7.46635497e-02f,  -3.63543853e-02f,  -5.04536815e-02f,  2.17167120e-02f,  -7.25828707e-02f,  5.34509532e-02f,  -6.80864304e-02f,
  -8.02172050e-02f,  -1.56970471e-02f,  -7.73024186e-03f,  -4.82316911e-02f,  -9.31591764e-02f,  -5.43232970e-02f,  -5.40779345e-02f,  -1.88923180e-02f,
  -6.33099154e-02f,  -1.60105173e-02f,  -1.41659323e-02f,  3.22368182e-02f,  1.76937394e-02f,  -8.55983421e-02f,  1.86529439e-02f,  1.20710200e-02f,
  8.03112313e-02f,  6.27299696e-02f,  -1.93360560e-02f,  -2.39248443e-02f,  5.69318235e-02f,  -6.38010949e-02f,  6.92846030e-02f,  -6.99404478e-02f,
  1.44460574e-02f,  -7.47170225e-02f,  -1.30585562e-02f,  6.25259802e-02f,  3.27768326e-02f,  -6.05598325e-03f,  1.38394795e-02f,  -3.82315852e-02f,
  -1.45363361e-02f,  3.33966501e-02f,  -6.68545440e-02f,  5.96734621e-02f,  -3.82873113e-03f,  7.49671506e-03f,  1.53904790e-02f,  1.52616724e-02f,
  -3.74360122e-02f,  3.91599685e-02f,  -2.26904340e-02f,  -8.24257433e-02f,  2.14852039e-02f,  6.23704270e-02f,  2.41525918e-02f,  -1.19175175e-02f,
  8.02569985e-02f,  7.64741004e-02f,  -4.48976345e-02f,  6.70516565e-02f,  3.69918346e-02f,  -3.03271208e-02f,  8.49735066e-02f,  3.59203145e-02f,
  -2.28245147e-02f,  6.74055144e-02f,  6.47446364e-02f,  4.67950068e-02f,  1.88166555e-02f,  -4.40954790e-02f,  -1.38466815e-02f,  7.83755407e-02f,
  -3.64225917e-02f,  7.87690431e-02f,  2.15376299e-02f,  7.49112293e-02f,  -4.51852158e-02f,  4.36097123e-02f,  -4.13329946e-03f,  6.36964440e-02f,
  -5.07284626e-02f,  8.48672688e-02f,  6.88749403e-02f,  -8.26555789e-02f,  8.90115947e-02f,  4.22993563e-02f,  -3.29593197e-02f,  -4.93299216e-02f,
  6.56957477e-02f,  7.18986541e-02f,  -7.68056093e-03f,  -6.13040216e-02f,  2.02763062e-02f,  3.79896685e-02f,  -7.76636675e-02f,  -6.44214973e-02f,
  -5.11338934e-02f,  -3.47563699e-02f,  8.73084515e-02f,  -1.14879301e-02f,  -3.47844474e-02f,  -8.77726302e-02f,  -2.44406369e-02f,  2.07132343e-02f,
  6.58368040e-03f,  6.07104637e-02f,  2.18949113e-02f,  3.44019718e-02f,  -7.52163902e-02f,  -2.73473188e-02f,  -3.24487500e-02f,  -3.04925852e-02f,
  4.56755534e-02f,  -6.98101968e-02f,  4.58969548e-02f,  1.11728720e-02f,  -4.75614965e-02f,  -4.65670712e-02f,  -6.69522509e-02f,  7.44061768e-02f,
  3.14946026e-02f,  8.24285969e-02f,  4.01298031e-02f,  5.40391542e-02f,  -4.09806333e-03f,  -5.03788441e-02f,  8.52617845e-02f,  -1.29249468e-02f,
  -4.53209467e-02f,  -9.54151154e-03f,  4.26904224e-02f,  1.65590625e-02f,  -6.97733834e-03f,  3.77352163e-02f,  -1.89358015e-02f,  1.49685107e-02f,
  -3.93192954e-02f,  6.82680160e-02f,  -3.79900150e-02f,  3.18110287e-02f,  -5.00398129e-02f,  6.07242435e-02f,  7.18416274e-02f,  -4.05832790e-02f,
  -5.31188287e-02f,  5.33416867e-02f,  -1.33754788e-02f,  -4.56907153e-02f,  2.02106889e-02f,  -5.16713075e-02f,  8.97834152e-02f,  -8.20172280e-02f,
  3.02070733e-02f,  -5.07491566e-02f,  8.30900446e-02f,  -3.01332101e-02f,  1.98236778e-02f,  -1.61795057e-02f,  5.10021672e-02f,  -6.05821609e-04f,
  -5.10879606e-03f,  7.66920149e-02f,  -1.26138385e-02f,  6.03562556e-02f,  6.32527098e-02f,  1.84252616e-02f,  8.43721777e-02f,  -6.40443563e-02f,
  -5.24882004e-02f,  -1.14919730e-01f,  -6.59467801e-02f,  3.62628838e-03f,  1.00941449e-01f,  4.20286581e-02f,  2.02945489e-02f,  -3.68986130e-02f,
  3.17221582e-02f,  -3.02313268e-02f,  9.98154134e-02f,  3.06522474e-02f,  -7.27597699e-02f,  3.27149741e-02f,  5.63887171e-02f,  -7.06014186e-02f,
  9.92606655e-02f,  1.60282608e-02f,  8.00145268e-02f,  -8.19820091e-02f,  -3.26894671e-02f,  1.77014619e-02f,  9.81495008e-02f,  -7.31618628e-02f,
  -2.56944802e-02f,  1.01456203e-01f,  9.33306441e-02f,  3.21231894e-02f,  -1.03041254e-01f,  6.86426908e-02f,  -2.00194190e-04f,  -2.02631596e-02f,
  -4.82598916e-02f,  -3.41155380e-02f,  -7.71981627e-02f,  6.84631392e-02f,  1.16849400e-01f,  -1.85518786e-02f,  -3.75236087e-02f,  1.03651360e-01f,
  9.08478498e-02f,  -5.30993473e-03f,  3.32175125e-03f,  -1.94907356e-02f,  -3.53884771e-02f,  1.30106494e-01f,  2.26412062e-02f,  -2.93223895e-02f,
  -3.12959738e-02f,  3.38660665e-02f,  -2.79031489e-02f,  6.53308770e-03f,  7.98763633e-02f,  -7.48858303e-02f,  -1.59309097e-02f,  5.99103644e-02f,
  5.02901748e-02f,  3.31271626e-02f,  -3.42223793e-02f,  -7.56481988e-03f,  -3.27176303e-02f,  5.26861893e-03f,  -2.83587836e-02f,  -5.64777367e-02f,
  1.07314046e-02f,  -3.71556287e-03f,  -4.17114459e-02f,  6.93873242e-02f,  -4.39580306e-02f,  4.13561836e-02f,  -5.29758260e-02f,  4.52158600e-03f,
  -1.75802056e-02f,  -4.98117246e-02f,  3.14997905e-03f,  -2.05984358e-02f,  -8.56494457e-02f,  -4.19037715e-02f,  -7.53338486e-02f,  -7.01230168e-02f,
  -2.86367331e-02f,  6.93950579e-02f,  -7.50437155e-02f,  3.39134573e-03f,  9.04920995e-02f,  -3.96188423e-02f,  8.30852464e-02f,  6.16101548e-02f,
  2.66570039e-02f,  -3.86204012e-02f,  4.78824638e-02f,  -3.12533043e-02f,  -8.42062905e-02f,  -3.71187851e-02f,  -5.19186519e-02f,  5.85818887e-02f,
  -1.05160885e-01f,  5.70468642e-02f,  -7.58383051e-02f,  9.16875005e-02f,  1.43921711e-02f,  8.45675357e-03f,  1.77545268e-02f,  -5.64694069e-02f,
  4.72991392e-02f,  -5.14154248e-02f,  6.12234324e-02f,  -5.89377061e-02f,  -2.00695246e-02f,  8.27551931e-02f,  -1.64994877e-02f,  2.66163144e-02f,
  3.28766853e-02f,  -2.27834135e-02f,  1.26123605e-02f,  -2.58973874e-02f,  6.83447793e-02f,  -6.18504435e-02f,  4.10428457e-02f,  -2.07100064e-03f,
  -8.01464170e-03f,  7.06937211e-03f,  8.06252882e-02f,  9.90722924e-02f,  6.58252984e-02f,  -6.92292526e-02f,  2.09568460e-02f,  -2.87851430e-02f,
  -4.51874770e-02f,  2.81791165e-02f,  5.71703315e-02f,  -1.61283072e-02f,  2.02533305e-02f,  4.25823368e-02f,  -2.84374431e-02f,  -2.39660367e-02f,
  2.55179293e-02f,  -6.26398921e-02f,  -3.56609002e-02f,  -1.99227426e-02f,  1.27645284e-02f,  1.02149956e-01f,  3.07597611e-02f,  -5.46463206e-02f,
  6.55078441e-02f,  -5.17740250e-02f,  -5.06908670e-02f,  4.80783619e-02f,  6.63041472e-02f,  6.07441105e-02f,  -8.55030143e-04f,  1.71418041e-02f,
  -1.03821773e-02f,  4.50562350e-02f,  7.19803125e-02f,  4.64176610e-02f,  -9.33921430e-03f,  2.33565792e-02f,  4.93428335e-02f,  -6.52197674e-02f,
  1.73713528e-02f,  3.39096296e-03f,  7.30937943e-02f,  4.48627919e-02f,  -3.64993773e-02f,  -6.55975044e-02f,  -4.38439241e-03f,  5.31624369e-02f,
  -4.23249677e-02f,  5.38435876e-02f,  3.13013308e-02f,  -4.85463254e-02f,  7.51048774e-02f,  7.86822289e-03f,  8.53052661e-02f,  -4.76652756e-02f,
  -5.01928814e-02f,  1.36313671e-02f,  4.58457060e-02f,  2.89273597e-02f,  2.69730035e-02f,  -6.91340491e-02f,  7.20130876e-02f,  -4.05001864e-02f,
  1.60823017e-03f,  -6.73454255e-02f,  6.50237724e-02f,  4.29908745e-02f,  6.08530603e-02f,  2.45319400e-02f,  1.67205860e-03f,  3.95255238e-02f,
  -2.01409962e-02f,  -2.11749971e-02f,  -2.05302835e-02f,  -1.55872703e-02f,  -7.02731907e-02f,  -4.18468937e-03f,  -4.51843664e-02f,  8.29979852e-02f,
  7.85146505e-02f,  9.25359279e-02f,  2.92366208e-03f,  3.50749008e-02f,  -6.15134947e-02f,  -5.39408736e-02f,  -1.63620245e-02f,  -2.65467842e-03f,
  -3.04997135e-02f,  5.34541383e-02f,  -2.06124075e-02f,  -1.50629357e-02f,  -6.08560629e-02f,  5.40092476e-02f,  -5.72047941e-02f,  -1.00008883e-02f,
  4.24960665e-02f,  7.82538019e-03f,  -6.57710731e-02f,  7.54811540e-02f,  3.92048471e-02f,  -4.35485914e-02f,  2.32647248e-02f,  6.00363575e-02f,
  2.31285281e-02f,  1.95983928e-02f,  -7.17059970e-02f,  -2.39894297e-02f,  -3.78337167e-02f,  -1.42977443e-02f,  -7.06051812e-02f,  3.31578171e-03f,
  7.33371451e-02f,  3.32942791e-02f,  1.82635058e-02f,  4.91863973e-02f,  -7.46269971e-02f,  -7.53490776e-02f,  -9.78865195e-04f,  2.40858383e-02f,
  2.76173949e-02f,  4.57666628e-02f,  3.85078490e-02f,  4.37821262e-02f,  -5.58890849e-02f,  -7.83978924e-02f,  9.28408951e-02f,  -4.97110300e-02f,
  -6.36828393e-02f,  -3.78343388e-02f,  1.82717610e-02f,  -5.76572344e-02f,  -9.96613875e-04f,  -2.03998433e-03f,  2.32588071e-02f,  -7.97748938e-02f,
  2.27393880e-02f,  -1.69921722e-02f,  -2.48067584e-02f,  -3.32618356e-02f,  6.20685667e-02f,  -1.86953309e-03f,  -7.73747917e-03f,  -2.01403126e-02f,
  -3.23087536e-02f,  -1.09931082e-01f,  2.28436328e-02f,  -7.58023039e-02f,  -2.61798538e-02f,  9.90824327e-02f,  -4.55087870e-02f,  4.49326821e-02f,
  7.74006397e-02f,  -5.12422919e-02f,  -4.56776172e-02f,  -4.78473119e-02f,  1.15348898e-01f,  -4.56278808e-02f,  -7.72337988e-03f,  3.47559862e-02f,
  3.21839340e-02f,  -8.69905110e-04f,  2.29337793e-02f,  7.75067955e-02f,  -9.76334438e-02f,  6.71413913e-02f,  -2.00871732e-02f,  -1.84901047e-03f,
  -9.27963033e-02f,  -7.48893395e-02f,  7.78447166e-02f,  2.31165476e-02f,  3.68078053e-02f,  7.00214580e-02f,  7.98816830e-02f,  5.80049008e-02f,
  -5.32061718e-02f,  5.45996949e-02f,  1.49487015e-02f,  -6.23049475e-02f,  -7.60117099e-02f,  6.50482699e-02f,  -8.96044075e-03f,  -1.03066489e-02f,
  3.38774733e-02f,  7.58272186e-02f,  3.22740115e-02f,  -2.75034551e-02f,  1.09103665e-01f,  -1.77728683e-02f,  -9.72216502e-02f,  -4.96044755e-02f,
  -3.83274183e-02f,  1.08196028e-01f,  9.39621255e-02f,  -3.43985185e-02f,  7.40929544e-02f,  -1.30337067e-02f,  2.38256771e-02f,  2.95730624e-02f,
  -9.95682785e-04f,  7.68277645e-02f,  -6.82918355e-02f,  4.28567231e-02f,  -6.72163293e-02f,  -2.77976412e-02f,  -5.13726324e-02f,  -7.10637793e-02f,
  2.22748425e-02f,  -4.32744920e-02f,  1.84520558e-02f,  5.52676842e-02f,  -6.54997677e-02f,  -2.21805256e-02f,  4.64189909e-02f,  -4.88097556e-02f,
  5.45869134e-02f,  -8.51127971e-03f,  -2.79258396e-02f,  6.46021068e-02f,  8.80053565e-02f,  7.14721233e-02f,  8.23922977e-02f,  6.13342933e-02f,
  -2.17558071e-02f,  1.13188950e-02f,  -3.91815156e-02f,  2.55317334e-02f,  -4.41456251e-02f,  -3.19766514e-02f,  -2.29637232e-02f,  7.29032755e-02f,
  -1.49145816e-02f,  -2.31732372e-02f,  6.77019134e-02f,  -3.39899100e-02f,  -4.75902520e-02f,  -1.42902667e-02f,  8.49889517e-02f,  3.27548431e-03f,
  1.88687593e-02f,  -1.99323203e-02f,  -1.03518860e-02f,  7.95618072e-02f,  1.93380173e-02f,  -2.36374550e-02f,  -6.88057318e-02f,  -3.26125175e-02f,
  -6.07363209e-02f,  -3.39076221e-02f,  3.32279652e-02f,  -1.66441556e-02f,  -3.06119546e-02f,  -9.33973119e-03f,  4.63859364e-02f,  -6.02567010e-02f,
  -4.14869413e-02f,  5.80570102e-02f,  -1.97136588e-02f,  -1.07995812e-02f,  3.16003039e-02f,  -5.73905632e-02f,  -4.21799608e-02f,  -3.28179561e-02f,
  -9.14176833e-03f,  -2.67907847e-02f,  -2.25335322e-02f,  4.05359222e-03f,  3.26404013e-02f,  -1.10055022e-02f,  5.80470748e-02f,  -7.82946497e-03f,
  4.18203138e-03f,  -7.07109272e-02f,  -5.46412729e-02f,  -8.23026076e-02f,  2.27294900e-02f,  5.66724204e-02f,  5.27098402e-03f,  -4.92895804e-02f,
  1.01523623e-01f,  -2.49402202e-03f,  8.13758224e-02f,  4.03981982e-03f,  -5.29944487e-02f,  2.25567706e-02f,  5.70528805e-02f,  -4.89092432e-02f,
  1.10612242e-02f,  2.68400391e-03f,  -3.27748135e-02f,  4.79567349e-02f,  -6.31428603e-03f,  7.33454004e-02f,  2.14996208e-02f,  6.88053891e-02f,
  6.27155378e-02f,  2.22086851e-02f,  4.36595129e-03f,  -4.48904745e-02f,  4.90505435e-02f,  -1.12221632e-02f,  5.28768525e-02f,  -4.57296632e-02f,
  -2.77127586e-02f,  -6.92155063e-02f,  5.01010939e-02f,  -9.79723409e-02f,  5.60892373e-03f,  -3.59786414e-02f,  4.68662940e-02f,  -1.04889867e-03f,
  5.70959374e-02f,  -8.65236763e-03f,  1.96401905e-02f,  6.84346557e-02f,  7.93499798e-02f,  -8.67276564e-02f,  -1.04757078e-01f,  8.31631571e-03f,
  4.04242650e-02f,  8.37554783e-02f,  4.33133170e-02f,  3.66459116e-02f,  7.41780102e-02f,  3.99982743e-03f,  6.92991912e-02f,  -3.37532945e-02f,
  -8.47356860e-03f,  5.73601164e-02f,  -2.47371942e-02f,  7.31894076e-02f,  -4.52683866e-02f,  -4.60290909e-02f,  7.11848214e-02f,  -3.00940089e-02f,
  6.84790537e-02f,  3.18238214e-02f,  -7.21993577e-03f,  -6.03754818e-02f,  -6.47919811e-03f,  -5.68530262e-02f,  -5.12259454e-03f,  -8.54014978e-02f,
  -4.20036074e-03f,  -6.62663877e-02f,  4.80246805e-02f,  6.19780608e-02f,  5.24154156e-02f,  -4.34088036e-02f,  9.81116816e-02f,  3.57584208e-02f,
  5.08279279e-02f,  6.37590066e-02f,  9.20474306e-02f,  2.58134492e-02f,  -1.45274040e-03f,  4.46715057e-02f,  -5.47717288e-02f,  -3.61702591e-02f,
  3.15676481e-02f,  -4.85896990e-02f,  7.26106986e-02f,  1.87385641e-02f,  8.57733265e-02f,  -3.29610631e-02f,  -4.85667102e-02f,  1.03864357e-01f,
  1.58966128e-02f,  3.10557894e-02f,  4.46620993e-02f,  -9.18123275e-02f,  2.44627669e-02f,  -2.32507922e-02f,  6.95719710e-03f,  -6.91818893e-02f,
  8.91536288e-03f,  5.02716303e-02f,  8.42757747e-02f,  -5.63456044e-02f,  1.01969969e-02f,  -9.20717493e-02f,  4.11222838e-02f,  3.02998424e-02f,
  3.30089927e-02f,  4.62178215e-02f,  6.71473518e-02f,  5.72863258e-02f,  5.04491217e-02f,  -3.19337808e-02f,  4.49568890e-02f,  -5.48661426e-02f,
  2.61677392e-02f,  1.01495637e-02f,  5.48874475e-02f,  -2.52858792e-02f,  -1.40676205e-03f,  9.07336175e-02f,  3.23625803e-02f,  2.87381038e-02f,
  9.93932132e-03f,  -4.09621485e-02f,  -1.12500377e-02f,  -1.16458185e-01f,  -3.67893912e-02f,  1.75162181e-02f,  -6.41657338e-02f,  -9.36366618e-04f,
  4.26867418e-02f,  -6.77299872e-02f,  9.44819078e-02f,  -3.70091788e-04f,  -1.87413045e-03f,  8.35960582e-02f,  -3.86840217e-02f,  1.63785387e-02f,
  -8.19600448e-02f,  -5.58976457e-02f,  -9.19699483e-03f,  -3.51512320e-02f,  9.21326056e-02f,  1.05034851e-01f,  3.05962823e-02f,  3.50566730e-02f,
  1.08666696e-01f,  -2.30987631e-02f,  -5.69315627e-02f,  1.95360817e-02f,  9.24429223e-02f,  -1.72554813e-02f,  7.55665638e-03f,  -1.32953525e-02f,
  5.64954169e-02f,  -6.05326630e-02f,  -2.44785361e-02f,  -5.93916848e-02f,  1.21452712e-01f,  5.77997230e-02f,  -8.31128508e-02f,  9.01099145e-02f,
  9.60738212e-03f,  7.98074342e-03f,  6.51440723e-03f,  -5.33544784e-03f,  8.17266107e-03f,  9.14205089e-02f,  8.78183693e-02f,  7.35970214e-02f,
  -2.18705758e-02f,  3.64677189e-03f,  -1.93853062e-02f,  4.64547202e-02f,  -1.81425605e-02f,  2.25811452e-02f,  8.87831748e-02f,  9.31867287e-02f,
  1.43534645e-01f,  6.55085593e-02f,  -7.48244813e-03f,  5.23800887e-02f,  4.27765632e-03f,  2.96332315e-02f,  -4.32451032e-02f,  -4.47928905e-04f,
  5.62643521e-02f,  -1.16531931e-01f,  -3.53030078e-02f,  -1.32437095e-01f,  -1.59436110e-02f,  1.27687797e-01f,  8.91029835e-04f,  1.71971247e-02f,
  -2.68046595e-02f,  1.79436279e-03f,  3.45358513e-02f,  4.56194542e-02f,  5.97569607e-02f,  7.31748939e-02f,  4.20023315e-03f,  -2.57852189e-02f,
  -7.04837143e-02f,  4.23678719e-02f,  8.47090408e-02f,  9.28273648e-02f,  -2.40604598e-02f,  -5.46178184e-02f,  6.57280833e-02f,  -8.52769986e-03f,
  3.66720855e-02f,  -4.01609465e-02f,  -7.09275575e-03f,  -1.74341872e-02f,  4.43905406e-02f,  -3.51574346e-02f,  8.23570639e-02f,  9.75167230e-02f,
  6.95285797e-02f,  -8.94608870e-02f,  8.99604708e-02f,  -1.65509786e-02f,  1.73645318e-02f,  8.20405707e-02f,  5.35171330e-02f,  7.99623132e-02f,
  3.62115763e-02f,  -1.03056729e-02f,  -7.12660253e-02f,  1.25747742e-02f,  1.40934736e-01f,  4.41761315e-02f,  6.48616105e-02f,  -3.30952033e-02f,
  4.74074557e-02f,  1.19367875e-01f,  6.16780333e-02f,  -5.00340909e-02f,  1.07295141e-01f,  -2.73068286e-02f,  7.67235234e-02f,  4.25368957e-02f,
  7.07108155e-02f,  8.40174854e-02f,  -4.66668084e-02f,  8.00976530e-02f,  -3.40990387e-02f,  -7.47887744e-03f,  2.19095708e-03f,  3.14525589e-02f,
  8.30110386e-02f,  5.09450696e-02f,  -1.38021214e-02f,  4.26471159e-02f,  -6.45661131e-02f,  6.04671706e-03f,  2.27929447e-02f,  -4.28317189e-02f,
  2.63000727e-02f,  2.87330728e-02f,  -8.42360333e-02f,  1.64766777e-02f,  -8.93348129e-04f,  7.73228565e-03f,  -1.07175298e-02f,  -3.36046591e-02f,
  -1.73943378e-02f,  2.23360956e-02f,  8.30133036e-02f,  4.46460731e-02f,  1.08482530e-02f,  -5.16728871e-02f,  6.39953883e-03f,  -2.25190725e-02f,
  7.19043892e-03f,  6.26444891e-02f,  3.97429764e-02f,  8.14631358e-02f,  -4.07138057e-02f,  5.38364723e-02f,  -6.82116160e-03f,  -4.00303714e-02f,
  7.94399381e-02f,  9.50631946e-02f,  -2.20543873e-02f,  -6.79777414e-02f,  -5.78931719e-03f,  -3.05020474e-02f,  -6.27587512e-02f,  -7.28705898e-02f,
  -3.83673906e-02f,  8.87095579e-04f,  -5.47926351e-02f,  -4.09969911e-02f,  4.93498296e-02f,  -3.49254906e-02f,  5.57498112e-02f,  -2.15266161e-02f,
  -4.41096053e-02f,  -5.34130484e-02f,  7.42765609e-03f,  7.72893801e-02f,  1.19517082e-02f,  -5.94594106e-02f,  -7.32327029e-02f,  -9.39164124e-03f,
  -8.92746821e-02f,  -8.74676704e-02f,  -2.60396674e-02f,  -8.64288583e-02f,  4.71449643e-03f,  -5.56126349e-02f,  -5.70786372e-02f,  3.26238573e-04f,
  -5.78982458e-02f,  6.38366863e-02f,  4.57262099e-02f,  2.59160232e-02f,  -7.07746372e-02f,  3.40029784e-02f,  5.04435971e-02f,  7.68440142e-02f,
  -4.68428731e-02f,  1.29059955e-01f,  3.99544388e-02f,  -5.89839332e-02f,  3.84767801e-02f,  -7.28250369e-02f,  1.60921365e-02f,  -7.95675591e-02f,
  -5.45801595e-02f,  1.94101054e-02f,  7.01497346e-02f,  -8.56867582e-02f,  -5.86248860e-02f,  -8.50050244e-03f,  1.39751220e-02f,  -4.31442149e-02f,
  5.59843816e-02f,  -4.13419642e-02f,  -1.13920264e-01f,  2.03539897e-02f,  7.09314719e-02f,  4.34907116e-02f,  -8.72747693e-03f,  8.91860127e-02f,
  2.15330515e-02f,  -1.40968543e-02f,  7.54320482e-03f,  4.73733358e-02f,  -9.51968059e-02f,  1.13261141e-01f,  5.66122048e-02f,  6.58762604e-02f,
  1.31308496e-01f,  3.71321812e-02f,  3.84154320e-02f,  4.04576920e-02f,  1.34084346e-02f,  6.43409640e-02f,  -8.16222876e-02f,  -1.00465417e-02f,
  1.83250755e-03f,  -1.58503857e-02f,  5.55943772e-02f,  8.21683835e-03f,  -7.20802322e-02f,  6.15240727e-03f,  -5.83848171e-03f,  7.44329691e-02f,
  7.69343898e-02f,  6.70814589e-02f,  4.10242602e-02f,  7.86387697e-02f,  5.55427484e-02f,  4.37195674e-02f,  -8.56057405e-02f,  2.00834647e-02f,
  -4.79639582e-02f,  -7.27019878e-03f,  3.86252366e-02f,  -5.78461774e-02f,  -1.22254146e-02f,  -1.25342952e-02f,  -8.94369334e-02f,  5.33488169e-02f,
  -2.23015100e-02f,  -3.73252332e-02f,  -5.45064248e-02f,  -6.03471287e-02f,  1.64522398e-02f,  -1.28251556e-02f,  1.61445402e-02f,  1.47495195e-02f,
  -1.32989706e-02f,  1.47768296e-02f,  -5.40206768e-02f,  3.22927870e-02f,  -6.89728037e-02f,  -7.33432993e-02f,  1.67986546e-02f,  -7.88185596e-02f,
  7.15516359e-02f,  -6.26108050e-02f,  -3.98839191e-02f,  2.04170253e-02f,  2.46118251e-02f,  4.70752455e-02f,  -1.37929348e-02f,  -4.73763794e-02f,
  6.44436553e-02f,  -5.67110330e-02f,  6.24635443e-02f,  4.42454778e-02f,  -7.77383223e-02f,  7.05498308e-02f,  -3.87794822e-02f,  5.15967533e-02f,
  2.67786719e-02f,  4.02956782e-03f,  -2.24933717e-02f,  -3.07656918e-02f,  1.30402697e-02f,  6.08164584e-03f,  -7.00469390e-02f,  -2.16821581e-03f,
  4.55190018e-02f,  3.96392420e-02f,  2.26303134e-02f,  7.45512918e-02f,  -3.47855175e-03f,  -7.24564791e-02f,  -2.01085117e-02f,  2.72215940e-02f,
  -4.85815071e-02f,  -3.67269777e-02f,  5.45440018e-02f,  8.96726549e-03f,  1.95301920e-02f,  -3.51881087e-02f,  4.31316579e-03f,  -1.74129829e-02f,
  4.67440300e-02f,  2.93131229e-02f,  -2.05984060e-02f,  -3.89645249e-02f,  5.41720726e-02f,  2.79782787e-02f,  7.17377439e-02f,  2.54701879e-02f,
  -2.45362110e-02f,  -3.50746214e-02f,  -1.14754988e-02f,  -7.03448355e-02f,  -3.64390500e-02f,  -7.16959909e-02f,  1.48802213e-02f,  -1.37192328e-02f,
  4.90836576e-02f,  -7.48228878e-02f,  3.12277284e-02f,  -4.51052375e-02f,  -8.24052393e-02f,  3.59870419e-02f,  8.41781870e-03f,  4.34829965e-02f,
  -6.36196285e-02f,  4.16992418e-02f,  -3.97756696e-02f,  9.62700695e-02f,  -4.30478193e-02f,  5.91576286e-02f,  6.69076815e-02f,  7.95037076e-02f,
  8.67794827e-02f,  -6.37382343e-02f,  2.14533471e-02f,  -1.99220553e-02f,  -8.60042963e-03f,  -6.07794300e-02f,  6.04084171e-02f,  2.62028947e-02f,
  2.54693776e-02f,  -1.27254725e-02f,  7.72151127e-02f,  -4.51349802e-02f,  -3.65829878e-02f,  3.47688571e-02f,  -3.68267521e-02f,  -1.33872852e-02f,
  -1.22722238e-03f,  -8.21608901e-02f,  -2.11259741e-02f,  1.64567046e-02f,  6.39054626e-02f,  6.65151775e-02f,  -1.16614150e-02f,  -3.46938148e-02f,
  3.26179378e-02f,  1.33139919e-02f,  4.74332199e-02f,  -7.59892398e-03f,  -7.17587443e-03f,  -8.71794969e-02f,  6.48453981e-02f,  -7.69535303e-02f,
  -6.34533241e-02f,  4.23323661e-02f,  -5.31845242e-02f,  4.99840975e-02f,  -2.20160801e-02f,  2.94156000e-02f,  -5.34928851e-02f,  -4.18414138e-02f,
  -4.91157696e-02f,  -1.59455519e-02f,  -1.10839671e-02f,  -2.64522023e-02f,  -8.05679336e-03f,  -6.80058748e-02f,  -7.90179595e-02f,  -2.38856245e-02f,
  -3.40767927e-03f,  -1.23006180e-02f,  -7.57974014e-02f,  -6.50251731e-02f,  -2.30651088e-02f,  -4.84251082e-02f,  7.88126737e-02f,  2.02987362e-02f,
  -5.33916615e-02f,  4.11317497e-02f,  8.75018165e-02f,  4.34254371e-02f,  -7.03252554e-02f,  1.38636203e-02f,  8.44570547e-02f,  2.30662972e-02f,
  -6.49988577e-02f,  2.13094372e-02f,  -2.28740321e-03f,  -3.12348623e-02f,  -4.70693037e-02f,  1.89545546e-02f,  -7.93151744e-03f,  -6.53555989e-02f,
  5.97096831e-02f,  2.87047364e-02f,  8.26228335e-02f,  2.88656633e-02f,  -6.24977313e-02f,  2.39082295e-02f,  4.54213992e-02f,  -2.15172395e-02f,
  -2.53491215e-02f,  3.99384648e-02f,  -1.09388679e-02f,  5.53083494e-02f,  1.09510586e-01f,  1.05798393e-02f,  8.46734643e-02f,  2.85534728e-02f,
  -3.15742157e-02f,  -8.52923393e-02f,  -1.67169329e-02f,  -5.35440631e-02f,  1.01651661e-02f,  6.08822964e-02f,  -4.44220332e-03f,  -7.47391805e-02f,
  6.31814497e-03f,  -8.20282549e-02f,  -8.28464795e-03f,  4.90549812e-03f,  2.72285286e-02f,  -7.30394945e-03f,  3.20412144e-02f,  -5.80546632e-02f,
  5.00868484e-02f,  -6.84043020e-02f,  5.63006662e-02f,  2.80929375e-02f,  5.59753366e-02f,  1.99771356e-02f,  -2.95429137e-02f,  5.89068681e-02f,
  -7.86447674e-02f,  -3.91300432e-02f,  4.03158851e-02f,  9.29462016e-02f,  -3.55248339e-02f,  6.11999556e-02f,  -3.74546126e-02f,  -5.09206578e-02f,
  4.05559465e-02f,  -7.12261498e-02f,  8.72919038e-02f,  8.14970061e-02f,  -3.58146094e-02f,  2.31899545e-02f,  3.86408605e-02f,  5.91122657e-02f,
  3.73089127e-02f,  1.15634711e-03f,  -6.70063570e-02f,  6.76515773e-02f,  8.82970616e-02f,  -7.38331452e-02f,  -2.30098721e-02f,  8.11455473e-02f,
  2.06562765e-02f,  4.90170419e-02f,  4.35500778e-02f,  -2.51689702e-02f,  8.71417373e-02f,  -8.72139037e-02f,  4.88043316e-02f,  6.24909177e-02f,
  3.77080664e-02f,  5.02497517e-02f,  -1.56198870e-02f,  7.00412244e-02f,  -1.67494379e-02f,  6.07421584e-02f,  -5.71694300e-02f,  -4.47007492e-02f,
  7.48386681e-02f,  -6.95467752e-04f,  -2.59624012e-02f,  3.13740522e-02f,  8.12361091e-02f,  1.05088405e-01f,  -1.97578445e-02f,  -6.13058209e-02f,
  6.50492832e-02f,  -1.06133714e-01f,  -5.61005622e-03f,  -6.00794852e-02f,  1.73937213e-02f,  9.56998542e-02f,  -3.20166722e-02f,  5.94060915e-03f,
  8.34695846e-02f,  -3.71720153e-03f,  7.88194165e-02f,  -5.14912158e-02f,  -1.92852691e-02f,  -8.18353966e-02f,  8.10286775e-02f,  3.01169995e-02f,
  3.45090553e-02f,  7.23345578e-02f,  -2.86975019e-02f,  9.03279483e-02f,  -1.72622502e-02f,  2.87024956e-03f,  3.70219611e-02f,  4.52327654e-02f,
  5.12464903e-02f,  -5.35550825e-02f,  -7.07468465e-02f,  -4.38222922e-02f,  -1.13333333e-02f,  9.58132744e-03f,  -4.55203988e-02f,  -1.71913300e-02f,
  7.04334974e-02f,  -9.43453610e-02f,  5.79366349e-02f,  -5.15654497e-02f,  2.17703469e-02f,  -4.31555212e-02f,  -1.31559977e-02f,  5.44700176e-02f,
  -1.82057898e-02f,  -2.10639723e-02f,  3.73045430e-02f,  3.75835076e-02f,  -3.65495309e-02f,  -6.66668117e-02f,  1.08446982e-02f,  -1.69509053e-02f,
  -6.18847832e-02f,  6.43473119e-02f,  -5.83899058e-02f,  1.03450768e-01f,  6.26045540e-02f,  7.12594688e-02f,  1.02930933e-01f,  9.77079943e-02f,
  1.34521918e-02f,  -3.11523117e-02f,  5.44577762e-02f,  3.83558571e-02f,  4.24822271e-02f,  1.17538430e-01f,  9.39685628e-02f,  -3.61039639e-02f,
  6.79975748e-02f,  -8.55832398e-02f,  -5.53894555e-03f,  -2.59347875e-02f,  -2.41880082e-02f,  -8.29298869e-02f,  -7.75247961e-02f,  -7.03714490e-02f,
  3.07953488e-02f,  -7.11653903e-02f,  -1.77015439e-02f,  -5.44894151e-02f,  2.55881548e-02f,  5.64610735e-02f,  9.66425166e-02f,  -9.40475315e-02f,
  -4.20191102e-02f,  8.06016028e-02f,  4.48101386e-02f,  2.10523158e-02f,  2.50333380e-02f,  -4.04193923e-02f,  1.20176682e-02f,  5.66341057e-02f,
  -6.31737383e-03f,  -1.29073888e-01f,  -8.68336186e-02f,  5.70054725e-02f,  -6.67337142e-03f,  -5.70122637e-02f,  1.07222743e-01f,  -9.40910820e-03f,
  5.64297810e-02f,  -1.12209290e-01f,  7.30749592e-02f,  -8.70232284e-02f,  -4.68220934e-02f,  3.70785333e-02f,  1.14427142e-01f,  -2.02792082e-02f,
  9.29005668e-02f,  7.90909678e-02f,  1.15598887e-02f,  -6.93087429e-02f,  -4.35256511e-02f,  -7.92487413e-02f,  -1.29247841e-03f,  -4.46473770e-02f,
  -5.35370111e-02f,  8.99901614e-02f,  2.36156918e-02f,  9.96110812e-02f,  -1.68982413e-04f,  1.74021367e-02f,  4.48135100e-02f,  3.11438972e-03f,
  -1.23459116e-01f,  -4.99358363e-02f,  -7.42689595e-02f,  -8.26738253e-02f,  8.09090436e-02f,  -6.38413578e-02f,  2.09944104e-04f,  2.55904347e-03f,
  -6.94653243e-02f,  1.14053667e-01f,  4.62258570e-02f,  3.64010781e-02f,  -1.42363394e-02f,  4.48206849e-02f,  -4.58702967e-02f,  -5.94374947e-02f,
  7.47077912e-02f,  9.94204171e-03f,  6.18928187e-02f,  2.87552625e-02f,  -3.60833704e-02f,  5.12340963e-02f,  1.17917256e-02f,  7.48311356e-02f,
  -3.07388473e-02f,  -4.02790718e-02f,  1.04144879e-01f,  -4.93984036e-02f,  -7.25255832e-02f,  -6.01064526e-02f,  1.57709280e-03f,  5.18207848e-02f,
  1.81075130e-02f,  -6.17256276e-02f,  -5.09631224e-02f,  4.30902690e-02f,  7.49067813e-02f,  -4.19180132e-02f,  -6.69307560e-02f,  -8.28305725e-04f,
  7.83180073e-02f,  -5.21467328e-02f,  1.27346546e-03f,  2.41801441e-02f,  1.01196937e-01f,  -2.52958555e-02f,  1.19151697e-02f,  6.53394386e-02f,
  -1.14316680e-01f,  -3.80726717e-02f,  7.94632211e-02f,  -5.60500324e-02f,  2.64025386e-03f,  -2.48876419e-02f,  1.25895038e-01f,  -3.27473693e-02f,
  -6.16495423e-02f,  9.85515267e-02f,  3.67081189e-03f,  1.13013610e-01f,  -1.09137580e-01f,  7.40828738e-02f,  -5.46648428e-02f,  -4.69860286e-02f,
  -2.89138705e-02f,  -2.20914427e-02f,  -4.81585786e-02f,  -8.02144334e-02f,  6.43123388e-02f,  9.42372382e-02f,  1.51024973e-02f,  -7.00257719e-04f,
  -1.83050986e-02f,  -6.27956586e-03f,  8.11975896e-02f,  1.92619096e-02f,  1.33492008e-01f,  -1.11214947e-02f,  4.25098725e-02f,  5.82863390e-02f,
  3.16225924e-02f,  5.97099215e-02f,  4.95311394e-02f,  5.14744334e-02f,  5.24041280e-02f,  -4.13226821e-02f,  9.76778045e-02f,  -9.68666151e-02f,
  -3.78104672e-02f,  -7.08561530e-03f,  8.03474560e-02f,  -2.56611779e-02f,  -6.86210543e-02f,  -7.71855563e-02f,  1.23078935e-01f,  1.00144163e-01f,
  9.74786505e-02f,  -5.45830764e-02f,  6.06599711e-02f,  -2.28252411e-02f,  9.26575214e-02f,  3.08555793e-02f,  3.13117169e-02f,  1.07003070e-01f,
  -5.77715982e-04f,  -9.37939156e-03f,  4.57057357e-02f,  1.66676361e-02f,  1.17035033e-02f,  -1.51852388e-02f,  5.29760234e-02f,  1.93181578e-02f,
  -1.25531480e-02f,  -5.34167103e-02f,  7.59451687e-02f,  -5.99575527e-02f,  1.13663048e-01f,  -2.50804629e-02f,  4.58477214e-02f,  3.22475210e-02f,
  2.78570056e-02f,  7.42583051e-02f,  6.21345341e-02f,  4.53365818e-02f,  -7.64195547e-02f,  7.92031214e-02f,  3.66837420e-02f,  1.01289220e-01f,
  1.91541966e-02f,  5.71578257e-02f,  -4.63984571e-02f,  6.42816052e-02f,  -6.75371587e-02f,  3.57611217e-02f,  -4.62764651e-02f,  -7.78746232e-02f,
  7.04866126e-02f,  6.79426119e-02f,  -8.54136795e-03f,  6.95179179e-02f,  9.90528390e-02f,  1.39330225e-02f,  6.76988140e-02f,  -1.88889503e-02f,
  5.60525944e-03f,  -5.00478335e-02f,  1.87234338e-02f,  -8.89355764e-02f,  -2.72471998e-02f,  8.45524389e-03f,  -8.24172515e-03f,  4.58195060e-02f,
  6.08616769e-02f,  -1.84574220e-02f,  1.54713526e-01f,  3.37301642e-02f,  -6.65491074e-02f,  1.17843086e-02f,  6.53846785e-02f,  3.00595863e-03f,
  -2.02151593e-02f,  -1.05057368e-02f,  -1.18623048e-01f,  -3.19807716e-02f,  2.03487184e-02f,  4.56928611e-02f,  -1.84640624e-02f,  -1.36610279e-02f,
  -2.28792373e-02f,  -4.27367687e-02f,  9.83944237e-02f,  1.62078962e-02f,  1.26162199e-02f,  -3.41776572e-02f,  -4.38032411e-02f,  -2.73784045e-02f,
  7.42060766e-02f,  1.78948138e-02f,  -6.70873672e-02f,  -2.29618456e-02f,  7.60285631e-02f,  1.03408620e-01f,  1.47016207e-02f,  -1.55308619e-02f,
  -2.21388340e-02f,  1.21057406e-02f,  -6.70301765e-02f,  -2.96981521e-02f,  2.74750572e-02f,  3.45393345e-02f,  -6.61491081e-02f,  3.22874673e-02f,
  1.21843554e-01f,  -3.96603309e-02f,  2.58450154e-02f,  -8.10643658e-02f,  -3.04609127e-02f,  2.10623704e-02f,  1.05802178e-01f,  -6.00054264e-02f,
  6.24522008e-03f,  -3.42335887e-02f,  -6.40061721e-02f,  -5.31626306e-02f,  5.33969179e-02f,  6.77591860e-02f,  6.30659685e-02f,  6.27673194e-02f,
  9.14614424e-02f,  1.12261288e-02f,  4.24865708e-02f,  1.23138875e-02f,  -1.11380796e-04f,  3.71266529e-03f,  1.56782921e-02f,  6.14392310e-02f,
  -4.41533141e-02f,  1.21246003e-01f,  -5.50392531e-02f,  9.12216026e-03f,  4.91807051e-02f,  -1.01813830e-01f,  -9.25590750e-03f,  1.02277204e-01f,
  4.59763687e-03f,  -1.28180742e-01f,  1.62197500e-02f,  8.40858594e-02f,  8.77714530e-02f,  -2.72295345e-02f,  8.61903504e-02f,  -1.06695071e-02f,
  -3.25841084e-02f,  -1.14619687e-01f,  9.76886600e-03f,  -7.62266219e-02f,  8.91765505e-02f,  -6.70476332e-02f,  9.29834619e-02f,  2.13755015e-02f,
  6.70113117e-02f,  -2.53034215e-02f,  3.94479036e-02f,  4.73625697e-02f,  1.15298666e-01f,  6.35683862e-03f,  -7.76878819e-02f,  4.88343090e-03f,
  -7.49631524e-02f,  8.35452676e-02f,  7.12228417e-02f,  -1.50711741e-02f,  9.37120095e-02f,  -4.30355482e-02f,  -6.26064092e-02f,  -3.01145948e-03f,
  3.94236334e-02f,  2.91198082e-02f,  7.67748207e-02f,  5.51905222e-02f,  -1.94720998e-02f,  1.77514069e-02f,  8.88556615e-02f,  -7.07443208e-02f,
  5.82630821e-02f,  -6.47343993e-02f,  2.96391100e-02f,  -7.33430777e-03f,  -2.53473483e-02f,  -4.75222711e-03f,  -3.09076067e-02f,  4.05143909e-02f,
  3.87727097e-02f,  4.67427224e-02f,  -6.17963523e-02f,  -5.04893698e-02f,  5.73901366e-03f,  -7.02588931e-02f,  -1.92472525e-02f,  1.42039265e-04f,
  6.58901930e-02f,  -6.24589920e-02f,  -2.75738593e-02f,  5.12333252e-02f,  -2.14817729e-02f,  -3.87862660e-02f,  4.62874360e-02f,  4.75116856e-02f,
  2.78842989e-02f,  -3.42777930e-02f,  -4.28055488e-02f,  -3.10017690e-02f,  8.50466564e-02f,  1.59686282e-02f,  6.47417009e-02f,  8.00071582e-02f,
  3.54013555e-02f,  -8.64561945e-02f,  3.18498202e-02f,  6.19109906e-02f,  9.40842703e-02f,  7.20763579e-02f,  -8.47725943e-02f,  3.13801132e-02f,
  -6.23733103e-02f,  5.55261448e-02f,  3.81144360e-02f,  -3.70512083e-02f,  -5.34516498e-02f,  6.96223006e-02f,  6.39949739e-02f,  3.56686115e-03f,
  -5.66326603e-02f,  2.81792898e-02f,  -7.24447146e-02f,  4.51912135e-02f,  2.54424959e-02f,  2.06777137e-02f,  5.01101352e-02f,  -2.86546610e-02f,
  8.23979676e-02f,  -3.32959965e-02f,  -5.28343767e-02f,  9.60489288e-02f,  1.06844194e-02f,  -2.27277074e-02f,  -6.16444796e-02f,  -1.67012215e-03f,
  7.63695315e-02f,  -6.73023518e-03f,  1.31718591e-01f,  -3.95528488e-02f,  2.70366529e-03f,  5.53769767e-02f,  2.82826796e-02f,  1.63820740e-02f,
  -1.27288420e-02f,  -1.82538666e-02f,  -2.52731144e-02f,  -1.19383447e-02f,  3.49465683e-02f,  3.00857145e-02f,  -1.03402929e-02f,  -1.48897143e-02f,
  -3.57151893e-03f,  5.03486656e-02f,  3.48716192e-02f,  7.31997266e-02f,  4.76987325e-02f,  -1.93768200e-02f,  -3.26083601e-03f,  1.01211935e-01f,
  -2.12607365e-02f,  -8.42804909e-02f,  -6.62355274e-02f,  1.39343692e-02f,  -7.04987943e-02f,  1.27936760e-02f,  4.81199846e-02f,  4.39659320e-03f,
  2.46766000e-03f,  -5.98190762e-02f,  -3.79957967e-02f,  -7.34324567e-03f,  3.47061343e-02f,  -1.65902707e-03f,  4.38496917e-02f,  2.99420990e-02f,
  2.07024184e-03f,  1.14077404e-01f,  -5.38920499e-02f,  6.92528412e-02f,  -2.16132682e-02f,  -6.98902830e-02f,  7.18538240e-02f,  -2.92279571e-03f,
  -8.19635987e-02f,  1.17155425e-01f,  -1.25954837e-01f,  1.18834740e-02f,  -2.41175201e-02f,  8.88889879e-02f,  3.92128713e-02f,  -1.96073093e-02f,
  6.23138063e-02f,  7.64616355e-02f,  -6.38721958e-02f,  3.68088894e-02f,  -4.05871496e-03f,  -6.78841099e-02f,  1.54242683e-02f,  -6.60887212e-02f,
  -3.25463936e-02f,  -7.60086328e-02f,  8.03478509e-02f,  7.83088580e-02f,  7.98143670e-02f,  -4.03824225e-02f,  2.53210291e-02f,  2.76703318e-03f,
  3.53265628e-02f,  -1.10948831e-02f,  1.22095682e-02f,  -8.84249657e-02f,  -2.96269078e-02f,  1.52790602e-02f,  -5.23341782e-02f,  6.69433400e-02f,
  9.39668491e-02f,  -3.53510827e-02f,  -6.61538988e-02f,  -4.18103859e-03f,  2.57212128e-02f,  -1.21301427e-01f,  -4.75196764e-02f,  -5.46300076e-02f,
  -1.78674906e-02f,  -5.05708195e-02f,  2.12278496e-02f,  6.94021359e-02f,  3.87566201e-02f,  3.41747999e-02f,  5.99751323e-02f,  3.64624076e-02f,
  7.79452175e-02f,  2.18767188e-02f,  3.87704484e-02f,  5.53784780e-02f,  -6.74508372e-03f,  8.67090747e-02f,  6.93778368e-03f,  5.76716550e-02f,
  4.77283262e-02f,  -2.50839647e-02f,  -6.32639453e-02f,  -3.55065130e-02f,  3.00514488e-03f,  6.16326891e-02f,  -7.60163292e-02f,  2.85091400e-02f,
  -7.89302588e-02f,  4.52206545e-02f,  7.41029456e-02f,  1.07518164e-02f,  -1.86226517e-02f,  6.72386885e-02f,  4.62791249e-02f,  1.35896560e-02f,
  1.01442616e-02f,  9.60488394e-02f,  -8.45146645e-03f,  -4.56946939e-02f,  -1.62233301e-02f,  -5.49876280e-02f,  -6.30796850e-02f,  -2.13845000e-02f,
  7.88745582e-02f,  6.18818812e-02f,  -3.97944823e-03f,  -4.73903082e-02f,  -1.65038984e-02f,  1.03417233e-01f,  2.94233803e-02f,  6.20291121e-02f,
  4.39935625e-02f,  -1.00042690e-02f,  -6.36444539e-02f,  3.70116569e-02f,  -5.04441038e-02f,  -4.49349843e-02f,  8.64867270e-02f,  2.35186256e-02f,
  3.82634066e-02f,  1.25967804e-03f,  -3.77806239e-02f,  -6.70815036e-02f,  6.15440533e-02f,  -7.18799531e-02f,  3.55902240e-02f,  -8.40165913e-02f,
  9.25051048e-02f,  -5.23925410e-04f,  1.22406874e-02f,  4.08171825e-02f,  6.90069720e-02f,  -8.12622607e-02f,  -4.18118052e-02f,  2.28028875e-02f,
  9.31580439e-02f,  2.50906441e-02f,  -5.23684472e-02f,  -6.41539544e-02f,  -6.11763308e-03f,  1.71613228e-02f,  -4.05616090e-02f,  6.36408851e-02f,
  -6.80089220e-02f,  8.73650052e-03f,  5.81926405e-02f,  4.62628826e-02f,  -3.28469537e-02f,  -6.75595254e-02f,  -2.35119965e-02f,  -3.36768478e-03f,
  -3.62612009e-02f,  -4.74741682e-02f,  -5.72360530e-02f,  1.29990382e-02f,  7.89784491e-02f,  -1.88700315e-02f,  -3.80220357e-03f,  7.88148195e-02f,
  -7.88895488e-02f,  -9.01098549e-02f,  -2.38500331e-02f,  4.71443459e-02f,  -1.06570860e-02f,  5.94426580e-02f,  8.99057835e-02f,  -3.65658849e-03f,
  -2.86005461e-03f,  -3.82155813e-02f,  -5.39914444e-02f,  -3.36392596e-02f,  2.68488051e-03f,  6.32149726e-02f,  4.32222933e-02f,  -5.31547889e-02f,
  9.54069942e-02f,  6.26841933e-02f,  5.33094741e-02f,  -6.95632696e-02f,  -4.33513746e-02f,  -5.01704365e-02f,  -2.77449377e-02f,  -6.03604317e-02f,
  3.07258982e-02f,  1.06560010e-02f,  6.33194968e-02f,  3.82427387e-02f,  -2.68286187e-02f,  7.99698103e-03f,  -4.01319051e-03f,  1.57467294e-02f,
  6.52535185e-02f,  -1.64852086e-02f,  -4.51766104e-02f,  4.59684059e-02f,  -4.38241586e-02f,  -6.08076900e-02f,  -1.89690944e-02f,  1.03685521e-01f,
  6.69930354e-02f,  -8.17577094e-02f,  -9.19033028e-03f,  -8.34688693e-02f,  -6.77039102e-02f,  1.40640978e-02f,  -6.09175302e-03f,  -7.63569772e-02f,
  5.82168214e-02f,  4.79449891e-02f,  3.21711451e-02f,  7.20920265e-02f,  6.26320466e-02f,  5.26602082e-02f,  -2.65909173e-02f,  -1.21194944e-02f,
  2.17967406e-02f,  -3.63427065e-02f,  2.14146655e-02f,  1.25764394e-02f,  6.42137975e-03f,  -4.74853963e-02f,  6.60311207e-02f,  -4.19685990e-02f,
  1.38245830e-02f,  -1.38964038e-02f,  1.21352114e-02f,  3.94799421e-03f,  1.02439091e-01f,  6.80379868e-02f,  -2.51973905e-02f,  1.71325207e-02f,
  3.12532112e-02f,  7.99545422e-02f,  7.59807155e-02f,  -8.24427605e-03f,  8.08834285e-02f,  -5.25326543e-02f,  -2.45990455e-02f,  4.37469110e-02f,
  8.61901790e-02f,  -2.79669613e-02f,  8.21871907e-02f,  -4.98945452e-02f,  -9.42275971e-02f,  6.80843517e-02f,  1.77081972e-02f,  -3.86030525e-02f,
  -3.89405750e-02f,  9.34707895e-02f,  7.57902265e-02f,  1.31613147e-02f,  2.02920362e-02f,  1.05383106e-01f,  6.87766448e-02f,  -4.30689976e-02f,
  2.89416891e-02f,  -6.73898831e-02f,  -8.24250951e-02f,  4.95047458e-02f,  -5.32758934e-03f,  -7.00506475e-03f,  -9.96712446e-02f,  -3.12353969e-02f,
  9.84692276e-02f,  8.38426873e-02f,  3.93431410e-02f,  -2.05904823e-02f,  3.01043130e-02f,  8.51074085e-02f,  4.81715724e-02f,  1.04552910e-01f,
  4.27528583e-02f,  2.11006701e-02f,  -8.37067515e-02f,  1.50131993e-02f,  1.28580434e-02f,  -6.73635378e-02f,  1.36921719e-01f,  1.99782625e-02f,
  1.68357491e-02f,  1.17153168e-01f,  -5.79956137e-02f,  9.04842243e-02f,  7.70877348e-03f,  8.37961361e-02f,  -2.30858326e-02f,  -3.07192076e-02f,
  1.92162767e-02f,  1.58471074e-02f,  -9.84105561e-03f,  -8.93890411e-02f,  -4.11107503e-02f,  8.93602222e-02f,  1.04704797e-02f,  5.47554344e-03f,
  9.96692628e-02f,  3.15909684e-02f,  -6.41230196e-02f,  -5.70487343e-02f,  -1.25611182e-02f,  3.46392463e-03f,  4.83379476e-02f,  -8.50148648e-02f,
  -5.30397072e-02f,  4.72218581e-02f,  -4.30331333e-03f,  -4.50933240e-02f,  -1.04672657e-02f,  -8.06241389e-03f,  9.45688486e-02f,  6.44177794e-02f,
  -1.00756355e-01f,  1.08633578e-01f,  8.92479718e-02f,  7.94665515e-03f,  1.12527706e-01f,  -5.44941202e-02f,  -2.23362669e-02f,  2.95576965e-03f,
  -8.02266300e-02f,  -2.83895899e-02f,  -3.38683324e-03f,  -1.21794492e-02f,  4.36457023e-02f,  -3.37380394e-02f,  5.54792844e-02f,  8.22538696e-03f,
  1.50310500e-02f,  -1.56397130e-02f,  -5.61003685e-02f,  -2.52305772e-02f,  4.89435308e-02f,  6.03784919e-02f,  -5.50242653e-03f,  -9.84329823e-03f,
  -5.83727881e-02f,  -3.90756875e-02f,  2.29204092e-02f,  2.51385346e-02f,  2.48535108e-02f,  5.16914986e-02f,  1.60362385e-02f,  -3.67721319e-02f,
  4.86368909e-02f,  5.36207035e-02f,  1.03125907e-01f,  -5.66345863e-02f,  3.53233516e-02f,  -1.27606347e-01f,  -6.78280219e-02f,  4.30771485e-02f,
  3.06790043e-02f,  7.45029077e-02f,  2.81014871e-02f,  7.26821572e-02f,  -2.70404015e-02f,  5.04165217e-02f,  -6.30586967e-03f,  -2.02593207e-02f,
  2.75677219e-02f,  5.22436611e-02f,  7.46110305e-02f,  -2.85969283e-02f,  2.41770577e-02f,  -5.99585064e-02f,  -8.43732208e-02f,  6.68933615e-02f,
  -4.75908183e-02f,  8.14054385e-02f,  -2.93998979e-02f,  2.64758877e-02f,  3.85636464e-02f,  -7.61897117e-02f,  4.43714531e-03f,  9.42475647e-02f,
  -2.73181666e-02f,  -2.95377597e-02f,  -4.60717939e-02f,  -1.06560988e-02f,  6.29873350e-02f,  -9.48642194e-03f,  -5.51718213e-02f,  3.72513616e-03f,
  -5.33827767e-02f,  -8.01222399e-03f,  2.89711095e-02f,  -1.54858185e-02f,  -9.71809477e-02f,  -3.38603444e-02f,  1.70786511e-02f,  -9.90781188e-03f,
  -8.96860473e-03f,  -4.44861911e-02f,  -2.40894165e-02f,  6.99237064e-02f,  2.77522039e-02f,  1.75160896e-02f,  -6.43278211e-02f,  4.06704582e-02f,
  -7.89944753e-02f,  4.17826362e-02f,  4.03036512e-02f,  1.87951457e-02f,  7.43085295e-02f,  2.92189699e-02f,  2.29991972e-02f,  -4.81713414e-02f,
  7.38654286e-03f,  -6.29034787e-02f,  1.25111649e-02f,  -2.89491583e-02f,  5.89124784e-02f,  2.90117059e-02f,  5.98340370e-02f,  -5.91000170e-02f,
  7.59143531e-02f,  3.12134344e-02f,  -6.97976276e-02f,  6.16354235e-02f,  5.39953336e-02f,  -1.76703241e-02f,  3.24045792e-02f,  -3.15826535e-02f,
  2.50450298e-02f,  -1.08031491e-02f,  3.22410241e-02f,  -7.50444382e-02f,  -6.42032474e-02f,  8.85949880e-02f,  -5.75534515e-02f,  -3.96369286e-02f,
  4.55646291e-02f,  -4.17998154e-03f,  -3.38300094e-02f,  -4.57918458e-02f,  -4.67845723e-02f,  -6.10290887e-03f,  5.14379591e-02f,  4.95982096e-02f,
  1.93468221e-02f,  4.87776734e-02f,  2.67087836e-02f,  -2.19985121e-03f,  1.28269270e-02f,  -1.10211216e-01f,  1.04528731e-02f,  6.44701645e-02f,
  -2.03139335e-02f,  -2.25884444e-03f,  6.76626340e-02f,  2.91142166e-02f,  -6.14522733e-02f,  -1.03803344e-01f,  1.18739605e-02f,  1.53203979e-02f,
  5.71165569e-02f,  5.95839880e-02f,  -1.58152934e-02f,  -4.87869829e-02f,  -2.84487498e-03f,  8.25039297e-02f,  -4.50024866e-02f,  3.80503610e-02f,
  4.78980988e-02f,  -3.25477161e-02f,  4.09914106e-02f,  -1.54181030e-02f,  8.89937580e-02f,  -8.00147727e-02f,  3.37533131e-02f,  1.52393356e-02f,
  -8.13640207e-02f,  1.64015777e-02f,  -4.93880128e-03f,  -8.24002549e-03f,  5.04288748e-02f,  2.59701489e-03f,  4.85959984e-02f,  1.30210593e-02f,
  1.61460377e-02f,  4.36481647e-02f,  3.80796492e-02f,  -5.74710369e-02f,  8.78610611e-02f,  4.41210866e-02f,  -6.58785552e-02f,  5.87836578e-02f,
  -5.33184875e-03f,  -3.38211134e-02f,  -7.05807284e-02f,  1.79432444e-02f,  3.97600271e-02f,  5.98994233e-02f,  1.28110880e-02f,  -4.87540774e-02f,
  3.02957427e-02f,  -5.17057739e-02f,  -1.51075721e-02f,  1.22065814e-02f,  -1.42959720e-02f,  -8.36404637e-02f,  3.91755477e-02f,  -5.93282282e-03f,
  5.51413819e-02f,  -2.62749344e-02f,  7.30528161e-02f,  -3.22387367e-02f,  -5.31149469e-02f,  1.34568932e-02f,  5.26230130e-03f,  9.30627622e-03f,
  -5.78475893e-02f,  2.93146130e-02f,  1.14359905e-03f,  7.24431351e-02f,  -6.01310246e-02f,  -5.28574064e-02f,  1.00752581e-02f,  3.81550752e-02f,
  2.25647129e-02f,  6.16360530e-02f,  1.01670204e-02f,  5.93747124e-02f,  -1.13812927e-02f,  -3.71015668e-02f,  -4.46397401e-02f,  -3.07768472e-02f,
  -3.04581653e-02f,  -6.86901212e-02f,  -5.50662875e-02f,  1.40985306e-02f,  -7.28482902e-02f,  1.60402581e-02f,  3.90626267e-02f,  6.67387024e-02f,
  2.87749395e-02f,  1.57632139e-02f,  4.39056382e-02f,  -6.74715266e-02f,  9.79137197e-02f,  -6.58205375e-02f,  -5.79059683e-02f,  -6.66929111e-02f,
  -2.16510147e-02f,  4.22913283e-02f,  1.00804195e-01f,  1.38561903e-02f,  -3.66366804e-02f,  -5.19278273e-03f,  -5.82748279e-02f,  1.08908787e-02f,
  7.58597380e-05f,  4.74920943e-02f,  7.20465323e-03f,  -5.98729476e-02f,  -2.52212510e-02f,  -6.29696343e-03f,  -7.86895752e-02f,  -4.87523414e-02f,
  -6.93374053e-02f,  2.50640754e-02f,  -7.46887252e-02f,  -6.35911673e-02f,  -5.00242487e-02f,  3.87147367e-02f,  1.30317956e-01f,  7.53529668e-02f,
  -9.15785227e-03f,  1.05076976e-01f,  -4.22373675e-02f,  5.88180311e-02f,  1.50221717e-02f,  2.38195173e-02f,  -3.36459205e-02f,  1.01183459e-01f,
  4.79720384e-02f,  -1.05702005e-01f,  -2.89970413e-02f,  -7.32933357e-02f,  4.44273744e-03f,  -5.62354587e-02f,  -8.58871862e-02f,  -8.00448358e-02f,
  7.65999928e-02f,  3.04313693e-02f,  -2.05848627e-02f,  -1.39530981e-02f,  2.33184211e-02f,  -3.87763865e-02f,  1.17041424e-01f,  6.10882677e-02f,
  5.87552739e-03f,  -8.31432045e-02f,  5.75689040e-03f,  8.91115740e-02f,  -6.81401119e-02f,  -7.32057095e-02f,  -6.15449920e-02f,  -2.73228288e-02f,
  5.56059256e-02f,  -1.52573443e-03f,  -2.69360580e-02f,  5.54381013e-02f,  -5.00095002e-02f,  -7.08344206e-02f,  1.47572337e-02f,  -3.88821401e-03f,
  2.67181676e-02f,  -3.56401986e-04f,  6.74902871e-02f,  -3.36131081e-02f,  1.39327329e-02f,  -4.52559814e-02f,  -8.17161277e-02f,  -8.15082043e-02f,
  -2.15022564e-02f,  -3.22716236e-02f,  4.89690080e-02f,  7.82190114e-02f,  -4.59251739e-02f,  7.00409785e-02f,  -2.46233214e-02f,  5.89561351e-02f,
  8.81922320e-02f,  2.50705034e-02f,  -2.35398039e-02f,  -4.15547341e-02f,  3.99243049e-02f,  -1.71191171e-02f,  9.29028690e-02f,  3.94317806e-02f,
  -7.85790104e-03f,  -5.45527302e-02f,  5.05576208e-02f,  -6.70087487e-02f,  -6.22379780e-02f,  -8.09934065e-02f,  -3.10924258e-02f,  4.73162755e-02f,
  -4.87348735e-02f,  -1.98941696e-02f,  2.63263155e-02f,  6.55031651e-02f,  7.88388327e-02f,  -6.04124926e-02f,  -1.49766374e-02f,  2.97632627e-02f,
  5.02407141e-02f,  -2.70283669e-02f,  -4.06843312e-02f,  4.56124311e-03f,  5.27242944e-02f,  7.05196559e-02f,  -5.33699095e-02f,  7.06492737e-02f,
  -4.77922633e-02f,  8.52441937e-02f,  -2.90748123e-02f,  -2.57140398e-02f,  -4.10017855e-02f,  -6.78446442e-02f,  -1.81961395e-02f,  -4.66263294e-02f,
  -6.26981109e-02f,  1.94501989e-02f,  8.49954726e-04f,  9.04283151e-02f,  7.61555182e-03f,  -2.26950496e-02f,  7.73191750e-02f,  -2.81630382e-02f,
  7.45838732e-02f,  3.44028808e-02f,  2.48662885e-02f,  -4.29026447e-02f,  -3.93904420e-03f,  -4.50930968e-02f,  -6.33539855e-02f,  -4.18440923e-02f,
