#pragma once

// Layer    : conv2d_1
// W shape  : (3, 3, 16, 32)
// B shape  : (32,)
// NOTE: Conv2D weight layout = (KH, KW, CIN, COUT)
//       Dense weight layout  = (IN_DIM, OUT_DIM)

#define CONV2D_1_KERNEL_H 3
#define CONV2D_1_KERNEL_W 3
#define CONV2D_1_IN_CH    16
#define CONV2D_1_OUT_CH   32

const float CONV2D_1_WEIGHTS[4608] = {
  1.08198829e-01f,  -6.20541573e-02f,  -1.20790616e-01f,  9.55568478e-02f,  -1.02704592e-01f,  1.15482304e-02f,  -9.25815478e-02f,  9.57489982e-02f,
  7.73680434e-02f,  1.11527983e-02f,  1.57334972e-02f,  -9.15374830e-02f,  -2.72083040e-02f,  7.37328306e-02f,  3.55069572e-03f,  1.09197401e-01f,
  2.27930071e-03f,  -5.14590777e-02f,  7.04806894e-02f,  -8.17608535e-02f,  -3.00789345e-02f,  -4.92725819e-02f,  1.95171114e-03f,  7.61541054e-02f,
  -4.09423076e-02f,  8.72902796e-02f,  9.69089568e-02f,  3.13224979e-02f,  4.58246619e-02f,  1.51366949e-01f,  -1.57288201e-02f,  5.38420491e-02f,
  -3.78940813e-02f,  -2.14201584e-02f,  3.52988988e-02f,  -9.84985083e-02f,  1.51305333e-01f,  4.46386039e-02f,  1.10542230e-01f,  5.64131849e-02f,
  6.83060884e-02f,  -1.35691985e-01f,  -7.91488960e-02f,  1.36008248e-01f,  2.18064915e-02f,  1.51192054e-01f,  -1.03269637e-01f,  1.04446195e-01f,
  1.33722676e-02f,  -1.89158823e-02f,  1.32311415e-02f,  -9.90554988e-02f,  -1.61366183e-02f,  -2.67762057e-02f,  -1.06263332e-01f,  3.00800707e-02f,
  6.74764514e-02f,  -8.60982537e-02f,  8.40597525e-02f,  -6.58826157e-02f,  9.94515345e-02f,  -1.12092055e-01f,  8.34351256e-02f,  2.21470147e-02f,
  -4.84529287e-02f,  -1.86136551e-02f,  9.38861072e-02f,  6.02175891e-02f,  -3.89435003e-03f,  -1.03640214e-01f,  1.15130790e-01f,  -2.16162764e-02f,
  -4.42672186e-02f,  2.30593067e-02f,  3.13392244e-02f,  4.34288047e-02f,  7.67501369e-02f,  -7.74496943e-02f,  -8.67625140e-03f,  -5.73060550e-02f,
  1.00800380e-01f,  1.12517856e-01f,  8.39081109e-02f,  1.15032487e-01f,  -1.04588151e-01f,  1.02792844e-01f,  1.22217394e-01f,  -5.22297509e-02f,
  1.18887223e-01f,  -7.65665472e-02f,  -3.49119380e-02f,  1.10006183e-02f,  4.80367616e-02f,  -2.53912918e-02f,  -4.10224590e-03f,  1.43465966e-01f,
  1.35689601e-01f,  1.30159244e-01f,  -2.55950615e-02f,  4.19268608e-02f,  1.16834342e-01f,  1.19892389e-01f,  7.47610703e-02f,  -8.56392309e-02f,
  1.23667173e-01f,  -9.26422514e-03f,  5.75247817e-02f,  3.18990275e-02f,  -5.15780672e-02f,  1.30216151e-01f,  -1.33670308e-03f,  1.00204632e-01f,
  7.54768178e-02f,  1.40390217e-01f,  8.62611923e-03f,  -5.58844358e-02f,  9.90850627e-02f,  1.04507450e-02f,  -3.87648344e-02f,  1.48614896e-02f,
  -9.54715088e-02f,  7.96820894e-02f,  6.00647554e-02f,  4.79023792e-02f,  -3.90565880e-02f,  1.08659603e-01f,  5.89858033e-02f,  3.59616755e-03f,
  -3.97845842e-02f,  -5.00822067e-02f,  1.94126479e-02f,  1.23440310e-01f,  1.85480714e-01f,  -1.06895743e-02f,  1.47910535e-01f,  1.28317401e-01f,
  3.91432494e-02f,  6.29400462e-02f,  -1.44395292e-01f,  3.02804708e-02f,  1.16561808e-01f,  1.79837480e-01f,  5.24950773e-02f,  7.04363510e-02f,
  -8.52717981e-02f,  9.23735369e-03f,  1.38902083e-01f,  -7.50269741e-02f,  -8.31293240e-02f,  -7.28370920e-02f,  -1.46173015e-01f,  1.43365383e-01f,
  6.09988943e-02f,  -2.71526873e-02f,  1.52923375e-01f,  7.08325654e-02f,  7.00378930e-03f,  1.51591748e-01f,  7.10615376e-03f,  -1.08950883e-01f,
  -6.95419088e-02f,  9.68046039e-02f,  -6.72811270e-02f,  7.11438730e-02f,  -1.08386576e-01f,  -8.43358487e-02f,  2.52551064e-02f,  -1.12781629e-01f,
  6.59730136e-02f,  1.09944075e-01f,  6.67624846e-02f,  -9.61495191e-02f,  -1.31279156e-01f,  -9.77420881e-02f,  -4.31027561e-02f,  -7.69909099e-02f,
  -1.14643816e-02f,  8.25740546e-02f,  -3.80955674e-02f,  -1.14938229e-01f,  -6.87619373e-02f,  8.75043273e-02f,  8.36709216e-02f,  8.10967088e-02f,
  3.60619016e-02f,  -6.65790066e-02f,  8.80564824e-02f,  -1.09861076e-01f,  -1.76480766e-02f,  3.18110432e-03f,  7.91143104e-02f,  1.08261839e-01f,
  7.86117986e-02f,  7.35395774e-02f,  -5.59813483e-03f,  1.07317835e-01f,  -6.00978434e-02f,  2.18308028e-02f,  5.43738902e-02f,  3.49977911e-02f,
  2.46289540e-02f,  -3.15398239e-02f,  -2.48727109e-02f,  -2.99270302e-02f,  -6.20564520e-02f,  -1.27856195e-01f,  9.68791991e-02f,  7.70450151e-03f,
  -9.49389711e-02f,  -6.00301176e-02f,  -1.00769401e-02f,  -5.14959767e-02f,  9.66985822e-02f,  -8.04208964e-02f,  -2.99760681e-02f,  8.02787691e-02f,
  -6.88465610e-02f,  -9.32820607e-03f,  1.41442582e-01f,  -1.24338344e-01f,  -1.70544852e-02f,  -2.17421241e-02f,  -4.94827032e-02f,  -1.55672908e-01f,
  -3.38726565e-02f,  1.22513644e-01f,  -2.24139933e-02f,  2.92973174e-03f,  -5.56191839e-02f,  -8.81622173e-03f,  -2.55570523e-02f,  8.03708658e-03f,
  -9.01542753e-02f,  5.53012080e-02f,  6.19650483e-02f,  1.48081675e-01f,  -7.21267387e-02f,  -4.79324982e-02f,  -1.22144766e-01f,  1.57586560e-02f,
  -8.66640806e-02f,  9.61912349e-02f,  8.36341754e-02f,  3.33644859e-02f,  -1.19046509e-01f,  1.30307376e-01f,  -1.17826298e-01f,  -5.28808273e-02f,
  2.15588557e-03f,  -1.22682359e-02f,  9.41013843e-02f,  -1.07829891e-01f,  1.23622015e-01f,  -1.77659132e-02f,  -1.04758680e-01f,  -7.01110531e-03f,
  -1.15530053e-02f,  -2.49961838e-02f,  5.99407218e-02f,  -3.58328298e-02f,  8.19401145e-02f,  -6.16477393e-02f,  7.01008551e-03f,  3.79961058e-02f,
  1.02030141e-02f,  5.22546396e-02f,  2.26302128e-02f,  -5.59547916e-02f,  -2.30335491e-03f,  -6.20994754e-02f,  -2.76739094e-02f,  1.30993575e-01f,
  -6.94759414e-02f,  1.42402783e-01f,  -9.68135893e-03f,  -3.44736204e-02f,  9.70609188e-02f,  7.79229179e-02f,  -1.00843310e-01f,  -6.39168620e-02f,
  -6.16706088e-02f,  1.15537588e-02f,  1.22353826e-02f,  7.80335888e-02f,  6.07732683e-04f,  -6.74448758e-02f,  -4.94014211e-02f,  -9.20939669e-02f,
  2.87483446e-02f,  -4.33904044e-02f,  1.10598773e-01f,  -6.14701733e-02f,  9.90796760e-02f,  1.38201684e-01f,  1.07055798e-01f,  -5.54459635e-03f,
  6.53095618e-02f,  -4.69558500e-02f,  -1.05097421e-01f,  1.61219418e-01f,  1.68345496e-01f,  1.75671540e-02f,  -1.96916461e-02f,  6.03836179e-02f,
  -8.64539575e-03f,  4.92983758e-02f,  -5.38399480e-02f,  1.28607407e-01f,  -6.54057264e-02f,  -3.78309214e-03f,  -6.28866255e-02f,  1.18587181e-01f,
  2.57173032e-02f,  -1.50772510e-02f,  8.08072612e-02f,  6.03777431e-02f,  1.32612856e-02f,  1.09533824e-01f,  -7.98193961e-02f,  -7.24843889e-02f,
  2.45460253e-02f,  -6.33766949e-02f,  -6.09342381e-02f,  -6.21787533e-02f,  8.24062377e-02f,  9.50975120e-02f,  5.34234196e-02f,  -4.33810242e-02f,
  7.73571292e-03f,  1.43858837e-02f,  1.31882682e-01f,  4.36204448e-02f,  -1.06957406e-01f,  9.91964862e-02f,  -3.88453854e-03f,  4.76695551e-03f,
  1.31393194e-01f,  1.67982616e-02f,  -1.42362183e-02f,  -4.72784117e-02f,  6.28579408e-02f,  -3.01371850e-02f,  1.02266878e-01f,  -2.09697690e-02f,
  -6.18539862e-02f,  -6.46771789e-02f,  1.09992132e-01f,  -3.37686948e-02f,  6.11087866e-02f,  -2.70063747e-02f,  7.91625082e-02f,  6.62370026e-02f,
  -4.72011901e-02f,  -1.26520609e-02f,  -7.06735998e-02f,  6.42958581e-02f,  4.76148725e-03f,  1.10366501e-01f,  1.04744397e-02f,  5.70213571e-02f,
  2.03918777e-02f,  3.76444757e-02f,  7.63030574e-02f,  -9.18383747e-02f,  1.06194757e-01f,  -4.28797156e-02f,  -9.50731114e-02f,  3.87238078e-02f,
  -5.28539047e-02f,  1.19680971e-01f,  1.14877708e-01f,  -7.60762691e-02f,  -8.64590853e-02f,  1.10029824e-01f,  -3.07801645e-02f,  1.21001191e-01f,
  1.17136598e-01f,  -9.23329219e-02f,  -2.47482099e-02f,  1.04227602e-01f,  -4.85951193e-02f,  -1.33006480e-02f,  7.05754459e-02f,  -2.95533538e-02f,
  4.33348157e-02f,  -8.15038234e-02f,  3.19364900e-03f,  2.68728845e-02f,  9.79408249e-02f,  -1.05964057e-01f,  6.63966388e-02f,  2.17463244e-02f,
  -4.58883382e-02f,  8.90872255e-02f,  -8.81593525e-02f,  -7.70293251e-02f,  -6.96799997e-03f,  -3.33300084e-02f,  8.80296156e-02f,  1.11157350e-01f,
  -5.62853180e-02f,  -7.89777040e-02f,  5.60839251e-02f,  1.24041480e-03f,  -1.10916449e-02f,  3.86366658e-02f,  2.58154180e-02f,  9.04548243e-02f,
  -2.81240996e-02f,  5.44924363e-02f,  5.88208884e-02f,  1.02581553e-01f,  9.95334238e-03f,  9.58914403e-03f,  4.85723913e-02f,  1.16265498e-01f,
  1.20449215e-01f,  8.54117647e-02f,  -7.06642196e-02f,  -1.13784268e-01f,  -1.09345108e-01f,  -9.61584151e-02f,  -3.89475189e-02f,  1.60100590e-03f,
  -8.78893137e-02f,  3.30775045e-03f,  -7.43933693e-02f,  1.96573045e-03f,  5.20708188e-02f,  6.55179843e-02f,  5.73931560e-02f,  1.33478586e-02f,
  -2.64579952e-02f,  1.18098885e-01f,  1.29847769e-02f,  7.62344971e-02f,  -1.87310521e-02f,  3.10181268e-02f,  1.10090524e-01f,  1.07924625e-01f,
  1.18195422e-01f,  -6.07940331e-02f,  -5.39955534e-02f,  1.15401350e-01f,  -5.16615957e-02f,  5.94854588e-03f,  7.89650455e-02f,  -2.98849959e-02f,
  -8.13578367e-02f,  5.08016534e-03f,  1.10829711e-01f,  -1.18145786e-01f,  -7.46345744e-02f,  -1.83628907e-03f,  8.30191299e-02f,  -8.51768330e-02f,
  -7.88954943e-02f,  -2.89340317e-02f,  7.48101994e-02f,  -2.58503910e-02f,  -5.95925795e-03f,  -9.69398618e-02f,  -7.93616772e-02f,  4.98581864e-02f,
  1.36304751e-01f,  9.63511392e-02f,  6.38210401e-02f,  -7.63176456e-02f,  1.05298251e-01f,  1.69975460e-02f,  -8.28802809e-02f,  9.53683034e-02f,
  8.98040533e-02f,  -6.79781835e-04f,  -5.38223125e-02f,  -8.48078504e-02f,  3.04159652e-02f,  1.29774407e-01f,  1.18965916e-01f,  1.36511207e-01f,
  -4.52409536e-02f,  -4.20666439e-03f,  8.67560059e-02f,  9.63561144e-03f,  9.52764004e-02f,  5.70137100e-03f,  -1.28799789e-02f,  1.23386430e-02f,
  6.00002334e-03f,  -1.04594879e-01f,  -6.21420592e-02f,  7.58813992e-02f,  2.63827462e-02f,  1.73031062e-01f,  -4.52126600e-02f,  -6.45751879e-02f,
  -3.45049016e-02f,  7.09600076e-02f,  7.64241293e-02f,  -1.23089239e-01f,  -1.28263950e-01f,  -6.73447773e-02f,  -6.31793365e-02f,  -6.05482422e-02f,
  1.07636124e-01f,  6.11404106e-02f,  9.78591666e-02f,  2.77385209e-02f,  1.18200310e-01f,  3.82788144e-02f,  6.18798397e-02f,  -5.87878227e-02f,
  -4.34424058e-02f,  3.41057219e-02f,  6.05954342e-02f,  3.99473608e-02f,  8.76693055e-02f,  6.20593950e-02f,  1.04816414e-01f,  1.36335999e-01f,
  -3.24257836e-02f,  1.32353619e-01f,  3.45393084e-02f,  2.53704730e-02f,  2.68968660e-02f,  2.90719606e-02f,  9.41533148e-02f,  -5.48977442e-02f,
  7.11041987e-02f,  -8.87474269e-02f,  -6.93469942e-02f,  8.53828862e-02f,  -4.86202650e-02f,  1.00540437e-01f,  4.55511808e-02f,  3.75644751e-02f,
  -8.00038651e-02f,  -7.44160786e-02f,  1.40592968e-02f,  3.30639556e-02f,  -1.24717675e-01f,  -5.27070276e-02f,  -1.88149959e-02f,  8.40149894e-02f,
  1.13856062e-01f,  -6.98193908e-02f,  8.30432847e-02f,  1.14638336e-01f,  9.76583268e-03f,  1.06981024e-01f,  5.10647073e-02f,  7.87366927e-02f,
  7.70630240e-02f,  9.07739028e-02f,  7.08658993e-02f,  -2.10103150e-02f,  -2.73537301e-02f,  2.86338106e-02f,  -3.80315781e-02f,  -3.71429361e-02f,
  -1.06472462e-01f,  9.42436978e-02f,  1.06039934e-01f,  4.55770791e-02f,  9.23196785e-03f,  2.33588293e-02f,  -1.34458706e-01f,  -5.70917949e-02f,
  4.53145690e-02f,  8.38830695e-02f,  4.38200347e-02f,  7.32415468e-02f,  2.48213783e-02f,  -9.61635485e-02f,  -6.03967998e-03f,  -3.21146054e-03f,
  -5.41311456e-04f,  5.93775138e-02f,  4.74758781e-02f,  5.14447987e-02f,  6.85585216e-02f,  -6.69437721e-02f,  -2.02121530e-02f,  1.16949975e-01f,
  -8.50252882e-02f,  -5.79172410e-02f,  -3.56231518e-02f,  4.05359194e-02f,  5.68262413e-02f,  -3.59579436e-02f,  8.06272496e-03f,  4.57564853e-02f,
  8.38592798e-02f,  -1.81004554e-02f,  -1.73655450e-02f,  4.10840251e-02f,  1.00730948e-01f,  -9.33838543e-03f,  -9.89925675e-03f,  3.87969986e-02f,
  -1.07524887e-01f,  5.73496222e-02f,  -2.49486472e-02f,  -4.67575118e-02f,  -1.45397000e-02f,  1.35481983e-01f,  -8.98942277e-02f,  1.29310535e-02f,
  1.08372923e-02f,  1.09512553e-01f,  3.73844318e-02f,  9.44901481e-02f,  5.21285459e-02f,  3.83752771e-02f,  1.16923131e-01f,  1.06220812e-01f,
  7.79345185e-02f,  3.80887985e-02f,  2.37920042e-02f,  5.28756455e-02f,  4.44399342e-02f,  1.33140504e-01f,  -7.05510825e-02f,  -1.58906914e-02f,
  3.98553684e-02f,  1.61792096e-02f,  1.24273583e-01f,  1.56798929e-01f,  -2.33987230e-03f,  7.49453157e-02f,  -3.25380750e-02f,  1.49721742e-01f,
  -7.40247443e-02f,  7.08451867e-02f,  6.06379546e-02f,  8.78014266e-02f,  6.84890375e-02f,  -4.04891856e-02f,  1.16756149e-02f,  2.46262141e-02f,
  1.54346511e-01f,  1.18790455e-01f,  -5.13722822e-02f,  3.27431299e-02f,  9.25962478e-02f,  -4.77885567e-02f,  1.38374731e-01f,  -3.32217664e-02f,
  7.39744008e-02f,  5.26087498e-03f,  1.76498238e-02f,  2.47446783e-02f,  1.09878778e-01f,  3.36368056e-03f,  -1.24772981e-01f,  6.41916245e-02f,
  -3.52438763e-02f,  3.59211490e-02f,  7.17058033e-02f,  -3.15947533e-02f,  -4.19794805e-02f,  1.39732361e-01f,  -1.81626086e-03f,  8.88655856e-02f,
  3.05149285e-03f,  4.03616242e-02f,  1.10167369e-01f,  8.66766497e-02f,  3.37477140e-02f,  6.88744038e-02f,  -7.12552294e-02f,  -1.11906946e-01f,
  -2.52004713e-03f,  -1.12587273e-01f,  7.10958540e-02f,  1.32408977e-01f,  4.20773514e-02f,  6.91682175e-02f,  -7.35188276e-03f,  -2.78949235e-02f,
  1.69837102e-02f,  1.36892789e-03f,  -5.84373176e-02f,  -1.05787106e-01f,  -3.61204222e-02f,  -8.93063247e-02f,  3.39072235e-02f,  -8.58801082e-02f,
  1.32911667e-01f,  -9.32005495e-02f,  1.25280605e-03f,  9.78760421e-02f,  1.91626027e-02f,  1.26298562e-01f,  -3.49997543e-02f,  2.88460702e-02f,
  1.16653271e-01f,  6.62132278e-02f,  1.60735930e-04f,  5.92459217e-02f,  -6.49315417e-02f,  1.28579527e-01f,  1.84269994e-03f,  8.56291652e-02f,
  2.91085858e-02f,  1.31461725e-01f,  -7.43473768e-02f,  1.13792308e-01f,  -1.44871753e-02f,  -4.73950393e-02f,  -8.50158185e-03f,  -9.33129564e-02f,
  -6.74859732e-02f,  -2.81062126e-02f,  -4.84909192e-02f,  1.04341224e-01f,  4.62677740e-02f,  -1.16801560e-02f,  6.64811805e-02f,  6.69026747e-02f,
  7.45409131e-02f,  -5.33563569e-02f,  1.05071589e-01f,  1.11206509e-02f,  2.73192525e-02f,  -7.73998946e-02f,  -3.38520445e-02f,  1.18875638e-01f,
  2.08704378e-02f,  -7.26142973e-02f,  -3.61392610e-02f,  4.90682609e-02f,  -3.83933149e-02f,  -9.04963315e-02f,  8.69170949e-02f,  -7.57256756e-03f,
  2.34768931e-02f,  8.46560001e-02f,  -1.25881820e-03f,  1.93675514e-05f,  -4.63277064e-02f,  -8.70859399e-02f,  -2.35856883e-02f,  9.32773724e-02f,
  8.71319547e-02f,  1.51914153e-02f,  -7.81489164e-02f,  -3.55817862e-02f,  2.64283124e-04f,  1.25667915e-01f,  -9.39078555e-02f,  9.45025962e-03f,
  1.23046383e-01f,  4.63111736e-02f,  -7.52041638e-02f,  -9.84328240e-02f,  -1.01585068e-01f,  8.26664120e-02f,  -7.82583281e-02f,  1.30609587e-01f,
  6.27489462e-02f,  9.08166394e-02f,  -6.36066347e-02f,  5.29228412e-02f,  2.17054933e-02f,  -2.18041297e-02f,  6.67038187e-02f,  -9.77068543e-02f,
  6.22157231e-02f,  2.42992975e-02f,  -4.07378301e-02f,  1.09483778e-01f,  -2.10111327e-02f,  4.72588912e-02f,  1.06624663e-01f,  1.25778820e-02f,
  1.76176250e-01f,  9.05514415e-03f,  -1.02892771e-01f,  -5.02641760e-02f,  9.61119961e-03f,  -4.33799364e-02f,  4.05122600e-02f,  4.59249578e-02f,
  -1.15229309e-01f,  8.39629844e-02f,  8.16471726e-02f,  4.62613665e-02f,  -1.13941066e-01f,  -1.72583368e-02f,  -7.24306554e-02f,  1.28034517e-01f,
  -1.46475136e-02f,  3.83808687e-02f,  9.65829864e-02f,  3.38601507e-02f,  -3.31984311e-02f,  6.97080866e-02f,  3.54586020e-02f,  -1.18202850e-01f,
  5.20209037e-02f,  7.58666173e-02f,  8.32123980e-02f,  8.58945623e-02f,  -1.94151755e-02f,  8.01149905e-02f,  1.95580814e-03f,  8.49134699e-02f,
  -4.99697439e-02f,  -1.09009102e-01f,  4.39337045e-02f,  -2.72066165e-02f,  8.65150895e-03f,  -1.06344268e-01f,  -9.47140679e-02f,  -2.48904452e-02f,
  -1.03396699e-01f,  -5.87976277e-02f,  -2.30882950e-02f,  1.03504315e-01f,  8.80980715e-02f,  1.47131547e-01f,  1.95571687e-02f,  1.48347721e-01f,
  2.99605206e-02f,  -3.92068103e-02f,  1.70361236e-01f,  -3.22630890e-02f,  6.01044446e-02f,  -6.89827278e-02f,  -1.11162305e-01f,  -9.13371146e-02f,
  -7.83268884e-02f,  6.87097013e-03f,  -2.27587447e-02f,  -4.35396209e-02f,  5.73614612e-03f,  -6.94139004e-02f,  4.22750376e-02f,  -9.38453376e-02f,
  7.07043260e-02f,  9.58929397e-03f,  1.25874862e-01f,  6.85565844e-02f,  -6.29107952e-02f,  8.89026299e-02f,  -2.89304089e-02f,  -1.03723913e-01f,
  1.34170189e-01f,  8.32682941e-03f,  -1.19224638e-01f,  1.36124659e-02f,  4.95999008e-02f,  -7.50593469e-02f,  7.11241513e-02f,  -5.47775179e-02f,
  9.64237154e-02f,  -8.73239264e-02f,  -5.08124568e-02f,  5.43766543e-02f,  -1.17428042e-01f,  1.42216429e-01f,  7.70396888e-02f,  -1.11661972e-02f,
  -8.44788328e-02f,  -6.71810731e-02f,  1.01746641e-01f,  -2.22364366e-02f,  -7.33196437e-02f,  1.08585529e-01f,  7.32152686e-02f,  1.40076503e-01f,
  9.47049111e-02f,  -7.10650608e-02f,  -1.34268194e-01f,  1.29978910e-01f,  1.73500404e-02f,  6.19279779e-02f,  -3.11337668e-03f,  -4.54217196e-02f,
  2.49203704e-02f,  3.56727885e-03f,  1.11561410e-01f,  1.22344829e-01f,  7.91547820e-02f,  1.40619859e-01f,  -1.36605009e-01f,  1.39757609e-02f,
  5.65040577e-03f,  1.24591440e-01f,  -8.28918070e-02f,  1.25676259e-01f,  -3.57936360e-02f,  -1.05097018e-01f,  -3.69986445e-02f,  6.22208789e-02f,
  8.66964459e-03f,  2.95030605e-03f,  -4.89846170e-02f,  -2.73118783e-02f,  -1.17848985e-01f,  4.91277874e-02f,  -5.41856699e-02f,  1.18487077e-02f,
  -4.36045527e-02f,  8.83036181e-02f,  4.51064482e-02f,  -2.28455123e-02f,  -1.74750593e-02f,  -8.30011070e-02f,  8.57162662e-03f,  -7.20639229e-02f,
  1.15418777e-01f,  9.86383557e-02f,  7.05115646e-02f,  7.13791847e-02f,  -4.14959416e-02f,  8.70313197e-02f,  7.42042959e-02f,  2.12710910e-02f,
  -1.44455610e-02f,  -7.85470828e-02f,  -2.16226485e-02f,  9.84642357e-02f,  2.45923474e-02f,  1.07448980e-01f,  5.77694103e-02f,  1.08323313e-01f,
  -7.44170845e-02f,  3.76887918e-02f,  -9.59993899e-02f,  -6.43420517e-02f,  7.34650493e-02f,  1.31894452e-02f,  -9.02780592e-02f,  1.64029300e-02f,
  2.96482313e-02f,  -7.71380812e-02f,  4.70530894e-03f,  -2.90751979e-02f,  6.83794841e-02f,  1.30933240e-01f,  8.95043686e-02f,  -7.99790174e-02f,
  -4.27093990e-02f,  1.07105337e-02f,  1.78155284e-02f,  1.26337022e-01f,  1.07731916e-01f,  1.00459896e-01f,  7.31802806e-02f,  -4.06365693e-02f,
  6.70323372e-02f,  -5.61485924e-02f,  4.27360013e-02f,  3.77482846e-02f,  -4.87732422e-03f,  -2.12788079e-02f,  -9.59767848e-02f,  1.19967811e-01f,
  2.17262357e-02f,  4.08255011e-02f,  7.88883567e-02f,  -2.41423380e-02f,  1.31810419e-02f,  -8.25749785e-02f,  1.03230234e-02f,  -7.99821839e-02f,
  -7.40901008e-02f,  -6.28406405e-02f,  5.71979098e-02f,  -7.44454265e-02f,  -2.82695587e-03f,  6.84636682e-02f,  5.19729629e-02f,  -2.25612652e-02f,
  1.07128039e-01f,  -2.90343538e-02f,  3.98073904e-02f,  -2.65440438e-02f,  -3.64903919e-02f,  9.29495916e-02f,  8.23934153e-02f,  -4.31108847e-02f,
  -8.60952213e-02f,  -7.21551031e-02f,  -2.55051665e-02f,  7.05906302e-02f,  5.85657209e-02f,  5.16001545e-02f,  7.61624724e-02f,  4.64158021e-02f,
  5.19079976e-02f,  1.51103720e-01f,  1.08078830e-01f,  3.89633588e-02f,  1.17527202e-01f,  1.37702703e-01f,  -3.11596133e-02f,  1.62860975e-01f,
  -7.33538419e-02f,  5.89621328e-02f,  -6.42036945e-02f,  9.07848328e-02f,  9.38194524e-03f,  1.76892519e-01f,  -4.57421131e-03f,  5.08763827e-02f,
  -2.27145534e-02f,  3.48838754e-02f,  5.30167622e-03f,  8.36023986e-02f,  8.19144696e-02f,  1.11047409e-01f,  6.18486404e-02f,  1.38332412e-01f,
  1.99049227e-02f,  4.85218652e-02f,  7.04770461e-02f,  -2.88993288e-02f,  1.38088405e-01f,  9.10282210e-02f,  -3.84221561e-02f,  -1.06469527e-01f,
  4.16335240e-02f,  -7.47384354e-02f,  6.41204566e-02f,  8.97276681e-04f,  -7.33962879e-02f,  4.84017516e-03f,  1.14789009e-01f,  8.98921117e-02f,
  5.45472000e-03f,  1.18906595e-01f,  2.03950834e-02f,  -6.33449480e-02f,  -6.93842908e-03f,  -9.25734416e-02f,  1.25053963e-02f,  1.15615927e-01f,
  -6.54417723e-02f,  -3.25683840e-02f,  -6.16685227e-02f,  -6.38376400e-02f,  -2.87979767e-02f,  -5.34624495e-02f,  -5.71571663e-02f,  -1.08691268e-01f,
  6.72670174e-03f,  5.25503457e-02f,  -7.06130490e-02f,  9.76059735e-02f,  -1.15489274e-01f,  3.09259305e-03f,  1.31002575e-01f,  -5.12252450e-02f,
  1.03180341e-01f,  1.81901157e-02f,  -8.44397396e-02f,  -8.30706879e-02f,  1.43887967e-01f,  1.27607435e-01f,  1.36440217e-01f,  1.39666572e-01f,
  1.03109747e-01f,  -1.46572143e-01f,  1.77798159e-02f,  5.66943698e-02f,  1.19196162e-01f,  1.05560124e-01f,  -3.17867845e-04f,  -4.19342332e-02f,
  -9.76321250e-02f,  1.35276347e-01f,  -8.14580694e-02f,  8.13783109e-02f,  -1.16084196e-01f,  -6.35988787e-02f,  -3.25533338e-02f,  1.35932176e-04f,
  1.08194657e-01f,  7.83367455e-02f,  -8.42125271e-04f,  1.02905273e-01f,  8.36354792e-02f,  4.97584306e-02f,  -5.02538458e-02f,  -9.75125208e-02f,
  -1.51719060e-02f,  -1.06908895e-01f,  1.12457070e-02f,  -1.00327082e-01f,  -1.01894207e-01f,  3.13917398e-02f,  -7.55193585e-04f,  4.49747592e-02f,
  4.99765910e-02f,  3.08113061e-02f,  6.15205914e-02f,  -7.95988739e-02f,  1.34164900e-01f,  6.48586228e-02f,  1.22128678e-02f,  7.79236034e-02f,
  1.31707728e-01f,  6.63876310e-02f,  -3.37971039e-02f,  -2.09665932e-02f,  -9.67652202e-02f,  -5.34575572e-03f,  1.24941925e-02f,  5.19246459e-02f,
  -9.86132026e-02f,  5.07274419e-02f,  1.12767041e-01f,  4.86156680e-02f,  -1.03054896e-01f,  1.01106919e-01f,  -9.20677558e-02f,  9.00829434e-02f,
  2.97887027e-02f,  1.06592357e-01f,  1.10266298e-01f,  1.60643384e-02f,  -5.57963476e-02f,  -6.89540654e-02f,  -2.38326099e-02f,  -8.58425274e-02f,
  5.67672439e-02f,  1.88424978e-02f,  1.73415206e-02f,  -1.44613562e-02f,  4.28155437e-02f,  5.81840985e-02f,  -9.80192050e-03f,  1.05302535e-01f,
  -2.79703233e-02f,  3.62136960e-02f,  -7.80991167e-02f,  6.06975192e-03f,  -1.01324111e-01f,  -2.39200499e-02f,  -1.09715953e-01f,  6.71839043e-02f,
  5.24994396e-02f,  1.42345622e-01f,  8.50484520e-02f,  -9.35662091e-02f,  2.19487343e-02f,  4.64977659e-02f,  7.72269368e-02f,  4.55931947e-02f,
  5.48703820e-02f,  -5.12410477e-02f,  -2.13217568e-02f,  -2.81209089e-02f,  1.18498467e-01f,  3.46186236e-02f,  1.51828825e-01f,  -8.22054967e-03f,
  -1.17332656e-02f,  -7.49471486e-02f,  -1.14614882e-01f,  1.22842267e-01f,  5.11198267e-02f,  3.86624932e-02f,  -1.51131853e-01f,  4.01759855e-02f,
  -6.58048391e-02f,  7.40147606e-02f,  1.84420263e-03f,  4.43912521e-02f,  3.93569581e-02f,  2.09226888e-02f,  -1.07024640e-01f,  1.32309735e-01f,
  -4.36482988e-02f,  1.06471948e-01f,  -1.14249892e-03f,  -1.63214970e-02f,  7.26965116e-03f,  4.82507274e-02f,  -1.49587005e-01f,  -1.24837467e-02f,
  -3.09611633e-02f,  -1.15858033e-01f,  2.25343201e-02f,  -9.76645947e-02f,  7.74641484e-02f,  8.45754594e-02f,  7.66513229e-04f,  -3.54201123e-02f,
  1.17029361e-01f,  -1.93115193e-02f,  -2.48503946e-02f,  5.86936204e-03f,  1.21746033e-01f,  1.79729350e-02f,  -2.99475119e-02f,  4.10031416e-02f,
  7.43462890e-03f,  -2.02754214e-02f,  -1.15251154e-01f,  4.70155925e-02f,  1.17519289e-01f,  6.00713342e-02f,  -2.60836969e-04f,  2.26962958e-02f,
  5.66205867e-02f,  1.28230035e-01f,  -2.72390712e-02f,  5.10608144e-02f,  -1.08072981e-02f,  2.49015465e-02f,  7.54281953e-02f,  4.17266749e-02f,
  6.32714778e-02f,  -3.02722072e-03f,  6.89699426e-02f,  -7.44211599e-02f,  9.40755233e-02f,  1.63050726e-01f,  9.20857564e-02f,  6.45166412e-02f,
  1.97823942e-02f,  9.03723314e-02f,  7.20239850e-03f,  2.43570637e-02f,  5.91395714e-04f,  -5.93328327e-02f,  2.98623443e-02f,  -2.62627136e-02f,
  1.20371105e-02f,  8.29130709e-02f,  5.53708337e-02f,  5.26509099e-02f,  -6.63214251e-02f,  -7.04514831e-02f,  1.38289526e-01f,  -1.35625586e-01f,
  6.12823572e-03f,  1.30260671e-02f,  -1.81402285e-02f,  7.61127546e-02f,  1.37105018e-01f,  -1.39675319e-01f,  9.39467624e-02f,  1.91922821e-02f,
  1.32554725e-01f,  -6.11049235e-02f,  1.97935496e-02f,  6.99124485e-02f,  1.77354701e-02f,  -6.01756610e-02f,  1.13630891e-01f,  1.31476238e-01f,
  -1.09575704e-01f,  -2.10702466e-03f,  -3.69586865e-03f,  -3.92259583e-02f,  -5.50842769e-02f,  -1.37727195e-03f,  -6.83222385e-03f,  5.74693754e-02f,
  -1.03189856e-01f,  -7.91748688e-02f,  1.41270667e-01f,  8.55175257e-02f,  -2.14463491e-02f,  1.17350474e-01f,  1.99904274e-02f,  -2.55127996e-03f,
  1.22238912e-01f,  -9.00320802e-03f,  7.65427873e-02f,  -1.34111226e-01f,  1.08677715e-01f,  1.35224283e-01f,  6.56788945e-02f,  8.49609524e-02f,
  -6.97790906e-02f,  2.45214496e-02f,  -8.75499006e-03f,  -8.92981961e-02f,  4.62371409e-02f,  3.62966694e-02f,  -5.11222258e-02f,  9.80663300e-03f,
  -9.69016552e-02f,  6.39455905e-03f,  -4.79776636e-02f,  -7.85508379e-02f,  -1.86518021e-02f,  -1.83117334e-02f,  -1.59483217e-02f,  1.46351516e-01f,
  4.35996465e-02f,  9.75139365e-02f,  -8.08488503e-02f,  2.91085074e-04f,  5.29399924e-02f,  -4.46739309e-02f,  8.38433504e-02f,  1.76656898e-02f,
  -1.82731953e-02f,  1.71775208e-03f,  6.39045984e-02f,  9.32771564e-02f,  1.36182025e-01f,  6.53754249e-02f,  -1.28325550e-02f,  -5.98710664e-02f,
  7.62008727e-02f,  1.54520512e-01f,  2.06391755e-02f,  1.08013548e-01f,  2.35085227e-02f,  1.06873862e-01f,  1.38777137e-01f,  1.57117352e-01f,
  -6.38685822e-02f,  -9.76910293e-02f,  6.82584867e-02f,  -2.10494474e-02f,  -1.51347555e-02f,  -5.45083471e-02f,  -1.01910830e-01f,  1.11078247e-01f,
  3.91477011e-02f,  1.27313226e-01f,  1.25525549e-01f,  -6.00253455e-02f,  -2.46940311e-02f,  5.43574989e-02f,  4.94167069e-03f,  -4.33529960e-03f,
  9.07892883e-02f,  6.74156994e-02f,  1.11518465e-01f,  -9.60578844e-02f,  -1.07844155e-02f,  3.14553897e-03f,  5.14062494e-02f,  -3.60036418e-02f,
  -4.81870351e-03f,  6.50814548e-02f,  1.07479123e-02f,  4.01134789e-02f,  -5.28288521e-02f,  -8.84575397e-02f,  3.36358845e-02f,  1.16385803e-01f,
  -8.41680914e-02f,  1.35052070e-01f,  1.51069816e-02f,  -5.20613119e-02f,  -6.62624314e-02f,  1.10270776e-01f,  3.33140157e-02f,  7.04630241e-02f,
  2.64321286e-02f,  -7.82583803e-02f,  9.95672345e-02f,  1.16613761e-01f,  1.02534465e-01f,  -2.74650864e-02f,  3.96330506e-02f,  -1.07729070e-01f,
  -9.23393667e-02f,  8.63607675e-02f,  3.58894765e-02f,  6.90959021e-02f,  -3.27557698e-02f,  -5.19163311e-02f,  -6.01443127e-02f,  1.36477083e-01f,
  7.47151673e-02f,  8.21940005e-02f,  4.07545865e-02f,  -8.46988559e-02f,  1.20393448e-01f,  1.46895364e-01f,  6.68499060e-03f,  8.92934725e-02f,
  -8.05277005e-02f,  1.19700888e-02f,  -1.12003788e-01f,  1.01761758e-01f,  4.11929376e-02f,  3.47931944e-02f,  -8.24292004e-02f,  7.83455744e-02f,
  1.59647577e-02f,  -6.11416735e-02f,  -3.28702293e-02f,  1.26073018e-01f,  -4.44999337e-02f,  1.37660205e-01f,  -1.04756348e-01f,  1.22695565e-01f,
  -9.53686051e-03f,  1.54281795e-01f,  6.67942464e-02f,  6.42417669e-02f,  -3.72223035e-02f,  -1.20730311e-01f,  -7.91634470e-02f,  -8.13142508e-02f,
  -5.74267767e-02f,  1.10268993e-02f,  6.34773672e-02f,  -6.45311102e-02f,  -5.83432242e-02f,  6.79938868e-02f,  1.55354086e-02f,  8.06484744e-03f,
  4.43462767e-02f,  1.19995199e-01f,  1.35964468e-01f,  2.98385192e-02f,  1.12040028e-01f,  -8.69950950e-02f,  1.04709812e-01f,  4.33640816e-04f,
  -2.32289154e-02f,  -1.09055616e-01f,  -8.62074345e-02f,  8.27509016e-02f,  -2.32550930e-02f,  -4.15841825e-02f,  1.03321180e-01f,  1.32296467e-02f,
  8.11339729e-03f,  5.23453690e-02f,  2.92614494e-02f,  9.26535949e-02f,  7.91268572e-02f,  7.23600537e-02f,  -1.63598880e-02f,  7.43964612e-02f,
  5.81145613e-03f,  5.89253269e-02f,  -3.09185367e-02f,  -3.94081436e-02f,  -9.93465483e-02f,  -3.06650009e-02f,  -2.73893289e-02f,  8.05449635e-02f,
  -4.24996503e-02f,  1.05912730e-01f,  -9.18265805e-02f,  -2.28515957e-02f,  -7.15008005e-02f,  -8.79854783e-02f,  -6.95699751e-02f,  -1.06183067e-01f,
  7.93470070e-03f,  -9.72401425e-02f,  1.14885598e-01f,  5.45914844e-02f,  3.61143388e-02f,  -2.81221494e-02f,  3.67756304e-03f,  -6.89529777e-02f,
  -8.74478836e-03f,  7.95251727e-02f,  1.16884500e-01f,  2.16896255e-02f,  1.52847888e-02f,  1.16941974e-01f,  -8.92620254e-03f,  -3.98816019e-02f,
  -1.01263896e-01f,  3.87268662e-02f,  1.09576337e-01f,  -2.12586522e-02f,  2.29691733e-02f,  -4.10621203e-02f,  -7.45457187e-02f,  -8.52592587e-02f,
  1.10114232e-01f,  1.12918727e-01f,  7.70062655e-02f,  1.17068119e-01f,  1.22455403e-01f,  1.05950601e-01f,  1.04504354e-01f,  -4.72082235e-02f,
  -7.69286230e-02f,  -4.08739373e-02f,  -4.18154858e-02f,  2.75235008e-02f,  7.75166005e-02f,  -1.01727970e-01f,  -2.12677438e-02f,  -4.39907387e-02f,
  1.10177577e-01f,  -4.34006564e-02f,  1.26511797e-01f,  1.54339755e-02f,  -5.24648465e-02f,  8.21688920e-02f,  -5.41800968e-02f,  1.30212858e-01f,
  7.59064220e-04f,  1.09013766e-01f,  2.46165320e-02f,  -1.08700432e-01f,  -5.92128821e-02f,  7.52925500e-02f,  1.23428721e-02f,  1.08254282e-02f,
  -8.26217234e-03f,  3.13762873e-02f,  1.01406258e-02f,  -2.71478631e-02f,  -4.36609611e-02f,  1.34466335e-01f,  -6.07339712e-03f,  8.52915719e-02f,
  -2.60928553e-02f,  -7.28398785e-02f,  -8.22671354e-02f,  -8.01509470e-02f,  -1.28207326e-01f,  1.47384435e-01f,  6.83044940e-02f,  3.07922065e-02f,
  1.25875026e-01f,  -8.52339342e-02f,  1.26146704e-01f,  -2.20244359e-02f,  9.98853296e-02f,  1.95119549e-02f,  -2.11715251e-02f,  3.29851396e-02f,
  -1.94686595e-02f,  -2.77829766e-02f,  -1.73033476e-02f,  3.05489898e-02f,  -3.67605351e-02f,  2.99945287e-02f,  -1.11440957e-01f,  4.47157677e-03f,
  -2.51477007e-02f,  2.13353001e-02f,  -6.13083616e-02f,  4.49715788e-03f,  1.30749140e-02f,  -7.19472989e-02f,  1.42059311e-01f,  1.62399244e-02f,
  1.01688832e-01f,  9.54788625e-02f,  1.09836571e-01f,  1.09722763e-01f,  5.72483018e-02f,  -8.44812319e-02f,  -6.14455789e-02f,  9.81515720e-02f,
  -1.04719959e-01f,  1.11333333e-01f,  -9.13935378e-02f,  1.55989490e-02f,  2.18483880e-02f,  7.39418492e-02f,  2.44008861e-02f,  -2.21326575e-02f,
  -7.13796243e-02f,  1.30045936e-01f,  1.28910542e-01f,  -1.09618977e-01f,  1.10172816e-01f,  -2.65017692e-02f,  1.08693011e-01f,  5.73663525e-02f,
  1.53774163e-02f,  1.82551555e-02f,  -9.63487476e-02f,  1.44054756e-01f,  8.96976143e-02f,  5.37652075e-02f,  -1.39143812e-02f,  -3.15488391e-02f,
  6.62769601e-02f,  -3.40808854e-02f,  -4.91188988e-02f,  5.02383634e-02f,  7.87119940e-02f,  1.15843095e-01f,  -1.04029037e-01f,  -7.18296170e-02f,
  -6.17780536e-03f,  1.02094291e-02f,  4.94554229e-02f,  -3.86064197e-03f,  1.00131102e-01f,  7.80466124e-02f,  -4.60337326e-02f,  -9.24958363e-02f,
  -6.63798302e-02f,  -9.39170569e-02f,  -2.66593248e-02f,  3.34463380e-02f,  3.26803960e-02f,  8.48303956e-04f,  -2.99557354e-02f,  9.08445120e-02f,
  2.23967861e-02f,  -5.99768944e-02f,  -3.07012312e-02f,  -1.00894921e-01f,  1.56638175e-02f,  -4.76735607e-02f,  -3.29446010e-02f,  -7.85627812e-02f,
  -5.08729927e-02f,  1.84678298e-04f,  -7.47739002e-02f,  9.57148746e-02f,  -3.53071913e-02f,  -4.65301946e-02f,  4.60800203e-03f,  -6.89081028e-02f,
  -1.11808106e-01f,  8.85154027e-03f,  -9.11581218e-02f,  7.64276311e-02f,  -6.99032098e-02f,  -9.68050212e-02f,  -4.86021265e-02f,  -2.95697842e-02f,
  -1.90815087e-02f,  -5.49041778e-02f,  -7.23084584e-02f,  5.68219554e-03f,  -6.10433035e-02f,  5.48714213e-02f,  1.99625324e-02f,  -1.91630758e-02f,
  -1.50588751e-02f,  -9.78861004e-02f,  -5.87996747e-03f,  -5.68434671e-02f,  1.79829239e-03f,  -8.50094035e-02f,  7.92119280e-02f,  2.92335153e-02f,
  1.14145584e-01f,  1.21484034e-01f,  1.97944953e-03f,  1.04250453e-01f,  -1.11946754e-01f,  1.23983338e-01f,  -2.25354861e-02f,  1.23685993e-01f,
  1.31425440e-01f,  3.75087149e-02f,  -1.62298512e-02f,  2.82611586e-02f,  -1.74532142e-02f,  -7.39427507e-02f,  -4.82482128e-02f,  1.44000323e-02f,
  1.35174587e-01f,  3.49354297e-02f,  -3.42109823e-03f,  -7.16934875e-02f,  1.24936394e-01f,  9.66423303e-02f,  6.05807230e-02f,  7.07294643e-02f,
  -6.87307790e-02f,  3.59588396e-03f,  -8.20179284e-02f,  1.23235937e-02f,  -3.32020037e-02f,  2.30891109e-02f,  -1.03324629e-01f,  2.69312412e-02f,
  -1.45742118e-01f,  5.89310303e-02f,  1.32549912e-01f,  -2.65961848e-02f,  2.76798438e-02f,  -4.91297394e-02f,  3.15433927e-02f,  -6.83101714e-02f,
  3.21021117e-02f,  1.60476133e-01f,  -4.29662243e-02f,  -2.53923163e-02f,  -3.94171402e-02f,  1.65051725e-02f,  4.97567840e-02f,  -3.34289856e-02f,
  -3.94582152e-02f,  5.34465462e-02f,  -9.28440019e-02f,  7.09691495e-02f,  1.10310048e-01f,  -1.24697849e-01f,  -1.70875732e-02f,  2.14023739e-02f,
  1.10292234e-01f,  -9.66129377e-02f,  -7.79902786e-02f,  1.21967113e-02f,  6.85063284e-03f,  9.18120220e-02f,  1.20258287e-01f,  2.85622682e-02f,
  6.82169795e-02f,  4.40592989e-02f,  3.31034474e-02f,  2.51734909e-02f,  4.02248949e-02f,  2.40155030e-02f,  -4.33390625e-02f,  9.00553614e-02f,
  6.97853267e-02f,  -7.88166597e-02f,  4.53342795e-02f,  5.02845310e-02f,  -6.14835694e-02f,  -5.70007116e-02f,  -6.53086975e-02f,  -8.13245624e-02f,
  9.26617160e-02f,  5.77170029e-02f,  -8.16167053e-03f,  -1.99716240e-02f,  5.27102575e-02f,  1.33845106e-01f,  9.19758528e-02f,  -5.66545688e-02f,
  1.53678078e-02f,  -1.39062434e-01f,  -8.71860310e-02f,  -6.50142133e-02f,  -8.15022271e-03f,  3.61596197e-02f,  9.76693258e-02f,  -4.30096351e-02f,
  -2.73257587e-03f,  -2.91055329e-02f,  -9.44015756e-02f,  5.76049611e-02f,  1.18242383e-01f,  -1.01518616e-01f,  -3.26558538e-02f,  1.91680938e-02f,
  1.31445423e-01f,  -2.78935116e-02f,  1.58229023e-01f,  -1.06373265e-01f,  1.52854770e-01f,  4.44676317e-02f,  -1.29396006e-01f,  -8.51906613e-02f,
  3.67046483e-02f,  8.61922428e-02f,  1.11483604e-01f,  -5.74836368e-03f,  1.53710265e-02f,  -5.43170832e-02f,  1.25587255e-01f,  4.40795496e-02f,
  9.31425244e-02f,  -1.37625188e-01f,  1.01977363e-01f,  1.34812713e-01f,  9.90439355e-02f,  -3.48894447e-02f,  1.62271000e-02f,  3.56459431e-02f,
  -9.48060751e-02f,  4.54699956e-02f,  5.83193786e-02f,  1.62350819e-01f,  -8.62026066e-02f,  -9.27172676e-02f,  -1.89977307e-02f,  -5.23721054e-02f,
  -5.39986342e-02f,  9.91716161e-02f,  9.91893038e-02f,  -1.27074718e-01f,  5.53961694e-02f,  1.44396365e-01f,  7.97225311e-02f,  8.65563452e-02f,
  -6.99459240e-02f,  7.76794031e-02f,  8.37742612e-02f,  4.08973719e-05f,  1.64051540e-02f,  2.62947921e-02f,  -5.94432577e-02f,  -1.19786197e-02f,
  -7.21635371e-02f,  8.00954700e-02f,  4.24359366e-02f,  1.05671836e-02f,  1.16759628e-01f,  4.94060628e-02f,  5.49096428e-02f,  1.06808029e-01f,
  1.50604709e-03f,  5.55652827e-02f,  1.18667312e-01f,  5.32740355e-02f,  -1.15727767e-01f,  6.99680522e-02f,  4.03665900e-02f,  9.37992409e-02f,
  1.42183095e-01f,  1.19829759e-01f,  -6.16646186e-03f,  -1.85394729e-03f,  7.05558807e-02f,  2.84283403e-02f,  -2.99405120e-02f,  -5.86526692e-02f,
  5.36756404e-02f,  -3.37775387e-02f,  -5.97400516e-02f,  -9.49689746e-02f,  1.01360574e-01f,  1.60364702e-01f,  8.86591524e-02f,  -2.71232962e-03f,
  1.49290770e-01f,  2.21146420e-02f,  -4.96048182e-02f,  8.84357095e-02f,  -5.60616888e-02f,  9.28919166e-02f,  -4.03785855e-02f,  1.69462815e-01f,
  -6.75560609e-02f,  1.07925601e-01f,  8.48368481e-02f,  -1.11691423e-01f,  -4.32200953e-02f,  1.33879736e-01f,  3.49206552e-02f,  -7.88989961e-02f,
  6.25517890e-02f,  -3.55379954e-02f,  -6.59971461e-02f,  5.39723188e-02f,  1.06711037e-01f,  1.05988480e-01f,  -8.83621648e-02f,  -1.50704794e-02f,
  -2.92867776e-02f,  2.89389286e-02f,  5.37596606e-02f,  -3.49060856e-02f,  -9.93463174e-02f,  4.73221280e-02f,  5.12565393e-03f,  -1.88052729e-02f,
  4.51736115e-02f,  4.92502823e-02f,  3.96479666e-02f,  9.39462800e-04f,  -6.52167574e-03f,  1.03387587e-01f,  -2.53416062e-03f,  3.28082964e-02f,
  9.27422270e-02f,  -4.96978387e-02f,  -9.53081027e-02f,  1.19758449e-01f,  5.49650565e-02f,  5.27212061e-02f,  -3.49403895e-03f,  -3.95009294e-02f,
  1.11300036e-01f,  -8.19703043e-02f,  1.17459618e-01f,  -8.00745115e-02f,  -5.01886755e-02f,  1.17291436e-01f,  1.04119182e-01f,  2.31777932e-02f,
  3.27300932e-03f,  8.59989300e-02f,  4.36607376e-02f,  7.55475387e-02f,  -9.68164876e-02f,  -7.13838339e-02f,  4.47992235e-02f,  -6.05035536e-02f,
  -2.18722527e-03f,  9.13088769e-03f,  9.18618068e-02f,  7.25214928e-02f,  -2.20125169e-02f,  1.03485510e-01f,  -6.73495159e-02f,  -8.99507552e-02f,
  -1.23521090e-01f,  4.53439690e-02f,  1.28031328e-01f,  1.06015339e-01f,  -8.50542039e-02f,  1.15486763e-01f,  3.78337242e-02f,  -2.78111398e-02f,
  1.12035960e-01f,  -3.10337711e-02f,  -6.91924542e-02f,  -7.14743584e-02f,  1.43594027e-01f,  -7.92091563e-02f,  8.78742058e-03f,  -1.16391286e-01f,
  -7.28088915e-02f,  6.16788343e-02f,  1.00668088e-01f,  3.82721482e-04f,  -1.97107010e-02f,  1.28159998e-02f,  -8.50917846e-02f,  -6.07580394e-02f,
  1.53273912e-02f,  -3.03552896e-02f,  1.29802004e-01f,  -1.06172934e-01f,  -1.03570491e-01f,  -9.10921320e-02f,  7.60754198e-02f,  5.06790914e-02f,
  -8.92070401e-03f,  -7.94931687e-03f,  3.56570035e-02f,  -6.60215691e-02f,  -7.60370046e-02f,  5.04641943e-02f,  3.15074734e-02f,  -2.95455288e-02f,
  -1.09667368e-01f,  -3.87239531e-02f,  -4.22671717e-03f,  5.34846596e-02f,  -5.90365343e-02f,  1.92099418e-02f,  5.44799343e-02f,  6.46620914e-02f,
  1.06432401e-01f,  -9.60799083e-02f,  5.73316477e-02f,  6.71385229e-02f,  -9.52467993e-02f,  3.31442468e-02f,  7.28033483e-02f,  1.15118898e-01f,
  -1.15046956e-01f,  -9.79597121e-02f,  -5.54771200e-02f,  -2.22249739e-02f,  1.02095120e-02f,  6.92049190e-02f,  9.09320861e-02f,  7.67819956e-02f,
  7.98888505e-02f,  6.47979230e-02f,  -4.64863703e-02f,  -1.53947398e-02f,  7.62140453e-02f,  -1.12882055e-01f,  2.91567463e-02f,  -5.03519438e-02f,
  -4.13058177e-02f,  -9.83064435e-03f,  1.22246541e-01f,  6.79482669e-02f,  1.21549316e-01f,  -2.99902260e-02f,  9.06966031e-02f,  -4.85111475e-02f,
  6.71151727e-02f,  1.82478521e-02f,  -4.31938805e-02f,  -1.14155434e-01f,  -2.32262108e-02f,  -3.28503326e-02f,  -8.41273293e-02f,  8.67217034e-02f,
  -9.44285020e-02f,  -7.90364891e-02f,  6.65551275e-02f,  2.78440882e-02f,  1.19382538e-01f,  1.62792969e-02f,  1.02316570e-02f,  7.58350566e-02f,
  -3.13286856e-02f,  -4.00790758e-03f,  -3.63764055e-02f,  7.53990710e-02f,  -4.86307703e-02f,  -5.77933975e-02f,  -6.78512976e-02f,  1.94951147e-02f,
  4.61664423e-02f,  4.92956713e-02f,  -1.03888109e-01f,  1.03770107e-01f,  6.15526512e-02f,  -5.74056134e-02f,  2.38839146e-02f,  8.99264216e-02f,
  -5.74096479e-02f,  1.11526370e-01f,  -5.46800084e-02f,  -1.19853672e-02f,  9.76897255e-02f,  2.63744593e-02f,  1.14886843e-01f,  -6.94543794e-02f,
  -8.18289164e-03f,  -1.25574276e-01f,  -7.11046681e-02f,  -3.93294208e-02f,  7.30713904e-02f,  1.42799526e-01f,  -9.95206460e-03f,  1.05349198e-01f,
  -1.40058773e-03f,  -2.51654852e-02f,  2.00397354e-02f,  -2.06347625e-03f,  -9.50167030e-02f,  7.91670233e-02f,  -1.17384121e-01f,  1.10635951e-01f,
  -7.85975680e-02f,  6.99975714e-02f,  -6.17896169e-02f,  -2.55196188e-02f,  7.62859033e-03f,  1.05572514e-01f,  -1.33774430e-01f,  -1.67071186e-02f,
  1.22785434e-01f,  3.66142578e-02f,  -6.48288950e-02f,  -4.24525607e-03f,  8.91100541e-02f,  2.31018234e-02f,  3.73158194e-02f,  7.70065635e-02f,
  1.12316012e-01f,  8.34351704e-02f,  1.12107776e-01f,  2.17864420e-02f,  -6.25370070e-02f,  -1.16952278e-01f,  -1.20009128e-02f,  -7.68760070e-02f,
  8.72375816e-02f,  2.03197822e-02f,  -7.29724243e-02f,  -3.22730057e-02f,  6.53103441e-02f,  9.93506704e-03f,  -4.76188492e-04f,  1.76544692e-02f,
  -9.06359628e-02f,  1.08780190e-01f,  -7.84189850e-02f,  2.67579257e-02f,  -6.06200285e-02f,  2.43113898e-02f,  5.01166992e-02f,  6.89375773e-02f,
  -4.65782965e-03f,  9.97395441e-02f,  6.55209646e-02f,  6.49126917e-02f,  1.22410901e-01f,  7.93265775e-02f,  6.52437434e-02f,  1.45442663e-02f,
  -8.46384987e-02f,  -6.75713420e-02f,  -8.45471025e-02f,  1.25171736e-01f,  -3.89689840e-02f,  1.10455088e-01f,  -1.06155880e-01f,  -5.33746295e-02f,
  1.42048942e-02f,  7.39148557e-02f,  7.23613007e-03f,  -2.97872685e-02f,  -4.44850847e-02f,  -5.59465811e-02f,  1.59641989e-02f,  1.29021764e-01f,
  1.29981384e-01f,  1.22335494e-01f,  -6.16288111e-02f,  6.04232922e-02f,  4.53762785e-02f,  1.70306843e-02f,  4.28851098e-02f,  -1.53319817e-02f,
  -3.17864232e-02f,  1.13206387e-01f,  -6.46020398e-02f,  -1.08044058e-01f,  8.88962150e-02f,  9.81560573e-02f,  4.11923118e-02f,  5.23761734e-02f,
  4.33281288e-02f,  -8.10097829e-02f,  4.33501266e-02f,  -9.00099128e-02f,  -1.73369527e-03f,  1.17087029e-01f,  3.21459323e-02f,  -1.46036027e-02f,
  -8.55153650e-02f,  -6.39616251e-02f,  8.17007422e-02f,  8.04917514e-02f,  7.37965778e-02f,  -8.90203658e-03f,  -1.32981595e-02f,  -9.95227471e-02f,
  -3.18452790e-02f,  -3.74924429e-02f,  1.16142601e-01f,  4.23157290e-02f,  1.16264075e-01f,  1.39644695e-02f,  8.69096592e-02f,  7.30448514e-02f,
  -4.09569964e-02f,  1.08675018e-01f,  3.68679240e-02f,  9.29288119e-02f,  7.16213807e-02f,  -4.15567076e-04f,  -2.91112834e-03f,  1.40849173e-01f,
  6.31307214e-02f,  -9.17452499e-02f,  5.03026247e-02f,  1.23108208e-01f,  1.15202311e-02f,  -8.94051977e-03f,  -5.57189584e-02f,  1.57250110e-02f,
  1.13329254e-01f,  5.61983660e-02f,  1.24559872e-01f,  7.65194818e-02f,  -1.24865949e-01f,  4.73202392e-03f,  -2.45915540e-02f,  -3.88459377e-02f,
  5.01088426e-02f,  6.85584778e-03f,  1.02464743e-01f,  4.88548428e-02f,  9.42523628e-02f,  1.59460250e-02f,  -8.70270953e-02f,  8.66353959e-02f,
  1.43019306e-02f,  5.95054664e-02f,  -1.86502114e-02f,  1.11444697e-01f,  1.28277659e-01f,  -5.12600727e-02f,  8.86527523e-02f,  -3.84257250e-02f,
  1.11714803e-01f,  -9.33660269e-02f,  -4.01564129e-02f,  6.07542694e-02f,  1.00577623e-01f,  1.55117325e-02f,  8.26275870e-02f,  9.81165692e-02f,
  -1.31138012e-01f,  1.08515814e-01f,  -4.68208268e-02f,  -4.78660315e-02f,  7.19904006e-02f,  1.99125502e-02f,  4.86108474e-02f,  3.10597457e-02f,
  -3.92835438e-02f,  9.53330845e-02f,  2.25258488e-02f,  7.69794509e-02f,  1.36076808e-01f,  -4.14311420e-03f,  -1.31998777e-01f,  -2.09676176e-02f,
  -1.00817353e-01f,  -3.86575311e-02f,  -4.47931513e-02f,  -9.32957605e-02f,  -1.89434327e-02f,  -5.04038446e-02f,  1.11683998e-02f,  -6.38282225e-02f,
  8.34390149e-02f,  -1.46200228e-02f,  3.09846662e-02f,  -1.13136522e-01f,  2.30204351e-02f,  -1.02729715e-01f,  1.24736667e-01f,  9.94771719e-02f,
  3.17449793e-02f,  -1.21867828e-01f,  1.04966797e-01f,  2.65077385e-03f,  2.71198954e-02f,  1.35434978e-03f,  1.17853619e-01f,  -1.98115427e-02f,
  7.24280551e-02f,  -3.71040180e-02f,  4.08039708e-03f,  1.12470426e-02f,  -9.32922736e-02f,  4.14844751e-02f,  -7.39393458e-02f,  -8.52250904e-02f,
  7.55572990e-02f,  5.39542958e-02f,  2.21956279e-02f,  -8.36904794e-02f,  -2.80357245e-03f,  1.86582878e-02f,  -5.58385141e-02f,  -4.64217849e-02f,
  -6.83051646e-02f,  4.83907200e-02f,  -4.17170189e-02f,  1.01584777e-01f,  1.61862150e-01f,  6.75793216e-02f,  -9.57781598e-02f,  8.22634846e-02f,
  -1.35009378e-01f,  8.85343924e-03f,  -9.87691879e-02f,  7.84992725e-02f,  -4.30535376e-02f,  -7.06516998e-03f,  -1.10533498e-01f,  1.28560096e-01f,
  1.29580796e-01f,  4.71504778e-02f,  6.46142140e-02f,  -1.20373979e-01f,  -5.08390442e-02f,  -9.38987546e-03f,  -6.77552819e-02f,  -1.85891435e-01f,
  -7.16710091e-02f,  -6.22875541e-02f,  -1.41280843e-02f,  -1.66100245e-02f,  8.99703335e-03f,  -6.56825956e-04f,  -3.70321274e-02f,  9.28817689e-02f,
  -8.22738633e-02f,  -1.25337690e-01f,  -6.41913787e-02f,  6.91147745e-02f,  -8.21349844e-02f,  3.02393232e-02f,  -8.30360278e-02f,  1.48504868e-01f,
  5.28138839e-02f,  1.12548359e-01f,  -3.20786331e-03f,  1.61275178e-01f,  4.81797233e-02f,  3.24907713e-02f,  -6.45478740e-02f,  -6.27486110e-02f,
  -2.54801381e-02f,  1.07953250e-01f,  9.11678672e-02f,  -7.36515000e-02f,  -6.68501481e-02f,  -1.19962096e-02f,  4.41868380e-02f,  1.51698023e-01f,
  1.27643570e-01f,  1.43279523e-01f,  -6.06580451e-02f,  1.49191141e-01f,  1.18046954e-01f,  1.39077440e-01f,  3.93394120e-02f,  8.27756226e-02f,
  3.04312725e-02f,  7.53412470e-02f,  6.97686523e-02f,  -5.53884394e-02f,  -2.94929985e-02f,  1.50197521e-01f,  -2.90746558e-02f,  9.19174030e-02f,
  -3.37652713e-02f,  -5.70532680e-02f,  -5.15775569e-02f,  -5.60521297e-02f,  -3.80912758e-02f,  5.19388914e-02f,  -7.73212165e-02f,  1.93956625e-02f,
  4.57101129e-02f,  2.03475729e-02f,  -5.13214022e-02f,  -4.73095290e-02f,  2.65401918e-02f,  -4.24892758e-04f,  -3.65606043e-03f,  2.93265842e-02f,
  -5.51909842e-02f,  3.27862334e-03f,  1.00031197e-01f,  -7.75678903e-02f,  1.30759373e-01f,  2.28606295e-02f,  -2.48862281e-02f,  3.10993362e-02f,
  -5.73689677e-02f,  -4.09804694e-02f,  2.64665168e-02f,  1.98171407e-01f,  -2.39142068e-02f,  4.76213694e-02f,  -1.37430340e-01f,  9.04156715e-02f,
  -1.54324710e-01f,  4.92355824e-02f,  4.49265689e-02f,  3.10783703e-02f,  7.81600997e-02f,  6.24446496e-02f,  -4.16696630e-02f,  1.93843786e-02f,
  8.56876001e-02f,  1.25055313e-01f,  2.98623685e-02f,  -6.05626404e-02f,  -2.84772944e-02f,  -8.33955705e-02f,  1.45522095e-02f,  -3.72409858e-02f,
  1.10357665e-01f,  -5.22928983e-02f,  -7.18507543e-02f,  1.33452117e-02f,  -2.84106508e-02f,  -5.36724590e-02f,  -4.65584099e-02f,  5.19219153e-02f,
  -9.44122821e-02f,  3.46112289e-02f,  1.11527674e-01f,  -3.77277434e-02f,  -6.43011853e-02f,  -5.40507250e-02f,  7.06724003e-02f,  1.02265783e-01f,
  1.22905674e-03f,  -5.88436946e-02f,  8.85698479e-03f,  -7.17745582e-03f,  1.31466955e-01f,  7.13030919e-02f,  1.14635848e-01f,  -5.62642515e-02f,
  -3.89906131e-02f,  -8.62112716e-02f,  -7.42552429e-02f,  7.38092214e-02f,  -1.98630393e-02f,  9.18116719e-02f,  -8.80501568e-02f,  1.20237201e-01f,
  8.49841535e-02f,  5.13886660e-02f,  -6.75677955e-02f,  1.10247368e-02f,  -3.35991057e-03f,  -4.25203145e-02f,  -1.66078713e-02f,  1.82441752e-02f,
  2.90395301e-02f,  -1.24141842e-01f,  5.80365881e-02f,  1.27506614e-01f,  -6.31586313e-02f,  -8.50689411e-02f,  -9.85696092e-02f,  -2.16863491e-02f,
  -1.42801246e-02f,  -5.99102378e-02f,  -8.53117481e-02f,  1.02473237e-01f,  -7.13904649e-02f,  9.43438858e-02f,  2.59292889e-02f,  8.93146917e-03f,
  1.32380575e-01f,  9.59113538e-02f,  4.91752252e-02f,  1.10271551e-01f,  -4.45349813e-02f,  -8.16010386e-02f,  -5.42655513e-02f,  -1.52356237e-01f,
  -9.28946882e-02f,  1.01461791e-01f,  -1.10607296e-01f,  8.04364681e-02f,  -1.13768123e-01f,  -8.34108666e-02f,  -8.25534984e-02f,  -8.09142441e-02f,
  9.18803364e-03f,  8.90471861e-02f,  4.44418564e-02f,  2.93199252e-02f,  1.85682606e-02f,  -1.73208192e-02f,  5.57432361e-02f,  -6.27634972e-02f,
  -5.06013595e-02f,  -1.16114438e-01f,  9.33420211e-02f,  -5.95635623e-02f,  -2.95119286e-02f,  8.93013328e-02f,  -9.12150145e-02f,  1.03749521e-01f,
  5.22004440e-02f,  3.54476646e-02f,  1.24963529e-01f,  1.09442938e-02f,  -7.66073242e-02f,  6.82037473e-02f,  4.51982543e-02f,  1.23224027e-01f,
  1.06431507e-01f,  -7.77576342e-02f,  4.95125912e-02f,  6.22173883e-02f,  3.05924453e-02f,  -7.80551955e-02f,  1.31471092e-02f,  1.13344587e-01f,
  -1.13737077e-01f,  9.08234864e-02f,  2.56347861e-02f,  5.30045480e-02f,  3.98663953e-02f,  8.68042484e-02f,  -6.71948045e-02f,  4.62102890e-02f,
  -2.01745285e-03f,  -9.95090455e-02f,  -2.69540101e-02f,  -8.52429122e-02f,  3.04934848e-03f,  -6.62794411e-02f,  2.09904313e-02f,  2.69368272e-02f,
  9.33832973e-02f,  5.95157668e-02f,  1.12541124e-01f,  -8.30708221e-02f,  -4.01162878e-02f,  -1.82671733e-02f,  6.35161549e-02f,  -7.76349753e-02f,
  8.47054049e-02f,  1.02518484e-01f,  -5.39996698e-02f,  -6.58140182e-02f,  -6.24617450e-02f,  -1.23008326e-01f,  -7.88408816e-02f,  -7.48482123e-02f,
  -5.79768606e-02f,  -1.10841617e-02f,  6.13375865e-02f,  6.44196942e-02f,  -4.94612083e-02f,  -1.05531000e-01f,  5.59748858e-02f,  -7.14855269e-02f,
  -7.85833821e-02f,  -1.37705356e-02f,  -7.59873365e-04f,  1.07438721e-01f,  -6.78115413e-02f,  -1.73231494e-02f,  3.83979268e-02f,  -3.97509225e-02f,
  7.33216628e-02f,  -4.91133099e-03f,  2.47288253e-02f,  4.66805175e-02f,  -7.50199109e-02f,  -1.04935564e-01f,  -1.02901392e-01f,  3.05811912e-02f,
  4.01372127e-02f,  1.09908558e-01f,  -7.75616169e-02f,  -4.77844961e-02f,  9.39574242e-02f,  2.38083247e-02f,  -6.11451045e-02f,  -7.72422627e-02f,
  8.06900859e-02f,  -4.62406240e-02f,  1.18581198e-01f,  -6.67147934e-02f,  8.42355043e-02f,  1.19637504e-01f,  -9.32389125e-02f,  -7.45895430e-02f,
  2.05931254e-02f,  -7.76710734e-02f,  -2.86658183e-02f,  7.36364052e-02f,  -2.57198717e-02f,  1.38009116e-01f,  -6.15818761e-02f,  1.24601647e-01f,
  -9.20620412e-02f,  1.30805254e-01f,  7.30082169e-02f,  1.96047835e-02f,  5.04976101e-02f,  1.15148008e-01f,  -4.51243715e-03f,  1.18957207e-01f,
  -3.97581421e-02f,  1.39299743e-02f,  -2.05400102e-02f,  -2.07448881e-02f,  8.69379491e-02f,  8.24814364e-02f,  6.72691241e-02f,  -8.21016878e-02f,
  6.92505389e-02f,  -2.90163048e-03f,  -2.49431673e-02f,  -2.62190066e-02f,  -5.70077859e-02f,  -1.69383306e-02f,  -1.08300829e-02f,  1.00617424e-01f,
  -9.17848013e-03f,  -2.84773000e-02f,  -1.08266426e-02f,  5.39773330e-03f,  8.46886858e-02f,  -2.70707849e-02f,  -5.95680885e-02f,  -6.59977868e-02f,
  5.04760072e-03f,  1.15773588e-01f,  4.45540510e-02f,  1.24072179e-01f,  -3.60133201e-02f,  1.02297463e-01f,  5.01644276e-02f,  -2.08184142e-02f,
  -2.88887438e-03f,  2.18880195e-02f,  -6.51031807e-02f,  1.14065990e-01f,  -3.34973559e-02f,  -1.73246730e-02f,  5.07307425e-02f,  3.56703997e-02f,
  -4.73498143e-02f,  -1.16350921e-02f,  -1.17757857e-01f,  -6.63063722e-03f,  9.15952548e-02f,  7.36628771e-02f,  -5.07464819e-03f,  1.07799277e-01f,
  1.04814664e-01f,  -5.62729267e-03f,  -8.03048462e-02f,  1.10769026e-01f,  5.29623870e-03f,  -2.98563614e-02f,  2.35668756e-02f,  9.50761884e-02f,
  9.08922628e-02f,  4.61346172e-02f,  6.94572181e-03f,  -1.27853200e-01f,  -1.26790139e-03f,  7.95074329e-02f,  -1.19024850e-02f,  -1.93563662e-02f,
  7.46136829e-02f,  3.33229415e-02f,  -6.61571249e-02f,  6.95906952e-02f,  2.09602006e-02f,  6.15800694e-02f,  5.50475307e-02f,  -1.74882133e-02f,
  1.34871066e-01f,  -4.45658155e-02f,  -3.56972441e-02f,  -8.92584026e-02f,  -5.63756898e-02f,  -6.99547380e-02f,  -9.52371433e-02f,  -4.97751962e-03f,
  5.24655543e-02f,  -5.83022125e-02f,  -1.89749282e-02f,  1.02185071e-01f,  -2.30664834e-02f,  9.52480063e-02f,  -3.32758576e-02f,  -7.82462507e-02f,
  1.09555237e-01f,  -5.89483231e-02f,  -2.40307972e-02f,  8.51895735e-02f,  -6.40849322e-02f,  -9.56627280e-02f,  1.16824601e-02f,  -2.14769528e-03f,
  1.27083302e-01f,  9.88083482e-02f,  -6.31612390e-02f,  -8.74993131e-02f,  8.57803375e-02f,  5.33371307e-02f,  1.44379111e-02f,  9.60672973e-04f,
  -5.36039192e-03f,  4.06869501e-02f,  -2.21769307e-02f,  2.31769271e-02f,  1.90750007e-02f,  1.01498038e-01f,  1.89320594e-02f,  7.95107335e-03f,
  9.20398906e-02f,  5.62419184e-02f,  -9.69588384e-02f,  9.39052626e-02f,  2.80947071e-02f,  5.71658798e-02f,  7.15184137e-02f,  1.20509930e-01f,
  2.17817668e-02f,  -8.72444287e-02f,  8.96715894e-02f,  -1.13713317e-01f,  -6.09042123e-02f,  8.57172385e-02f,  -4.08949479e-02f,  7.61471689e-02f,
  1.43412724e-01f,  1.23201758e-02f,  7.70425471e-03f,  1.05969995e-01f,  1.37854889e-01f,  1.65560618e-01f,  1.76661417e-01f,  1.85086921e-01f,
  9.04188752e-02f,  -1.40559658e-01f,  -5.64093143e-02f,  -5.71136586e-02f,  1.09173663e-01f,  7.77609646e-02f,  3.28463688e-02f,  -4.18386534e-02f,
  -1.70381397e-01f,  -8.58464316e-02f,  6.62067905e-02f,  6.91602305e-02f,  8.67564976e-02f,  4.64603342e-02f,  -1.09142296e-01f,  9.25185978e-02f,
  1.17985770e-01f,  -4.96596731e-02f,  6.30306676e-02f,  2.89539285e-02f,  3.90541740e-02f,  1.91253386e-02f,  9.48366057e-03f,  -7.93273896e-02f,
  8.89426321e-02f,  -9.01572630e-02f,  -1.21682495e-01f,  3.23608443e-02f,  -1.01619624e-02f,  4.13357578e-02f,  6.33203909e-02f,  -7.21666068e-02f,
  -1.38852717e-02f,  -7.05725625e-02f,  -1.00609116e-01f,  1.13079131e-01f,  4.11383472e-02f,  -1.14252605e-01f,  8.82801339e-02f,  4.21129428e-02f,
  9.95621383e-02f,  -1.29156381e-01f,  -2.84644496e-02f,  -1.05338112e-01f,  -7.65679628e-02f,  1.09030560e-01f,  4.91293631e-02f,  9.17794108e-02f,
  -5.08480035e-02f,  -1.43784676e-02f,  -4.11608927e-02f,  1.20960891e-01f,  -6.61698729e-02f,  9.87623036e-02f,  1.17001921e-01f,  6.66460618e-02f,
  -8.22684262e-03f,  -9.59383845e-02f,  1.14500083e-01f,  -1.11943893e-01f,  4.32035774e-02f,  3.15728448e-02f,  -4.64118347e-02f,  -1.75554417e-02f,
  7.76551664e-02f,  1.08534001e-01f,  8.03128332e-02f,  1.33531809e-01f,  1.67557932e-02f,  -1.22368760e-01f,  1.10689543e-01f,  -7.10844919e-02f,
  2.85939556e-02f,  -7.40463892e-03f,  5.63014336e-02f,  -5.79201989e-02f,  7.42171779e-02f,  8.22042003e-02f,  9.48484689e-02f,  4.00370136e-02f,
  9.38938037e-02f,  2.01809034e-03f,  5.32178096e-02f,  -4.74966839e-02f,  1.36405468e-01f,  -1.02638721e-01f,  -6.12652227e-02f,  -1.28853992e-01f,
  4.06021848e-02f,  3.88298631e-02f,  -5.53383529e-02f,  -1.12778902e-01f,  4.73650731e-02f,  9.82681960e-02f,  7.39548206e-02f,  -1.15394434e-02f,
  3.99277173e-02f,  -1.93204973e-02f,  6.78455178e-03f,  -6.86308220e-02f,  -9.01025534e-02f,  -6.81214593e-03f,  5.92832603e-02f,  1.34998187e-01f,
  3.14853676e-02f,  5.13465656e-03f,  -3.67836468e-02f,  1.07993513e-01f,  3.41967940e-02f,  5.38897747e-03f,  6.79949224e-02f,  -5.38124964e-02f,
  1.36572212e-01f,  -1.04986705e-01f,  8.45699757e-02f,  8.57870355e-02f,  -5.22552524e-03f,  -4.84288894e-02f,  -5.82265630e-02f,  -7.66005591e-02f,
  -6.46026134e-02f,  1.08790472e-01f,  1.31236508e-01f,  -9.77707505e-02f,  1.13387115e-01f,  5.94616681e-02f,  -1.57094058e-02f,  1.25159428e-01f,
  3.10380738e-02f,  -8.98935273e-02f,  -1.09799087e-01f,  -6.71450868e-02f,  1.49059996e-01f,  4.29475568e-02f,  -8.55772272e-02f,  -2.85411291e-02f,
  9.24753547e-02f,  1.04277775e-01f,  2.79727019e-03f,  1.08625315e-01f,  -7.14215590e-03f,  7.16919079e-03f,  -4.04156595e-02f,  8.57729912e-02f,
  1.26227558e-01f,  -7.24303648e-02f,  8.49462450e-02f,  -4.89106439e-02f,  -5.95350489e-02f,  -4.97221649e-02f,  -4.52229939e-02f,  1.94305778e-02f,
  1.03363402e-01f,  8.89475867e-02f,  5.36422059e-02f,  4.93324772e-02f,  -1.94287375e-02f,  -3.91633250e-02f,  1.69448271e-01f,  -5.27629405e-02f,
  6.77368790e-02f,  9.52291936e-02f,  -3.35508697e-02f,  -5.07797487e-03f,  -5.44308238e-02f,  8.64813551e-02f,  7.31550506e-04f,  1.74337402e-02f,
  4.82080989e-02f,  9.74747017e-02f,  8.23577642e-02f,  -2.10389327e-02f,  -1.34953465e-02f,  -4.58481088e-02f,  -1.35465667e-01f,  -3.14272754e-02f,
  -3.44452746e-02f,  4.56209444e-02f,  2.13700440e-02f,  3.22282799e-02f,  -2.46444326e-02f,  -1.40894786e-01f,  -5.22895232e-02f,  -1.41688794e-01f,
  -5.74427061e-02f,  -1.00288175e-01f,  2.55236588e-02f,  6.18153848e-02f,  -5.24293929e-02f,  6.16385825e-02f,  -1.70969609e-02f,  -4.05871756e-02f,
  4.34067938e-03f,  -2.33995859e-02f,  -7.63087869e-02f,  -4.10670526e-02f,  2.86249574e-02f,  -3.67323868e-02f,  8.07493478e-02f,  -1.05720408e-01f,
  1.78749394e-03f,  8.27872101e-03f,  2.82886438e-03f,  3.49731892e-02f,  5.83579615e-02f,  3.70370485e-02f,  -7.52198249e-02f,  1.04729377e-01f,
  6.24241717e-02f,  -5.20200431e-02f,  -7.79154673e-02f,  4.40287739e-02f,  -1.25511363e-01f,  5.51552437e-02f,  7.22541586e-02f,  -2.55426578e-02f,
  -1.00675605e-01f,  2.09150538e-02f,  8.06517899e-02f,  -4.14526165e-02f,  3.91847603e-02f,  1.03426464e-01f,  1.36324525e-01f,  1.36534333e-01f,
  6.20541982e-02f,  2.26935185e-02f,  -1.06737636e-01f,  1.36027947e-01f,  1.52766407e-01f,  4.79845330e-03f,  -7.16685653e-02f,  1.00489095e-01f,
  -3.20071727e-02f,  -3.15721147e-02f,  1.37536302e-01f,  -3.45453992e-02f,  5.16555719e-02f,  -7.23150298e-02f,  -1.43836752e-01f,  -7.76944757e-02f,
  3.29742990e-02f,  -2.76027038e-03f,  3.43522355e-02f,  6.01103753e-02f,  1.15319453e-01f,  7.29270130e-02f,  -3.83226736e-03f,  3.42843868e-02f,
  9.19483975e-02f,  -9.94159430e-02f,  -2.68877596e-02f,  7.62336850e-02f,  2.24037580e-02f,  -6.10061735e-02f,  -7.74595216e-02f,  4.98479046e-02f,
  -4.99944016e-02f,  -3.59701365e-02f,  2.36079656e-02f,  -2.57823616e-02f,  1.50784375e-02f,  1.37396017e-02f,  7.22570419e-02f,  1.18855154e-02f,
  -6.70842156e-02f,  1.04928032e-01f,  -1.13790506e-03f,  2.17120573e-02f,  -4.02601883e-02f,  -5.20253964e-02f,  2.19211690e-02f,  -1.02701023e-01f,
  4.10918742e-02f,  -4.18399423e-02f,  3.34103405e-02f,  -8.76299590e-02f,  -1.98927354e-02f,  -7.18997419e-02f,  -8.40106457e-02f,  6.15940951e-02f,
  -8.18157271e-02f,  5.96355610e-02f,  -3.79895531e-02f,  -4.64150086e-02f,  -1.07653826e-01f,  8.01605210e-02f,  -4.02625576e-02f,  -7.85599183e-03f,
  -2.02784687e-02f,  -9.71969068e-02f,  3.93008254e-03f,  1.18812002e-01f,  1.43840715e-01f,  -1.14952818e-01f,  -5.32803824e-03f,  2.31118258e-02f,
  -7.45778754e-02f,  1.14522107e-01f,  4.42073047e-02f,  5.04439138e-02f,  2.26390194e-02f,  1.01679660e-01f,  4.38451804e-02f,  -8.27733800e-02f,
  6.71692789e-02f,  -4.86369655e-02f,  -5.30351773e-02f,  7.69879594e-02f,  1.15572311e-01f,  -5.16845956e-02f,  -4.96063977e-02f,  4.10629734e-02f,
  8.56167972e-02f,  -1.00656666e-01f,  -8.49729925e-02f,  -2.60041989e-02f,  3.98965143e-02f,  8.09845328e-03f,  -6.05353191e-02f,  1.26725748e-01f,
  -3.20499949e-02f,  1.22613497e-01f,  3.97349298e-02f,  6.26621097e-02f,  -2.74476539e-02f,  -4.71974798e-02f,  -3.39476243e-02f,  1.10469155e-01f,
  4.41548862e-02f,  4.04812917e-02f,  -4.39421199e-02f,  -1.01991802e-01f,  1.15129709e-01f,  -3.71061228e-02f,  -5.71900010e-02f,  -5.07148392e-02f,
  8.13896861e-03f,  -5.68685904e-02f,  -7.54271820e-02f,  1.04808033e-01f,  -3.98116000e-02f,  -1.03779912e-01f,  5.61243668e-02f,  3.23179364e-02f,
  1.27924263e-01f,  -3.88670787e-02f,  1.38668567e-01f,  -7.75585249e-02f,  -1.91118643e-02f,  -6.39030859e-02f,  9.46098566e-02f,  8.64735097e-02f,
  -1.31455645e-01f,  2.17080563e-02f,  -1.32290617e-01f,  -7.50914216e-02f,  -1.35494238e-02f,  3.80714401e-03f,  -9.56372842e-02f,  -5.96594363e-02f,
  -2.60447934e-02f,  1.08583130e-01f,  1.39985248e-01f,  5.79641620e-03f,  5.77722117e-02f,  -4.03941460e-02f,  9.16025456e-05f,  -7.98540339e-02f,
  1.30552396e-01f,  1.15926147e-01f,  -5.50175924e-03f,  1.84833203e-02f,  7.23060593e-02f,  1.91916544e-02f,  -1.21830761e-01f,  -4.78585586e-02f,
  -2.57850531e-02f,  4.49890941e-02f,  4.32790592e-02f,  -7.95940310e-02f,  2.50066649e-02f,  -8.77715349e-02f,  -1.00388594e-01f,  -7.84595385e-02f,
  3.21042500e-02f,  -4.53260578e-02f,  -3.17230038e-02f,  -1.02202587e-01f,  -2.01611016e-02f,  7.47692287e-02f,  -3.01760249e-02f,  3.74205485e-02f,
  -8.74039531e-02f,  -7.11273625e-02f,  -1.05654344e-01f,  1.04576118e-01f,  -5.53896911e-02f,  -4.24208678e-03f,  3.44215818e-02f,  -5.97897656e-02f,
  1.46971121e-02f,  -6.64404407e-02f,  -1.17667161e-01f,  -7.93420449e-02f,  -8.24575946e-02f,  -1.01468131e-01f,  6.12930655e-02f,  2.91926619e-02f,
  1.12253435e-01f,  6.39297739e-02f,  -5.54683954e-02f,  9.53783020e-02f,  7.19306171e-02f,  3.03457165e-03f,  1.22640416e-01f,  -3.87291573e-02f,
  7.02769682e-02f,  -2.78885812e-02f,  5.92028759e-02f,  -1.60439964e-02f,  7.99231790e-03f,  -3.92411975e-03f,  -4.47231829e-02f,  1.13201097e-01f,
  8.55853185e-02f,  4.68501374e-02f,  7.95345306e-02f,  9.79297385e-02f,  -1.24713637e-01f,  6.36293143e-02f,  8.75396747e-03f,  1.27774298e-01f,
  -5.67842871e-02f,  1.00525089e-01f,  3.21524739e-02f,  5.16916029e-02f,  -3.34356464e-02f,  -5.79516143e-02f,  1.84985362e-02f,  2.50887312e-02f,
  -1.08320557e-01f,  4.73299697e-02f,  3.99429090e-02f,  -1.12670816e-01f,  6.43478706e-02f,  -3.83021049e-02f,  -2.09677219e-03f,  5.27983345e-03f,
  -2.24216701e-03f,  1.87060274e-02f,  9.82105080e-03f,  -4.65051122e-02f,  9.48109552e-02f,  -1.08127303e-01f,  -3.67556661e-02f,  7.54901767e-02f,
  -2.69738883e-02f,  -1.92924011e-02f,  -9.94016528e-02f,  8.47061053e-02f,  3.20950300e-02f,  -3.60412821e-02f,  -3.83758284e-02f,  5.69691248e-02f,
  -9.62166339e-02f,  6.34232089e-02f,  -6.17603911e-03f,  1.07068934e-01f,  8.32507759e-02f,  -7.04764500e-02f,  -1.69951543e-02f,  1.56158833e-02f,
  -6.88782632e-02f,  5.82771525e-02f,  6.05406426e-02f,  9.14206132e-02f,  -5.43587729e-02f,  -2.39344090e-02f,  -9.03246552e-02f,  6.69824257e-02f,
  -9.67362300e-02f,  -7.50250444e-02f,  7.97022134e-02f,  -1.07311279e-01f,  6.22965395e-02f,  2.28750538e-02f,  -1.07568525e-01f,  1.07284740e-01f,
  4.55871262e-02f,  -4.21120040e-02f,  1.37172848e-01f,  -5.08240573e-02f,  -3.63482237e-02f,  -8.39464217e-02f,  -6.46039173e-02f,  1.28243864e-01f,
  -6.95648091e-03f,  9.02199931e-03f,  -8.49540532e-02f,  8.70198682e-02f,  4.26682600e-05f,  2.15688292e-02f,  3.71524580e-02f,  -7.75136799e-03f,
  -2.89894920e-02f,  -5.89112677e-02f,  1.75316572e-01f,  2.36034635e-02f,  1.00023285e-01f,  4.36867289e-02f,  1.49372980e-01f,  6.91241696e-02f,
  1.16362922e-01f,  -7.27771595e-02f,  -2.76288856e-02f,  6.95704147e-02f,  5.47176087e-03f,  7.28176162e-02f,  -1.72952712e-01f,  3.88028622e-02f,
  -3.19709517e-02f,  1.57539174e-02f,  1.61500305e-01f,  1.28338784e-01f,  -8.45181569e-02f,  -3.63668352e-02f,  -1.36561990e-01f,  -2.40816828e-02f,
  -1.32139055e-02f,  8.92311707e-03f,  7.06556290e-02f,  -5.08400761e-02f,  -4.92083095e-02f,  4.45148647e-02f,  -2.70023085e-02f,  -1.16402023e-01f,
  1.18196150e-02f,  3.30837741e-02f,  -2.82800477e-02f,  3.85516174e-02f,  -6.79210573e-02f,  5.13894670e-02f,  3.81780937e-02f,  -5.91242760e-02f,
  1.11404471e-01f,  7.90069252e-02f,  -2.75519509e-02f,  1.51924379e-02f,  5.99801801e-02f,  5.51049113e-02f,  -2.30977703e-02f,  4.95625474e-02f,
  1.28615536e-02f,  -1.16299381e-02f,  1.16919249e-01f,  1.08553797e-01f,  5.84211797e-02f,  -4.51443940e-02f,  -7.34978020e-02f,  1.12624198e-01f,
  5.49068451e-02f,  1.06473230e-01f,  -8.36704671e-02f,  9.85371470e-02f,  6.59591407e-02f,  1.12894803e-01f,  1.17613055e-01f,  4.60811667e-02f,
  -6.37723953e-02f,  -3.40000987e-02f,  1.07966952e-01f,  8.85237679e-02f,  1.00394003e-01f,  4.58439961e-02f,  6.68758377e-02f,  -5.52458540e-02f,
  -8.23123977e-02f,  4.46285605e-02f,  -5.41405119e-02f,  -7.14514852e-02f,  -1.76388733e-02f,  -7.73947164e-02f,  2.77682226e-02f,  -4.48255381e-03f,
  -7.19549954e-02f,  1.15731068e-01f,  6.89721778e-02f,  -1.27340198e-01f,  -2.09661014e-02f,  -6.62737116e-02f,  4.79141623e-02f,  -5.28860278e-02f,
  6.56913668e-02f,  6.55338988e-02f,  1.49991080e-01f,  -1.31196946e-01f,  1.36460751e-01f,  1.07532823e-02f,  -1.71826825e-01f,  -1.57088339e-01f,
  1.00938767e-01f,  -4.50737476e-02f,  -3.86034474e-02f,  1.71527378e-02f,  1.15934955e-02f,  -5.67837581e-02f,  1.32075727e-01f,  -6.42170981e-02f,
  -4.70232069e-02f,  -1.31039605e-01f,  4.26188931e-02f,  1.59783363e-02f,  -3.14062871e-02f,  4.78226040e-03f,  -1.05188480e-02f,  8.83765146e-02f,
  -7.77633861e-02f,  8.24164972e-02f,  4.85512465e-02f,  -2.59923376e-02f,  -1.19086452e-01f,  1.63659528e-02f,  8.98816809e-02f,  8.03375691e-02f,
  5.23942010e-03f,  5.67257479e-02f,  -2.11998709e-02f,  -1.21804722e-01f,  1.36315256e-01f,  2.17803083e-02f,  -1.16705321e-01f,  3.13168839e-02f,
  5.19334525e-02f,  1.09976925e-01f,  -5.99987358e-02f,  8.48061964e-03f,  3.25494036e-02f,  9.15920809e-02f,  5.00628352e-02f,  1.19773515e-01f,
  7.67541006e-02f,  -1.02266029e-01f,  -5.30104414e-02f,  5.86122572e-02f,  1.16352454e-01f,  3.32139656e-02f,  5.07861041e-02f,  1.41190037e-01f,
  1.37658352e-02f,  1.06516443e-01f,  6.71432018e-02f,  1.48658067e-01f,  -1.23979868e-02f,  1.25029199e-02f,  -7.43120015e-02f,  -9.93428845e-03f,
  4.10829447e-02f,  1.10611938e-01f,  6.26619556e-04f,  -7.66764060e-02f,  3.95043753e-04f,  8.62880871e-02f,  -3.28670219e-02f,  7.33275786e-02f,
  -4.65096161e-02f,  -3.82397161e-03f,  1.11107782e-01f,  1.29266102e-02f,  2.72960253e-02f,  4.46743965e-02f,  6.78051487e-02f,  -5.68954237e-02f,
  -9.87301674e-03f,  5.87627990e-03f,  1.13404244e-01f,  3.47563550e-02f,  -4.07198928e-02f,  -1.31098002e-01f,  -3.90806757e-02f,  1.79902883e-03f,
  -7.75520504e-02f,  -2.82660332e-02f,  1.18339166e-01f,  8.29112753e-02f,  -1.10655881e-01f,  7.54308179e-02f,  -9.88410711e-02f,  -7.52463639e-02f,
  1.35384146e-02f,  -4.63726260e-02f,  9.62082110e-03f,  -3.48418392e-02f,  1.13653727e-01f,  -1.98884998e-02f,  -3.24730761e-03f,  1.95714943e-02f,
  5.13321981e-02f,  -9.38846841e-02f,  -9.41059291e-02f,  9.62792784e-02f,  6.54406175e-02f,  2.80329678e-02f,  -2.65419725e-02f,  3.11470069e-02f,
  -1.07780084e-01f,  -9.31314193e-03f,  8.87591466e-02f,  1.14251524e-01f,  -2.02105660e-03f,  7.64355212e-02f,  7.35111954e-03f,  -6.29536435e-02f,
  1.65069960e-02f,  1.76739227e-02f,  1.18926607e-01f,  -3.68136689e-02f,  -1.04347758e-01f,  5.20684794e-02f,  1.10960141e-01f,  -7.29330927e-02f,
  3.30068283e-02f,  -3.58667001e-02f,  -1.09998673e-01f,  8.25914592e-02f,  8.98637697e-02f,  6.33470109e-03f,  4.25931327e-02f,  1.13516614e-01f,
  1.39790773e-01f,  8.88807550e-02f,  -5.69722503e-02f,  1.34112731e-01f,  1.45529136e-01f,  -7.23599419e-02f,  1.31915003e-01f,  -4.29174043e-02f,
  1.24797232e-01f,  5.20124752e-03f,  -4.16316427e-02f,  1.25360861e-01f,  4.46277857e-02f,  6.26721978e-02f,  3.69392596e-02f,  1.15631491e-01f,
  9.58449319e-02f,  1.15810066e-01f,  -1.34264445e-02f,  4.08231001e-03f,  -1.42564867e-02f,  1.87156547e-03f,  -9.61997733e-02f,  -8.57673511e-02f,
  -3.66296656e-02f,  -4.39971872e-02f,  4.61672544e-02f,  -2.11058762e-02f,  4.29390222e-02f,  5.75731657e-02f,  5.84436469e-02f,  7.55404308e-02f,
  3.38501558e-02f,  -5.19348271e-02f,  1.10248448e-02f,  -1.08842924e-01f,  3.16841081e-02f,  -1.26920221e-02f,  5.35718026e-03f,  4.17223834e-02f,
  -1.14495933e-01f,  -1.42415557e-02f,  -7.37183839e-02f,  5.54471370e-03f,  -9.14889798e-02f,  5.16579079e-04f,  5.10491654e-02f,  8.26299042e-02f,
  1.27383739e-01f,  8.00230280e-02f,  8.60245228e-02f,  1.06337704e-01f,  -1.63602028e-02f,  4.96800020e-02f,  -4.15596925e-02f,  -3.56092043e-02f,
  8.07698965e-02f,  3.97921652e-02f,  -1.07988939e-01f,  4.26799320e-02f,  -6.39418419e-03f,  -4.54327725e-02f,  3.08658481e-02f,  9.30482894e-02f,
  -3.63653637e-02f,  -2.25770064e-02f,  8.62862170e-02f,  4.15872484e-02f,  -1.14609100e-01f,  5.34259006e-02f,  -9.10046604e-03f,  -2.83882450e-02f,
  -5.95077798e-02f,  4.83859479e-02f,  -6.32130578e-02f,  -9.15837511e-02f,  1.02472506e-01f,  1.18574940e-01f,  3.43677960e-02f,  -8.05725157e-02f,
  -3.80658731e-02f,  -7.37508982e-02f,  1.24648973e-01f,  4.73421626e-02f,  -5.90607934e-02f,  1.06115550e-01f,  5.61581217e-02f,  7.01738596e-02f,
  -1.05548427e-01f,  -4.55047041e-02f,  5.71822375e-02f,  -5.04039451e-02f,  -4.34307866e-02f,  -1.14118963e-01f,  -3.50780636e-02f,  9.44354460e-02f,
  4.74790372e-02f,  -8.81189704e-02f,  4.74762619e-02f,  8.45126212e-02f,  -7.51362368e-02f,  4.92633060e-02f,  -1.09241799e-01f,  -2.79564969e-02f,
  -1.01764798e-02f,  8.95155892e-02f,  -6.46255240e-02f,  -8.81526321e-02f,  3.96297313e-02f,  3.41964550e-02f,  1.15841463e-01f,  -8.24373588e-02f,
  -6.97498582e-03f,  5.19318767e-02f,  8.79726857e-02f,  2.45568100e-02f,  7.99209476e-02f,  3.71532440e-02f,  9.68470871e-02f,  -6.67202622e-02f,
  1.19659543e-01f,  1.16286613e-01f,  1.18468024e-01f,  -5.66681474e-02f,  2.65766364e-02f,  -4.25989367e-02f,  1.22741334e-01f,  -8.34979787e-02f,
  1.45058259e-02f,  1.12279698e-01f,  1.02352910e-01f,  4.44675237e-02f,  5.68890758e-02f,  8.17820951e-02f,  2.03831717e-02f,  3.46879549e-02f,
  3.26312631e-02f,  9.80127081e-02f,  -3.35236341e-02f,  3.09226699e-02f,  4.73483875e-02f,  1.21669047e-01f,  -1.32603526e-01f,  8.85755867e-02f,
  1.06327355e-01f,  1.19910158e-01f,  5.00795469e-02f,  1.70080468e-01f,  4.22714092e-02f,  6.55125007e-02f,  -6.88096806e-02f,  -4.49351892e-02f,
  -8.65362659e-02f,  9.90055427e-02f,  -6.85613826e-02f,  1.11574814e-01f,  8.46034661e-02f,  -6.66315183e-02f,  8.35522115e-02f,  -3.25298868e-02f,
  6.43157959e-03f,  -6.48527890e-02f,  9.98528302e-02f,  1.02032401e-01f,  9.54870358e-02f,  7.56062567e-02f,  7.42717367e-03f,  -8.04371089e-02f,
  1.16244219e-01f,  3.57538974e-03f,  -7.17660338e-02f,  -8.33823904e-02f,  -1.64916161e-02f,  6.21162578e-02f,  -8.43849704e-02f,  9.24180076e-02f,
  5.06846793e-02f,  -8.88966545e-02f,  2.83030048e-02f,  1.77058652e-02f,  3.24967168e-02f,  -9.61607546e-02f,  -3.92984673e-02f,  -4.49592583e-02f,
  3.12668979e-02f,  -7.98452720e-02f,  1.05847374e-01f,  -3.04826759e-02f,  -1.25282183e-01f,  -6.66496381e-02f,  -1.05867786e-02f,  5.18115945e-02f,
  -1.10148005e-02f,  7.44816288e-02f,  9.37923491e-02f,  1.57433122e-01f,  4.68469299e-02f,  6.31813034e-02f,  -5.59817553e-02f,  -3.08455317e-03f,
  -8.52626786e-02f,  7.48452246e-02f,  9.14039090e-02f,  -8.48146230e-02f,  1.27672642e-01f,  -7.52907246e-02f,  -6.68938365e-03f,  1.33210853e-01f,
  2.32493803e-02f,  3.02182082e-02f,  -8.55680853e-02f,  -5.15328161e-02f,  7.01829642e-02f,  1.32531732e-01f,  -1.25911474e-01f,  4.06865329e-02f,
  -3.42391059e-02f,  -2.27363710e-03f,  9.72078666e-02f,  1.27966091e-01f,  7.02617317e-02f,  5.18612489e-02f,  7.15577528e-02f,  -3.14429365e-02f,
  -1.04054987e-01f,  9.45638418e-02f,  -5.94335870e-05f,  9.12527964e-02f,  -7.14065656e-02f,  6.25078231e-02f,  4.45044562e-02f,  -2.26821913e-03f,
  4.45990860e-02f,  5.57837784e-02f,  1.09467857e-01f,  9.36387107e-03f,  1.12289995e-01f,  -1.04337379e-01f,  9.83242169e-02f,  -4.99498583e-02f,
  7.75772706e-02f,  -7.44295642e-02f,  -3.66425179e-02f,  -8.65807980e-02f,  -5.05910255e-02f,  5.33290356e-02f,  6.28919667e-03f,  5.72834425e-02f,
  -3.89687121e-02f,  4.36570272e-02f,  -4.74381596e-02f,  8.03815126e-02f,  3.55328172e-02f,  6.75031245e-02f,  -2.07010340e-02f,  -9.11458433e-02f,
  7.82320797e-02f,  4.00422439e-02f,  9.87231955e-02f,  2.25245897e-02f,  2.25556456e-02f,  4.96696588e-03f,  6.73164204e-02f,  -6.95462003e-02f,
  9.39159244e-02f,  -1.71939246e-02f,  -5.48495576e-02f,  1.57429446e-02f,  1.31575748e-01f,  -6.90592751e-02f,  1.40665025e-02f,  9.26726386e-02f,
  -5.12275063e-02f,  1.28082380e-01f,  1.02079518e-01f,  -5.95929958e-02f,  -5.15444912e-02f,  2.02565603e-02f,  -7.39924982e-02f,  8.07424113e-02f,
  6.97649568e-02f,  -9.09213722e-02f,  8.06836933e-02f,  -6.09055161e-03f,  4.21290249e-02f,  -8.37963745e-02f,  -1.14789821e-01f,  4.52384017e-02f,
  1.48558438e-01f,  1.81349650e-01f,  -9.51463915e-03f,  -5.13038151e-02f,  2.58788629e-03f,  5.96346008e-03f,  -1.35060288e-02f,  4.19624262e-02f,
  1.76850054e-02f,  -3.65593284e-02f,  9.68803167e-02f,  1.13805823e-01f,  8.63411799e-02f,  9.00298804e-02f,  -1.05988281e-02f,  2.96636485e-02f,
  -2.63191052e-02f,  -5.87240979e-02f,  -5.54288365e-02f,  -6.79314733e-02f,  1.37633570e-02f,  2.53924709e-02f,  -8.45241025e-02f,  1.21174388e-01f,
  -1.74030308e-02f,  -5.29164299e-02f,  1.02498218e-01f,  -1.69667171e-03f,  1.23782381e-01f,  1.34443194e-01f,  -1.04351707e-01f,  9.74242762e-02f,
  -7.16286078e-02f,  -4.10297327e-02f,  1.14104234e-01f,  -3.95182110e-02f,  1.93281565e-02f,  -3.52095477e-02f,  -6.86644614e-02f,  2.70551573e-02f,
  -7.23806676e-03f,  -9.82977673e-02f,  1.84180737e-02f,  1.26290694e-01f,  7.32643157e-02f,  6.75020888e-02f,  1.19799189e-01f,  -3.71009409e-02f,
  2.28790082e-02f,  2.02181917e-02f,  -1.99465901e-02f,  1.46161541e-02f,  7.32684359e-02f,  -5.86541668e-02f,  -8.72955546e-02f,  8.27050880e-02f,
  2.32383385e-02f,  -7.49276131e-02f,  3.47702652e-02f,  6.73951656e-02f,  5.43319061e-02f,  -1.06579006e-01f,  -2.78691445e-02f,  1.09475777e-01f,
  -6.63513392e-02f,  -8.88492689e-02f,  -4.19018418e-02f,  -8.49268138e-02f,  1.51768867e-02f,  -7.01278299e-02f,  -4.01935726e-02f,  -9.85789075e-02f,
  3.21971290e-02f,  -3.62205729e-02f,  -1.04666390e-01f,  -4.65612188e-02f,  1.28058538e-01f,  9.14323553e-02f,  -3.55568342e-02f,  8.19599181e-02f,
  -3.55269425e-02f,  8.71350057e-03f,  -1.43104466e-02f,  -5.00607528e-02f,  9.68589634e-02f,  -1.70435905e-02f,  9.60829407e-02f,  -2.87760645e-02f,
  1.17279410e-01f,  1.11410558e-01f,  1.26021951e-01f,  -1.41433299e-01f,  5.57940379e-02f,  5.61760701e-02f,  -1.52269572e-01f,  3.49850208e-02f,
  1.05669521e-01f,  -2.60993112e-02f,  8.20721313e-02f,  1.42026827e-01f,  7.26727629e-03f,  -8.50346014e-02f,  -9.96387303e-02f,  1.03165530e-01f,
  2.32834090e-02f,  -1.85118187e-02f,  1.11211762e-02f,  -5.61062284e-02f,  -8.62283707e-02f,  6.41736714e-03f,  5.45720495e-02f,  -3.83566110e-03f,
  -7.78687969e-02f,  1.17786653e-01f,  1.75193362e-02f,  1.54884718e-03f,  -4.35355790e-02f,  6.53284565e-02f,  -1.14365511e-01f,  4.16604355e-02f,
  -6.46352097e-02f,  -1.02381349e-01f,  2.70581506e-02f,  -2.53638346e-03f,  -4.92875986e-02f,  3.05750649e-02f,  -1.07684368e-02f,  9.20506120e-02f,
  4.68350276e-02f,  1.07579783e-01f,  1.24910243e-01f,  9.44886357e-02f,  1.10373184e-01f,  6.12973049e-02f,  2.85022389e-02f,  6.86313286e-02f,
  1.09562531e-01f,  -1.40854016e-01f,  -3.39483805e-02f,  7.08194403e-03f,  8.28780606e-02f,  1.11405730e-01f,  -1.29239470e-01f,  1.27190784e-01f,
  -1.32695213e-01f,  1.60121936e-02f,  -3.43274884e-02f,  -1.87990963e-02f,  1.21472970e-01f,  1.34655461e-01f,  -1.27683086e-02f,  8.25530440e-02f,
  1.22204825e-01f,  1.73506904e-02f,  -2.71354578e-02f,  -7.83470571e-02f,  1.40862748e-01f,  2.18131172e-04f,  4.59263921e-02f,  -5.42056281e-03f,
  -2.84461677e-02f,  1.62852123e-01f,  2.09117420e-02f,  -6.49002045e-02f,  1.50152028e-01f,  -1.27103049e-02f,  1.02911495e-01f,  1.06399208e-01f,
  -1.89636648e-02f,  1.05183019e-04f,  -1.09414905e-01f,  1.01380218e-02f,  1.02834843e-01f,  -5.66237792e-02f,  -3.52371708e-02f,  -2.57293973e-02f,
  -9.81435850e-02f,  4.11768034e-02f,  9.37066898e-02f,  1.33055467e-02f,  -4.23238650e-02f,  1.29260585e-01f,  -9.65566486e-02f,  1.38452157e-01f,
  4.00491350e-04f,  2.26450386e-03f,  -5.39709330e-02f,  -9.63273197e-02f,  -3.35604809e-02f,  6.38910756e-02f,  -2.50011757e-02f,  8.20961669e-02f,
  1.05838306e-01f,  7.92153850e-02f,  -6.12402558e-02f,  -7.06099793e-02f,  -5.87972589e-02f,  -4.14289087e-02f,  3.25914137e-02f,  7.11249113e-02f,
  6.80835098e-02f,  6.95296004e-02f,  5.25987670e-02f,  4.92190244e-03f,  -1.34020485e-02f,  -5.87486960e-02f,  2.35546883e-02f,  1.05852164e-01f,
  -7.24017993e-02f,  -1.01330407e-01f,  -1.20210815e-02f,  -6.79849982e-02f,  -1.53488573e-02f,  -3.87493297e-02f,  2.81670922e-03f,  5.09153754e-02f,
  -7.81054944e-02f,  -9.48810056e-02f,  -7.91257769e-02f,  3.48595493e-02f,  -8.43549222e-02f,  1.91152152e-02f,  4.55703661e-02f,  1.01141790e-02f,
  4.11918852e-03f,  1.81875657e-02f,  1.30045056e-01f,  -5.43689169e-02f,  6.52041733e-02f,  2.80491877e-02f,  1.02433562e-01f,  2.11971309e-02f,
  2.97362804e-02f,  -7.45036826e-02f,  5.48668429e-02f,  -1.33163491e-02f,  -2.36809719e-02f,  -3.84891443e-02f,  -1.23507045e-01f,  -3.62829566e-02f,
  -5.25290295e-02f,  -2.41642036e-02f,  6.18189946e-02f,  -9.50796455e-02f,  -9.06051472e-02f,  4.77215573e-02f,  2.63119694e-02f,  1.23027354e-01f,
  1.42967194e-01f,  8.74856561e-02f,  -5.57514355e-02f,  -1.86773837e-02f,  3.13153081e-02f,  -6.80758953e-02f,  3.89794353e-03f,  -1.46564215e-01f,
  -2.99553368e-02f,  5.57844341e-02f,  -8.70403945e-02f,  1.19577803e-01f,  -6.38572946e-02f,  -1.06030852e-01f,  -6.92548528e-02f,  1.49371615e-02f,
  -1.97868384e-02f,  7.83873573e-02f,  4.20925915e-02f,  1.20335035e-01f,  -9.47014317e-02f,  -1.10343277e-01f,  6.25701323e-02f,  6.39315546e-02f,
  6.56876191e-02f,  -2.84209419e-02f,  5.02821431e-02f,  -7.22737387e-02f,  1.68358702e-02f,  3.74745280e-02f,  6.33817911e-02f,  6.94012791e-02f,
  -5.65588027e-02f,  2.09729336e-02f,  -9.64325443e-02f,  1.33993924e-01f,  6.35178760e-02f,  -8.71438459e-02f,  1.13048084e-01f,  -6.05184920e-02f,
  8.05529654e-02f,  5.07486723e-02f,  1.07767418e-01f,  4.04112488e-02f,  2.33171266e-02f,  -7.45809972e-02f,  -1.04859278e-01f,  -5.00608832e-02f,
  -7.06123859e-02f,  -1.51452580e-02f,  4.86971922e-02f,  5.55161526e-03f,  -2.53837742e-02f,  1.02198459e-01f,  1.84111707e-02f,  6.80222288e-02f,
  3.30526545e-03f,  7.19549879e-02f,  -5.75606972e-02f,  2.86335200e-02f,  -3.05282045e-02f,  9.43155140e-02f,  -4.17074114e-02f,  6.09184615e-02f,
  7.31378570e-02f,  2.94313654e-02f,  -1.07188653e-02f,  8.07126984e-02f,  7.92461187e-02f,  -2.54128147e-02f,  5.79704307e-02f,  4.38450016e-02f,
  -8.35058689e-02f,  2.13324893e-02f,  1.36467991e-02f,  2.35938337e-02f,  8.82667154e-02f,  -7.14319497e-02f,  5.50052933e-02f,  5.78642376e-02f,
  -6.10486269e-02f,  1.14305876e-01f,  7.98734929e-03f,  4.11844663e-02f,  3.05426326e-02f,  -1.16310351e-01f,  1.22972079e-01f,  2.38832198e-02f,
  3.09063531e-02f,  9.55559909e-02f,  5.78464232e-02f,  4.54239100e-02f,  1.30036175e-01f,  -1.03436083e-01f,  9.65969861e-02f,  1.00120582e-01f,
  4.35228236e-02f,  -1.02798715e-02f,  -4.59063649e-02f,  7.05007538e-02f,  -5.84753118e-02f,  6.06248379e-02f,  -3.63664776e-02f,  -1.10437550e-01f,
  1.08726367e-01f,  -3.26426290e-02f,  3.55239026e-02f,  1.16669321e-02f,  3.84576395e-02f,  -1.93312410e-02f,  6.90154284e-02f,  -9.21081454e-02f,
  2.65184846e-02f,  2.29779072e-02f,  4.86439504e-02f,  3.59021537e-02f,  -6.66666627e-02f,  1.49048436e-02f,  -2.13190131e-02f,  1.03601053e-01f,
  8.26059654e-02f,  -7.96498209e-02f,  8.61267745e-02f,  -6.18493604e-03f,  3.60426912e-03f,  7.98748210e-02f,  7.64457136e-02f,  4.38829362e-02f,
  1.39981776e-01f,  9.29989479e-03f,  6.19718172e-02f,  -6.04120046e-02f,  8.42878670e-02f,  -1.04522102e-01f,  -1.00380071e-01f,  -5.75321279e-02f,
  -2.98113674e-02f,  5.48927635e-02f,  6.27989620e-02f,  -3.94436810e-03f,  1.78180318e-02f,  -5.82867861e-02f,  1.22484751e-01f,  5.86370304e-02f,
  4.33749594e-02f,  -5.79473600e-02f,  -3.16967666e-02f,  3.82869914e-02f,  1.44558027e-02f,  7.17928186e-02f,  6.51520193e-02f,  -1.67666413e-02f,
  -3.95335630e-02f,  -3.14013176e-02f,  -1.12962775e-01f,  -2.54057162e-02f,  1.19390957e-01f,  -1.92221440e-02f,  -2.59811478e-03f,  3.64450812e-02f,
  3.48086096e-02f,  -6.12499677e-02f,  1.17873795e-01f,  1.36974648e-01f,  -8.95725116e-02f,  1.21637203e-01f,  -5.30904122e-02f,  -2.18079071e-02f,
  1.11969136e-01f,  -8.64111707e-02f,  -1.05141267e-01f,  -8.22356120e-02f,  4.43126857e-02f,  1.42670065e-01f,  1.16130769e-01f,  1.21361822e-01f,
  -8.93835649e-02f,  -3.96567881e-02f,  -1.07461691e-01f,  1.04744419e-01f,  -4.64063138e-03f,  1.03938162e-01f,  1.03389956e-02f,  1.25321463e-01f,
  -3.30879278e-02f,  -6.86859190e-02f,  -4.65285815e-02f,  -4.35439497e-02f,  8.40650573e-02f,  2.07291823e-02f,  3.21393237e-02f,  1.17756285e-01f,
  1.24656662e-01f,  -8.15250427e-02f,  6.47774339e-02f,  8.86912197e-02f,  2.72119027e-02f,  8.76192674e-02f,  5.13045974e-02f,  2.12323200e-02f,
  1.20890653e-02f,  1.75022632e-02f,  9.77255255e-02f,  -6.13509305e-03f,  4.84442934e-02f,  8.16914067e-02f,  -1.10591769e-01f,  5.66784069e-02f,
  1.29745742e-02f,  9.59014595e-02f,  1.28510684e-01f,  1.03473194e-01f,  -9.68521833e-02f,  8.43496621e-02f,  6.47214726e-02f,  -4.33225371e-03f,
  1.10002279e-01f,  -1.79285090e-02f,  4.41700742e-02f,  -4.51244749e-02f,  1.21544398e-01f,  -8.32173228e-02f,  -4.84988503e-02f,  -8.79694428e-03f,
  7.80066987e-03f,  8.83410871e-02f,  -3.07326764e-02f,  9.33258757e-02f,  4.97414581e-02f,  -3.77805270e-02f,  7.61817321e-02f,  -3.95954996e-02f,
  7.84140304e-02f,  7.52877742e-02f,  -2.35789251e-02f,  6.49719015e-02f,  1.42043546e-01f,  6.78619891e-02f,  -1.00261113e-02f,  2.07137335e-02f,
  -7.30857253e-02f,  -8.08589384e-02f,  -1.16901085e-01f,  -5.91975786e-02f,  1.14200830e-01f,  -8.72517601e-02f,  1.87859684e-02f,  -6.31204322e-02f,
  -3.78143862e-02f,  -3.23994309e-02f,  -8.07695389e-02f,  1.25693604e-01f,  -1.07118636e-02f,  7.25226896e-03f,  -4.11779573e-03f,  -1.09897427e-01f,
  1.37522459e-01f,  1.69639848e-02f,  -4.21801731e-02f,  -1.07028253e-01f,  -5.08206598e-02f,  -1.75078623e-02f,  9.04526487e-02f,  -7.36177042e-02f,
  7.64660686e-02f,  9.63302180e-02f,  -1.37588428e-02f,  8.29947814e-02f,  1.81307718e-01f,  5.79125388e-03f,  -2.47060470e-02f,  -4.73749153e-02f,
  6.08522780e-02f,  4.62590135e-04f,  -1.85902063e-02f,  1.61575466e-01f,  -9.60854590e-02f,  2.65425127e-02f,  -1.01797551e-01f,  -6.56151399e-02f,
  5.66645488e-02f,  6.40121549e-02f,  -4.22226302e-02f,  6.69504479e-02f,  -8.11805800e-02f,  1.40686363e-01f,  -4.75402027e-02f,  8.18061903e-02f,
  1.22225218e-01f,  8.54861364e-02f,  3.63910608e-02f,  -1.52918566e-02f,  6.66372804e-03f,  1.89842105e-01f,  -3.22721414e-02f,  4.60667387e-02f,
  -1.06828839e-01f,  7.48982131e-02f,  -1.09073326e-01f,  -1.09406561e-01f,  -9.52272937e-02f,  -2.51254123e-02f,  1.07234411e-01f,  -9.87318158e-02f,
  5.82800843e-02f,  -9.82828960e-02f,  -5.75922690e-02f,  -2.54494697e-02f,  1.26921058e-01f,  1.42829297e-02f,  8.53263661e-02f,  9.16840285e-02f,
  6.25175238e-02f,  5.66252582e-02f,  -2.87858061e-02f,  6.39363974e-02f,  9.05507430e-02f,  -1.23954505e-01f,  -4.64994162e-02f,  6.40643463e-02f,
  -7.74146095e-02f,  7.10021183e-02f,  -7.24841654e-02f,  4.62984592e-02f,  -1.91066973e-02f,  2.45431662e-02f,  -9.99557320e-03f,  6.30919784e-02f,
  -3.27851586e-02f,  -8.73790011e-02f,  -1.19373016e-02f,  -1.90798789e-02f,  -4.27256450e-02f,  1.78106338e-01f,  8.42070431e-02f,  -8.66577253e-02f,
  1.29633974e-02f,  -1.30824745e-03f,  3.16412672e-02f,  1.28346413e-01f,  4.62047150e-03f,  6.33159727e-02f,  -1.02150783e-01f,  2.26536356e-02f,
  -1.51125612e-02f,  6.97470903e-02f,  -8.36361572e-02f,  1.09997261e-02f,  1.13840319e-01f,  -8.16644803e-02f,  -5.33036366e-02f,  -1.26487315e-01f,
  6.41322583e-02f,  5.03085554e-02f,  1.55901033e-02f,  6.03675693e-02f,  1.77811220e-01f,  3.38649340e-02f,  1.26816239e-02f,  -7.58117363e-02f,
  4.60564382e-02f,  1.22312196e-01f,  -5.59207471e-03f,  4.80079390e-02f,  4.10984010e-02f,  -1.19796523e-03f,  6.56592250e-02f,  1.03889145e-01f,
  4.37403247e-02f,  -8.83474648e-02f,  8.92345607e-02f,  9.24082696e-02f,  -4.79996875e-02f,  -4.31509688e-02f,  9.58160590e-03f,  -1.46671729e-02f,
  8.37083012e-02f,  -3.91878523e-02f,  6.67106211e-02f,  8.45321268e-02f,  -1.22241654e-01f,  -6.09024130e-02f,  -3.82925719e-02f,  -3.42840292e-02f,
  3.60190161e-02f,  9.24706310e-02f,  2.50436291e-02f,  -1.16827652e-01f,  4.38059941e-02f,  1.17365465e-01f,  8.50166306e-02f,  8.98175165e-02f,
  -5.59177622e-02f,  9.15181637e-02f,  4.55031097e-02f,  1.57765225e-02f,  -3.31943147e-02f,  -6.66292906e-02f,  8.81816447e-02f,  4.78512645e-02f,
  -1.28569290e-01f,  6.91659376e-02f,  -8.83503482e-02f,  1.46649554e-01f,  3.53921503e-02f,  -7.26706907e-02f,  2.61692703e-03f,  -7.47112855e-02f,
  -4.85751173e-03f,  8.00899230e-03f,  -5.89297414e-02f,  8.89710113e-02f,  -4.00869064e-02f,  -5.92698008e-02f,  7.76084187e-03f,  1.02337850e-02f,
  9.04372409e-02f,  7.56406561e-02f,  5.93221113e-02f,  2.40557585e-02f,  1.32404178e-01f,  1.08605564e-01f,  8.25146064e-02f,  -7.85871670e-02f,
  -3.24448347e-02f,  -2.93676257e-02f,  -1.38493879e-02f,  -8.57537538e-02f,  1.32714994e-02f,  2.48630401e-02f,  1.70982495e-01f,  1.09779648e-02f,
  9.75382403e-02f,  -5.71022294e-02f,  -3.95862013e-02f,  9.10383090e-02f,  7.22747445e-02f,  8.80122185e-02f,  -1.46501176e-02f,  4.85435054e-02f,
  -5.57131059e-02f,  9.09760073e-02f,  -2.54752319e-02f,  1.04607604e-01f,  -4.03819606e-02f,  1.66355133e-01f,  -1.61237091e-01f,  1.46736187e-04f,
  9.38602388e-02f,  1.65972605e-01f,  8.60841423e-02f,  5.41764013e-02f,  -5.32657467e-02f,  -3.89689230e-05f,  -1.89558025e-02f,  -9.46029276e-02f,
  -1.63205341e-02f,  -7.67829940e-02f,  4.25217375e-02f,  -8.08380544e-02f,  4.79716435e-02f,  2.79889032e-02f,  7.57862926e-02f,  9.70454738e-02f,
  8.19671303e-02f,  -6.46460382e-03f,  -3.80473062e-02f,  1.25689089e-01f,  9.32311639e-03f,  -1.59581918e-02f,  2.84593552e-03f,  -1.34761110e-02f,
  -1.04931518e-01f,  4.47510034e-02f,  -9.79371965e-02f,  9.10843723e-03f,  9.38528478e-02f,  -1.09693117e-01f,  8.21787864e-02f,  -6.30573705e-02f,
  -6.17879517e-02f,  8.74929875e-02f,  5.40476926e-02f,  -6.21480728e-03f,  4.12387252e-02f,  -7.58830830e-02f,  2.83005331e-02f,  9.21419486e-02f,
  3.26016545e-02f,  1.20132910e-02f,  1.61486909e-01f,  -8.32695961e-02f,  1.37324706e-01f,  3.29314135e-02f,  5.76051921e-02f,  5.43669537e-02f,
  1.61873437e-02f,  -3.52715030e-02f,  5.84950261e-02f,  -7.26433322e-02f,  -6.08802810e-02f,  -8.47852603e-02f,  -9.13782790e-02f,  4.16780375e-02f,
  2.15840526e-02f,  -4.99681123e-02f,  5.26337475e-02f,  -6.49669021e-02f,  3.10686659e-02f,  -4.75031845e-02f,  3.08433082e-02f,  2.43301224e-02f,
  1.14403754e-01f,  6.60355315e-02f,  -5.95002016e-03f,  -1.48435578e-01f,  1.17306896e-01f,  8.92000720e-02f,  -1.18878886e-01f,  4.08798717e-02f,
  -2.74169296e-02f,  8.63051713e-02f,  7.01893121e-02f,  6.22970872e-02f,  9.79381353e-02f,  -7.44133294e-02f,  4.32469100e-02f,  -5.32286540e-02f,
  6.45273598e-03f,  -9.59804356e-02f,  -7.20387921e-02f,  -5.76452315e-02f,  -1.25718517e-02f,  2.18362547e-02f,  7.91226029e-02f,  -1.19869754e-01f,
  8.63077715e-02f,  -9.23274159e-02f,  3.44740450e-02f,  -1.15598246e-01f,  5.65502048e-02f,  9.98390317e-02f,  5.31165078e-02f,  1.42262466e-02f,
  -1.00178428e-01f,  1.31329030e-01f,  -1.01661049e-01f,  3.71638499e-02f,  9.73066762e-02f,  1.44947590e-02f,  6.43432289e-02f,  -7.42825940e-02f,
  4.14409712e-02f,  -8.15053377e-03f,  8.24851096e-02f,  -3.13553610e-03f,  1.04321558e-02f,  -5.93151525e-02f,  4.40925453e-03f,  1.24830632e-02f,
  7.57906809e-02f,  1.00276135e-01f,  -1.75670534e-02f,  -6.82568103e-02f,  -9.05827209e-02f,  9.23170298e-02f,  -8.34704414e-02f,  -2.93695014e-02f,
  2.99500041e-02f,  -9.93965045e-02f,  -4.21410203e-02f,  4.51667234e-02f,  1.34694755e-01f,  -6.62292913e-02f,  3.81338852e-03f,  1.20453611e-01f,
  1.29763484e-01f,  -3.96568775e-02f,  -3.85838076e-02f,  2.21899431e-02f,  -9.21495333e-02f,  -2.49575861e-02f,  1.14514820e-01f,  -3.14620286e-02f,
  1.63662503e-03f,  8.68712440e-02f,  -6.79577217e-02f,  -9.38431472e-02f,  1.01450145e-01f,  1.36731848e-01f,  -4.16130796e-02f,  -6.53431844e-03f,
  -6.38226792e-02f,  5.88178411e-02f,  6.42446056e-02f,  -2.47848313e-02f,  9.05842930e-02f,  1.00890920e-02f,  1.26659572e-01f,  -7.87718669e-02f,
  9.88940448e-02f,  -8.53722692e-02f,  -9.74237826e-03f,  5.10820150e-02f,  9.49788541e-02f,  -5.53773530e-02f,  9.97683927e-02f,  -4.39635590e-02f,
  -2.33818777e-02f,  -1.88099165e-02f,  7.01011941e-02f,  6.29005805e-02f,  -8.15358311e-02f,  7.63521492e-02f,  4.95582558e-02f,  -4.89250720e-02f,
  1.46162286e-02f,  -6.79931566e-02f,  1.21938184e-01f,  -1.16997376e-01f,  -9.15128142e-02f,  1.11155018e-01f,  9.73597616e-02f,  -2.35250201e-02f,
  7.32143503e-03f,  1.66520812e-02f,  3.29534821e-02f,  -5.04020527e-02f,  -2.08891332e-02f,  9.17314216e-02f,  -8.20002928e-02f,  1.37388885e-01f,
  1.18956417e-02f,  1.09169886e-01f,  -1.10895209e-01f,  -5.43194488e-02f,  -1.35925815e-01f,  6.64635822e-02f,  5.64553887e-02f,  1.00862421e-01f,
  8.46557040e-03f,  4.30059023e-02f,  1.75656546e-02f,  8.89535174e-02f,  9.23957601e-02f,  -1.37766832e-02f,  7.62760937e-02f,  -4.28444445e-02f,
};

const float CONV2D_1_BIASES[32] = {
  1.08215325e-02f,  1.75949018e-02f,  1.55216157e-02f,  8.34004674e-03f,  1.70645528e-02f,  9.94775817e-03f,  1.44683244e-02f,  1.10221878e-02f,
  -9.03404970e-03f,  -1.22884922e-02f,  -1.04334773e-02f,  1.47326123e-02f,  2.63540260e-02f,  2.08819099e-02f,  -1.43644325e-02f,  7.34491320e-03f,
  -1.00247962e-02f,  1.87245738e-02f,  1.26846423e-02f,  8.68765265e-03f,  -8.53225030e-03f,  6.72383513e-03f,  -1.44120902e-02f,  1.28539531e-02f,
  1.56683568e-02f,  2.06746068e-02f,  1.79229416e-02f,  -3.51203722e-04f,  4.20431904e-02f,  -1.27515215e-02f,  -1.70023330e-02f,  -6.78428402e-03f,
};

