#pragma once

// Layer    : conv2d
// W shape  : (3, 3, 1, 16)
// B shape  : (16,)
// NOTE: Conv2D weight layout = (KH, KW, CIN, COUT)
//       Dense weight layout  = (IN_DIM, OUT_DIM)

#define CONV2D_KERNEL_H 3
#define CONV2D_KERNEL_W 3
#define CONV2D_IN_CH    1
#define CONV2D_OUT_CH   16

const float CONV2D_WEIGHTS[144] = {
  8.49563722e-03f,  2.81383377e-02f,  1.24405079e-01f,  2.77472977e-02f,  5.69724068e-02f,  -3.73915536e-03f,  -3.07163391e-02f,  1.61936939e-01f,
  -8.68320167e-02f,  -5.80544919e-02f,  1.38457060e-01f,  -1.73717186e-01f,  7.24980459e-02f,  -1.27549022e-01f,  -1.62918717e-01f,  6.06449842e-02f,
  -9.88808721e-02f,  1.16794601e-01f,  -1.69425055e-01f,  -1.63080782e-01f,  -1.71029139e-02f,  -6.46489859e-02f,  -5.47953136e-02f,  3.51941884e-02f,
  -1.56413600e-01f,  9.38424002e-03f,  2.06297889e-01f,  -5.80838136e-02f,  1.47059947e-01f,  1.05144769e-01f,  -2.05910224e-02f,  1.51443809e-01f,
  2.06385732e-01f,  1.69007224e-03f,  7.67126679e-02f,  2.02062845e-01f,  -1.22205243e-01f,  3.74287143e-02f,  -1.19505659e-01f,  -4.59920382e-03f,
  1.83229297e-01f,  3.73796336e-02f,  1.12270609e-01f,  5.45215085e-02f,  1.68189015e-02f,  -2.60530319e-02f,  2.85021588e-02f,  5.45467362e-02f,
  -1.36146426e-01f,  -1.49533659e-01f,  8.11371058e-02f,  -1.29161114e-02f,  -8.11652169e-02f,  1.26375407e-01f,  2.51581110e-02f,  4.41713072e-02f,
  -2.43679024e-02f,  -8.45028386e-02f,  5.01816301e-03f,  1.26232550e-01f,  -3.62707265e-02f,  1.27797276e-01f,  1.47734851e-01f,  -9.82199609e-02f,
  1.77396923e-01f,  4.71035726e-02f,  1.38740927e-01f,  6.75920174e-02f,  -7.12625384e-02f,  -3.27806622e-02f,  -9.74082500e-02f,  1.90864831e-01f,
  -1.32802814e-01f,  -1.31154060e-01f,  1.55366018e-01f,  9.15915612e-03f,  9.64721367e-02f,  8.39246884e-02f,  2.81661060e-02f,  1.84571460e-01f,
  1.96346626e-01f,  -1.24440029e-01f,  -1.13542683e-01f,  -2.22956166e-02f,  2.05209628e-01f,  2.54707448e-02f,  -8.55052024e-02f,  -1.44858375e-01f,
  2.19511390e-02f,  2.08155766e-01f,  1.84934124e-01f,  -1.10417165e-01f,  -6.05560057e-02f,  -1.00116298e-01f,  -1.70151275e-02f,  -1.20939828e-01f,
  -9.17202756e-02f,  -2.02167947e-02f,  1.38422608e-01f,  -1.15083933e-01f,  -9.20473337e-02f,  1.43776417e-01f,  1.37024358e-01f,  -1.79282069e-01f,
  1.12722665e-01f,  7.37843290e-02f,  -1.27201751e-02f,  -1.79444879e-01f,  1.18225932e-01f,  2.56996416e-02f,  1.26601636e-01f,  -5.47147393e-02f,
  1.11886285e-01f,  1.16461009e-01f,  -1.20153334e-02f,  1.30259588e-01f,  1.48664176e-01f,  1.89535454e-01f,  -7.09518045e-02f,  5.56579009e-02f,
  7.78986514e-02f,  3.23030986e-02f,  8.44571069e-02f,  9.45972949e-02f,  1.52823180e-01f,  -5.49701266e-02f,  2.35126480e-01f,  -8.72525796e-02f,
  2.36983970e-01f,  -6.12363033e-02f,  1.08832471e-01f,  -1.21180013e-01f,  -7.49982968e-02f,  -1.35198340e-01f,  -1.18370540e-01f,  -1.91406742e-01f,
  -3.52903679e-02f,  -1.22189477e-01f,  1.23008467e-01f,  1.95610926e-01f,  1.82245985e-01f,  1.06564000e-01f,  2.02244937e-01f,  -1.26203641e-01f,
};

const float CONV2D_BIASES[16] = {
  -1.28898611e-02f,  2.32567880e-02f,  1.52062264e-03f,  1.69825386e-02f,  2.34744940e-02f,  -1.69831403e-02f,  7.34017417e-02f,  1.77481864e-02f,
  1.87204368e-02f,  3.82692292e-02f,  -1.67010613e-02f,  1.91246495e-02f,  -1.95058286e-02f,  9.53215454e-03f,  -1.24529302e-02f,  2.33274531e-02f,
};

