#pragma once

// Layer    : dense
// W shape  : (1024, 64)
// B shape  : (64,)
// NOTE: Conv2D weight layout = (KH, KW, CIN, COUT)
//       Dense weight layout  = (IN_DIM, OUT_DIM)

#define DENSE_IN_DIM  1024
#define DENSE_OUT_DIM 64

const float DENSE_WEIGHTS[65536] = {
  6.37295991e-02f,  -2.40889024e-02f,  -3.84243913e-02f,  5.77703863e-03f,  -3.52362804e-02f,  -3.66541781e-02f,  1.86195336e-02f,  -6.19662441e-02f,
  4.38315347e-02f,  -2.03489326e-02f,  -5.63411936e-02f,  4.80821803e-02f,  7.19022304e-02f,  -4.83893007e-02f,  1.64333824e-02f,  3.18276836e-03f,
  2.02014726e-02f,  7.12189972e-02f,  6.05232567e-02f,  4.40605879e-02f,  -2.11643819e-02f,  -5.47629818e-02f,  -4.05579358e-02f,  4.27171104e-02f,
  1.44403838e-02f,  -1.78586747e-02f,  -2.78027169e-02f,  2.17670742e-02f,  -3.27516757e-02f,  1.37741177e-03f,  -1.19025754e-02f,  -7.17415009e-03f,
  -5.42254671e-02f,  5.24504930e-02f,  5.39859682e-02f,  -1.16908858e-02f,  -4.56241108e-02f,  2.80358642e-03f,  -2.09710654e-02f,  1.94347352e-02f,
  -6.29282817e-02f,  -2.62891501e-02f,  -4.06581573e-02f,  7.77560920e-02f,  -2.62628905e-02f,  -2.58650444e-02f,  4.37362306e-02f,  -2.07146853e-02f,
  -7.31183514e-02f,  -4.24305499e-02f,  1.51395993e-02f,  -5.05959764e-02f,  8.64695460e-02f,  2.13807523e-02f,  3.32769528e-02f,  2.09996775e-02f,
  2.29391009e-02f,  -1.76027194e-02f,  -6.36335760e-02f,  -3.69963385e-02f,  4.13224697e-02f,  6.83712140e-02f,  4.56966907e-02f,  -3.30636650e-02f,
  -3.55790230e-03f,  8.37695897e-02f,  2.81835645e-02f,  -2.18673609e-02f,  -1.11923171e-02f,  -7.91957416e-03f,  7.50615969e-02f,  1.94116868e-02f,
  -1.86601263e-02f,  -3.90333943e-02f,  5.87440617e-02f,  1.66898984e-02f,  1.54879214e-02f,  -6.28696382e-02f,  3.91739458e-02f,  5.28761670e-02f,
  -2.03117449e-03f,  -1.60051677e-02f,  3.99190411e-02f,  -1.24858841e-02f,  -5.46706561e-03f,  1.41510125e-02f,  8.80595073e-02f,  6.21770807e-02f,
  -3.40975672e-02f,  1.29650468e-02f,  4.34842259e-02f,  -4.22556810e-02f,  -1.17550977e-02f,  -2.49351398e-03f,  1.90669242e-02f,  -8.66546936e-04f,
  -3.83917615e-02f,  -7.67715275e-02f,  -3.35988589e-02f,  9.50402953e-03f,  2.70236414e-02f,  -3.28413285e-02f,  -8.01469013e-02f,  -2.11434700e-02f,
  4.51672226e-02f,  -1.61638372e-02f,  -2.79541314e-02f,  3.43743674e-02f,  -7.66031817e-02f,  -4.16957997e-02f,  4.18700874e-02f,  -4.46001664e-02f,
  -4.41788286e-02f,  5.78856803e-02f,  2.32270220e-03f,  5.26251271e-02f,  2.91036163e-02f,  2.49214303e-02f,  2.50845682e-02f,  5.58739007e-02f,
  5.06233983e-02f,  5.85145168e-02f,  7.72240162e-02f,  -6.67548506e-03f,  -1.85531133e-03f,  -5.23503609e-02f,  4.38547134e-02f,  -5.47732897e-02f,
  -5.69276847e-02f,  -1.29150506e-02f,  1.53565723e-02f,  -3.50704789e-02f,  -2.35484224e-02f,  -1.68749988e-02f,  1.99791752e-02f,  7.34543875e-02f,
  -3.93293165e-02f,  -6.42843172e-02f,  2.61078253e-02f,  6.48661479e-02f,  7.46055171e-02f,  2.52089985e-02f,  1.96533222e-02f,  -9.38179903e-03f,
  -3.25607359e-02f,  2.19708346e-02f,  -2.55161501e-03f,  1.54494746e-02f,  -4.85220738e-02f,  3.76105756e-02f,  -5.15779108e-02f,  7.57469758e-02f,
  -2.50143148e-02f,  -6.63000345e-03f,  3.52934822e-02f,  -7.24082813e-02f,  2.95818299e-02f,  2.84877978e-02f,  -4.49695298e-03f,  -4.42901142e-02f,
  -5.22690043e-02f,  3.17868292e-02f,  5.55624105e-02f,  5.58863953e-02f,  -6.46985695e-02f,  2.31108796e-02f,  -1.47266639e-02f,  -3.62318307e-02f,
  -2.97024380e-02f,  -1.87991709e-02f,  -4.71321531e-02f,  7.61926770e-02f,  -1.55059295e-02f,  -1.31096169e-02f,  -2.28403206e-03f,  1.79477353e-02f,
  -4.67618415e-03f,  6.63545448e-03f,  2.51454636e-02f,  5.75085804e-02f,  3.32707688e-02f,  -5.06137125e-02f,  3.96098197e-02f,  -7.37488940e-02f,
  7.83448480e-03f,  -3.08167022e-02f,  -2.99273022e-02f,  -4.82018739e-02f,  4.69752029e-03f,  -2.21356153e-02f,  6.99132681e-02f,  9.78123397e-03f,
  3.97674330e-02f,  1.81464478e-02f,  4.18191627e-02f,  5.28763980e-02f,  -3.90182957e-02f,  1.50159616e-02f,  -3.67523506e-02f,  3.99830937e-02f,
  3.89567129e-02f,  -4.46679071e-03f,  -4.91483100e-02f,  -5.65218702e-02f,  2.90536210e-02f,  -4.73308265e-02f,  -1.22918084e-03f,  -4.27847467e-02f,
  3.41259539e-02f,  -1.37597658e-02f,  -7.74301514e-02f,  5.60869239e-02f,  -5.04914708e-02f,  2.00310200e-02f,  -4.75460067e-02f,  -6.00600708e-03f,
  1.38635058e-02f,  7.23930076e-02f,  -4.68554385e-02f,  -6.57707974e-02f,  8.74269232e-02f,  5.31129874e-02f,  2.61962265e-02f,  6.33985028e-02f,
  -3.17237899e-02f,  -6.40087724e-02f,  6.76930696e-03f,  -8.74317251e-03f,  5.49542643e-02f,  -2.35451963e-02f,  3.77657898e-02f,  -2.53923424e-02f,
  -4.51532677e-02f,  -1.36479102e-02f,  4.13067080e-02f,  -3.29335891e-02f,  -7.62875900e-02f,  -4.63228337e-02f,  -1.17684314e-02f,  1.92205571e-02f,
  1.93485133e-02f,  6.84457123e-02f,  3.89808714e-02f,  4.94629927e-02f,  4.18629013e-02f,  6.32335618e-02f,  4.10588570e-02f,  -4.92126755e-02f,
  -1.84902968e-03f,  5.29825513e-04f,  7.01224133e-02f,  3.90414298e-02f,  4.51698937e-02f,  -5.24390936e-02f,  -1.65947489e-02f,  -4.99771237e-02f,
  -9.78649873e-03f,  6.25315681e-02f,  -8.85572936e-03f,  -4.48871404e-03f,  -4.01582979e-02f,  -5.13278358e-02f,  7.06854369e-03f,  1.78086963e-02f,
  2.39584893e-02f,  -4.01317403e-02f,  3.80646028e-02f,  9.01398808e-03f,  5.75858615e-02f,  5.51103242e-02f,  1.55025320e-02f,  -2.93713454e-02f,
  6.61139041e-02f,  5.96205406e-02f,  5.34069911e-02f,  5.43177091e-02f,  2.92629916e-02f,  -1.08186491e-02f,  1.42506592e-03f,  -6.60282746e-02f,
  1.00874447e-03f,  -2.64477003e-02f,  -6.65886179e-02f,  -1.25910863e-02f,  3.37563306e-02f,  -1.93688292e-02f,  -5.77684827e-02f,  7.38741131e-03f,
  2.86480002e-02f,  -3.15070860e-02f,  -3.52251306e-02f,  2.02520587e-03f,  -4.05680807e-03f,  5.55247515e-02f,  8.10002536e-02f,  5.57141118e-02f,
  -7.36701265e-02f,  -4.53913473e-02f,  -5.09283841e-02f,  1.79896038e-02f,  -7.44107598e-03f,  -1.89225599e-02f,  -5.23890145e-02f,  7.41957426e-02f,
  -7.33482325e-03f,  9.83321108e-03f,  1.38685377e-02f,  -5.05535863e-02f,  -5.15025631e-02f,  -4.43997309e-02f,  2.91235987e-02f,  -8.10419694e-02f,
  6.01291731e-02f,  -3.10979728e-02f,  1.95882227e-02f,  1.83359273e-02f,  4.25230041e-02f,  -5.76802343e-03f,  2.89506689e-02f,  5.59113473e-02f,
  -6.59521669e-02f,  2.15789396e-02f,  1.04938084e-02f,  -3.10779363e-03f,  -6.80682957e-02f,  -5.90207502e-02f,  4.74280231e-02f,  8.21469128e-02f,
  -3.80828902e-02f,  -6.64021373e-02f,  1.51847387e-02f,  -4.34424765e-02f,  7.60681555e-02f,  4.32269797e-02f,  3.10702100e-02f,  1.92538649e-02f,
  -3.53733413e-02f,  1.48769123e-02f,  1.31147970e-02f,  -5.16764820e-02f,  -1.67817883e-02f,  -2.06006654e-02f,  7.23085999e-02f,  6.46316856e-02f,
  2.29749875e-03f,  1.23225469e-02f,  1.06118964e-02f,  -2.93632280e-02f,  8.29764158e-02f,  6.06024917e-03f,  6.58195317e-02f,  -7.97496177e-03f,
  -2.12146845e-02f,  5.54932840e-02f,  -7.61248842e-02f,  3.90742160e-02f,  4.73923907e-02f,  1.47619518e-02f,  5.58256656e-02f,  6.55458644e-02f,
  -1.29755493e-03f,  -4.24788557e-02f,  -2.80965157e-02f,  -6.69118166e-02f,  5.78118041e-02f,  -6.98212013e-02f,  -5.24787493e-02f,  3.34037617e-02f,
  1.80247501e-02f,  7.96561390e-02f,  7.15396702e-02f,  -6.50970116e-02f,  6.49768114e-02f,  6.51375130e-02f,  -4.06039543e-02f,  -1.04166623e-02f,
  -6.66903506e-05f,  -5.20559028e-02f,  -7.22940499e-03f,  2.32294817e-02f,  5.65391742e-02f,  -6.48259819e-02f,  5.87206781e-02f,  3.77561897e-03f,
  -4.29365821e-02f,  5.95500357e-02f,  -3.80501449e-02f,  3.42746675e-02f,  7.62100443e-02f,  8.92934389e-03f,  5.93661144e-02f,  7.33049512e-02f,
  -8.72275606e-02f,  2.04661693e-02f,  6.34885654e-02f,  6.68124333e-02f,  -2.56375298e-02f,  -6.58191592e-02f,  -5.65997399e-02f,  -2.15395936e-03f,
  5.34617938e-02f,  6.82386905e-02f,  -6.39297143e-02f,  -6.27374835e-03f,  -9.03683715e-03f,  3.91236730e-02f,  6.54494017e-02f,  8.11427273e-03f,
  5.58359697e-02f,  -5.63849173e-02f,  9.02835000e-03f,  2.75916941e-02f,  -4.32239734e-02f,  2.73023341e-02f,  8.38058144e-02f,  4.33042571e-02f,
  -2.52973773e-02f,  5.33625931e-02f,  -3.93090099e-02f,  1.17651420e-02f,  -2.98227370e-02f,  -7.45022520e-02f,  5.94634935e-02f,  -5.15532419e-02f,
  3.13573405e-02f,  2.44022533e-02f,  -1.16971657e-02f,  3.24990936e-02f,  -6.55966178e-02f,  4.79780100e-02f,  -4.82548699e-02f,  -7.00249001e-02f,
  3.89112793e-02f,  6.48915768e-02f,  -1.72620136e-02f,  3.74276340e-02f,  8.79138634e-02f,  -7.62581676e-02f,  1.05663883e-02f,  -3.03889103e-02f,
  1.21455956e-02f,  -1.30712222e-02f,  -4.73802537e-02f,  7.73461163e-02f,  -2.56284773e-02f,  -4.26935740e-02f,  -7.20229000e-02f,  -6.12751395e-03f,
  -5.85073531e-02f,  5.93202375e-02f,  7.26843178e-02f,  1.98367834e-02f,  -7.31132831e-03f,  -3.53134647e-02f,  -3.91930565e-02f,  -4.21736352e-02f,
  5.73919564e-02f,  -5.42176887e-02f,  4.07997519e-03f,  -1.65867023e-02f,  7.09891273e-03f,  -6.57260418e-03f,  3.68858166e-02f,  -5.21934740e-02f,
  -2.90179662e-02f,  3.87963094e-02f,  -5.42763211e-02f,  -3.31903137e-02f,  -3.87766175e-02f,  -6.16327003e-02f,  4.16402854e-02f,  4.42141853e-02f,
  5.54097556e-02f,  1.42389582e-02f,  -7.06417635e-02f,  -4.58368659e-03f,  1.05881840e-02f,  1.10551417e-02f,  -7.06781447e-02f,  -6.01344630e-02f,
  5.26864231e-02f,  2.62817144e-02f,  -4.85267118e-02f,  -1.70953479e-02f,  -2.80612484e-02f,  5.05500659e-02f,  7.67397135e-03f,  -6.22431561e-02f,
  7.07986951e-02f,  2.37768516e-02f,  -6.80583641e-02f,  1.25176292e-02f,  7.32594728e-02f,  -5.74180484e-03f,  -5.93824908e-02f,  -2.37425659e-02f,
  3.56960259e-02f,  5.50723970e-02f,  -9.95753799e-03f,  -8.13977094e-04f,  5.58514595e-02f,  -1.07922330e-02f,  5.27373515e-02f,  4.14371863e-02f,
  -5.05832061e-02f,  -6.57663569e-02f,  2.62375027e-02f,  -2.38911733e-02f,  7.02297986e-02f,  -4.34202328e-02f,  -6.17807843e-02f,  -2.92197019e-02f,
  8.49789381e-03f,  5.16872145e-02f,  3.07362452e-02f,  -1.03047565e-02f,  5.64153772e-03f,  -5.19285947e-02f,  6.30625896e-03f,  7.92306140e-02f,
  2.94529554e-02f,  -6.60581887e-02f,  5.13490066e-02f,  -7.19891442e-03f,  -3.73860747e-02f,  -7.70039037e-02f,  -5.53688407e-02f,  -1.89225078e-02f,
  2.23844461e-02f,  7.50305504e-02f,  -4.00160179e-02f,  3.33108641e-02f,  -6.20280579e-02f,  4.84198257e-02f,  7.01707676e-02f,  5.45902029e-02f,
  -6.26975000e-02f,  3.86470044e-03f,  -3.65961306e-02f,  2.55089886e-02f,  4.84859683e-02f,  2.13428251e-02f,  -5.15953563e-02f,  3.29672731e-02f,
  1.80746783e-02f,  -4.35000770e-02f,  -5.13774343e-02f,  6.36124462e-02f,  -5.44498637e-02f,  3.29510272e-02f,  -4.15188409e-02f,  5.76995537e-02f,
  -1.51630091e-02f,  1.96775272e-02f,  -8.25550780e-03f,  7.86302164e-02f,  -4.94288281e-02f,  5.72137460e-02f,  -2.71666748e-03f,  -5.39863557e-02f,
  -4.58309278e-02f,  -5.71563281e-02f,  5.81975952e-02f,  3.24202562e-03f,  -2.84612700e-02f,  -4.40035760e-02f,  4.74749617e-02f,  -4.29676846e-02f,
  2.44820938e-02f,  -5.49591482e-02f,  -5.68988249e-02f,  5.96646667e-02f,  -6.68863505e-02f,  3.86814028e-02f,  -5.02729043e-02f,  -4.24867012e-02f,
  3.35244997e-03f,  4.54489887e-02f,  -4.19998243e-02f,  1.50168240e-02f,  -1.80182829e-02f,  4.06469069e-02f,  -2.65130680e-03f,  -1.71084478e-02f,
  -5.07139079e-02f,  5.13212457e-02f,  -4.21074126e-03f,  -4.07298729e-02f,  -2.88597886e-02f,  3.61347832e-02f,  -1.44682545e-02f,  2.97521036e-02f,
  -6.98239952e-02f,  2.80838646e-02f,  -3.04252505e-02f,  2.56300680e-02f,  -4.51568551e-02f,  -3.86251956e-02f,  2.35902574e-02f,  -4.74304222e-02f,
  5.41579984e-02f,  -2.70634834e-02f,  -5.35979755e-02f,  -2.97501273e-02f,  -3.82091552e-02f,  5.60065620e-02f,  -3.67374048e-02f,  -2.37268303e-02f,
  -4.31700423e-02f,  5.37511446e-02f,  3.56880091e-02f,  5.27720340e-02f,  4.44197506e-02f,  -1.33377938e-02f,  5.89386262e-02f,  1.28199616e-02f,
  3.77836563e-02f,  4.54852358e-02f,  -7.16857910e-02f,  4.14489061e-02f,  -3.04829236e-03f,  -4.05282229e-02f,  -8.99923593e-03f,  -3.91995385e-02f,
  6.33507175e-03f,  5.65429889e-02f,  -4.01308499e-02f,  -5.48761860e-02f,  -6.33698925e-02f,  -6.65589422e-02f,  -2.11532898e-02f,  3.80382203e-02f,
  -2.00770237e-02f,  5.06156273e-02f,  4.11468223e-02f,  5.70037328e-02f,  -5.28799817e-02f,  6.37972578e-02f,  -5.93529195e-02f,  7.61266053e-03f,
  3.36784199e-02f,  -6.40927255e-02f,  -4.37604375e-02f,  3.07598412e-02f,  2.59426143e-02f,  2.21908428e-02f,  3.30321677e-02f,  2.82981712e-02f,
  -2.82916334e-02f,  -3.79928946e-02f,  -9.86793824e-03f,  2.34182812e-02f,  1.72051630e-04f,  5.64956106e-02f,  -3.59580256e-02f,  1.73711739e-02f,
  -5.74484356e-02f,  1.82280652e-02f,  -5.33026494e-02f,  5.46386540e-02f,  5.17692938e-02f,  -4.49839905e-02f,  -4.57841530e-02f,  -1.44369237e-03f,
  -4.60659452e-02f,  -4.32355255e-02f,  4.96011451e-02f,  -4.48595434e-02f,  -4.00079116e-02f,  -7.51368925e-02f,  -2.04954706e-02f,  4.67329957e-02f,
  -1.18220309e-02f,  -2.02708840e-02f,  -1.80311706e-02f,  9.74358991e-03f,  4.29131091e-02f,  3.37790735e-02f,  -1.09473327e-02f,  -2.71472428e-02f,
  1.16676008e-02f,  -3.12875286e-02f,  -2.05429532e-02f,  3.35058160e-02f,  -3.29970717e-02f,  2.51794904e-02f,  4.96201813e-02f,  -6.06654622e-02f,
  -3.69393677e-02f,  -5.24035795e-03f,  -1.65949222e-02f,  1.08866356e-02f,  -2.29416937e-02f,  -5.77065200e-02f,  6.53068796e-02f,  -3.79291177e-02f,
  2.04864573e-02f,  1.37673123e-02f,  -5.75821847e-03f,  6.29669726e-02f,  9.04982314e-02f,  -6.60797283e-02f,  4.38671038e-02f,  1.20577291e-02f,
  1.44459549e-02f,  8.22415948e-02f,  -3.17978412e-02f,  7.05280304e-02f,  1.77265387e-02f,  -1.35126635e-02f,  -1.75980963e-02f,  -6.70099780e-02f,
  4.12790701e-02f,  -4.94981706e-02f,  9.34227109e-02f,  6.27199113e-02f,  1.46490494e-02f,  -7.50900805e-02f,  2.48565171e-02f,  -3.02848089e-02f,
  -4.38689515e-02f,  -1.27368858e-02f,  -7.36581683e-02f,  4.59465384e-02f,  -2.19385400e-02f,  5.16613796e-02f,  5.58936857e-02f,  4.80288826e-02f,
  7.36048594e-02f,  4.72362079e-02f,  4.48981561e-02f,  -6.03259541e-02f,  -2.81791016e-02f,  2.17907876e-02f,  8.24589457e-04f,  -8.38662847e-04f,
  1.96865834e-02f,  -5.24644628e-02f,  -2.01021619e-02f,  2.58548893e-02f,  -6.54560551e-02f,  1.06485663e-02f,  -5.51925786e-02f,  3.20809633e-02f,
  -2.30532624e-02f,  3.20489630e-02f,  3.20490338e-02f,  7.44817331e-02f,  -7.17064217e-02f,  -2.90499981e-02f,  -6.02554902e-02f,  7.09291771e-02f,
  3.52537930e-02f,  9.78390574e-02f,  -4.50178161e-02f,  1.99878383e-02f,  2.72633415e-02f,  -6.68325722e-02f,  7.45669976e-02f,  -2.17950940e-02f,
  -6.61134794e-02f,  7.35609233e-03f,  -2.29448397e-02f,  3.96772996e-02f,  -3.15616354e-02f,  -3.47524881e-02f,  -2.20893137e-02f,  3.68789807e-02f,
  -5.68941683e-02f,  4.91069108e-02f,  7.68271908e-02f,  2.89491639e-02f,  -5.51812537e-02f,  -5.35002612e-02f,  5.53527139e-02f,  -2.57100742e-02f,
  1.35258427e-02f,  2.40648910e-03f,  -7.55788684e-02f,  1.09751737e-02f,  2.87707373e-02f,  4.97986153e-02f,  -5.73862791e-02f,  2.57085543e-02f,
  1.74523320e-03f,  -4.77615483e-02f,  1.64248105e-02f,  -4.13555698e-03f,  -7.13328198e-02f,  -2.78888084e-02f,  -8.63814801e-02f,  -3.64712290e-02f,
  3.25338989e-02f,  -8.48633498e-02f,  -6.34671152e-02f,  2.72786450e-02f,  7.55461007e-02f,  6.02377094e-02f,  -5.61405495e-02f,  -7.74599835e-02f,
  4.38102931e-02f,  4.66350019e-02f,  -5.62350173e-03f,  -1.61069836e-02f,  4.21965569e-02f,  3.57105210e-02f,  6.87517896e-02f,  2.20199414e-02f,
  4.17498127e-02f,  -2.22208276e-02f,  4.96248540e-04f,  -4.79227379e-02f,  -5.81047125e-02f,  5.39576337e-02f,  6.92810118e-03f,  -7.69322067e-02f,
  -2.06905473e-02f,  1.14743402e-02f,  -1.67756267e-02f,  -1.53579554e-02f,  -1.94552056e-02f,  -4.93287519e-02f,  -4.73635942e-02f,  3.18569504e-02f,
  -6.44647628e-02f,  -8.80394056e-02f,  1.89563688e-02f,  4.62675206e-02f,  -5.23150526e-02f,  4.38732915e-02f,  -1.41320042e-02f,  -6.09154068e-02f,
  3.54899503e-02f,  -1.96459200e-02f,  -5.79738356e-02f,  -5.36877997e-02f,  4.78117317e-02f,  5.99907227e-02f,  5.32389469e-02f,  3.07556931e-02f,
  -7.39073604e-02f,  5.92181683e-02f,  4.70090397e-02f,  -3.86182144e-02f,  -1.67424418e-03f,  -4.09407951e-02f,  3.63340341e-02f,  -2.70196386e-02f,
  -4.94335704e-02f,  4.90765162e-02f,  -7.69948065e-02f,  3.56644765e-02f,  9.41259414e-02f,  -3.34405303e-02f,  -5.67824617e-02f,  6.53604046e-02f,
  1.60291344e-02f,  -2.20704847e-03f,  7.63789043e-02f,  4.91980612e-02f,  5.86720295e-02f,  3.93348038e-02f,  3.41938883e-02f,  -4.56223823e-02f,
  3.03345919e-02f,  -1.68516338e-02f,  -5.55599667e-02f,  5.39915711e-02f,  5.14271520e-02f,  -4.80304249e-02f,  -7.67520219e-02f,  -3.08816396e-02f,
  -3.05181406e-02f,  5.07665277e-02f,  6.40026927e-02f,  -4.54393066e-02f,  3.60242948e-02f,  4.29128259e-02f,  -6.43504485e-02f,  4.62925769e-02f,
  -3.50569487e-02f,  3.61865759e-02f,  1.56097964e-03f,  2.82256808e-02f,  -2.17251033e-02f,  -7.52791017e-02f,  -1.23695573e-02f,  -8.99107754e-03f,
  3.24916989e-02f,  -1.06392410e-02f,  1.41400453e-02f,  -5.97367622e-02f,  -6.25202432e-02f,  4.27603163e-02f,  -4.41798121e-02f,  -2.27382295e-02f,
  -2.67795846e-02f,  -1.99099593e-02f,  3.91892940e-02f,  -1.61936693e-02f,  5.29864132e-02f,  -5.27955629e-02f,  -6.76050782e-03f,  2.65607163e-02f,
  -4.90581244e-03f,  -6.72576651e-02f,  6.37379736e-02f,  6.84377849e-02f,  -5.75244501e-02f,  -6.27655163e-02f,  -1.59225166e-02f,  -2.59037800e-02f,
  3.05441767e-02f,  -6.82818368e-02f,  5.71567714e-02f,  -1.82599761e-02f,  -2.27411501e-02f,  5.15773892e-03f,  -7.38951936e-02f,  -6.50103241e-02f,
  -4.56454530e-02f,  -6.84004650e-02f,  1.69243664e-02f,  9.07675922e-03f,  -1.72652081e-02f,  6.81895912e-02f,  -6.70713484e-02f,  4.31706309e-02f,
  -7.25984052e-02f,  -5.69522902e-02f,  6.40877038e-02f,  -2.19121389e-02f,  -3.76202166e-03f,  -6.57324120e-02f,  -6.05756082e-02f,  5.60900420e-02f,
  -1.32469386e-02f,  5.26675731e-02f,  -3.66969518e-02f,  2.63120830e-02f,  2.35382766e-02f,  3.21557075e-02f,  1.25710741e-02f,  -1.71697251e-02f,
  -3.68998870e-02f,  6.64169639e-02f,  -6.49582893e-02f,  2.09975019e-02f,  4.47247773e-02f,  -2.49638408e-03f,  4.11190763e-02f,  3.98123264e-03f,
  2.42600963e-02f,  -4.15170901e-02f,  -7.01163486e-02f,  -6.93762898e-02f,  -2.54958868e-04f,  -7.17868656e-03f,  -5.94917312e-02f,  -5.45458831e-02f,
  3.87160555e-02f,  2.17083693e-02f,  -5.64597473e-02f,  -5.84307313e-03f,  -1.22792758e-02f,  -6.59718588e-02f,  5.89391142e-02f,  -5.10531403e-02f,
  2.98757851e-02f,  1.72262639e-03f,  -2.05029622e-02f,  2.23622918e-02f,  2.62881443e-02f,  2.83274278e-02f,  5.21714389e-02f,  3.56862694e-02f,
  6.86085075e-02f,  1.48479864e-02f,  -7.10013434e-02f,  1.73173100e-03f,  -1.56728178e-02f,  -6.08024821e-02f,  -6.71743080e-02f,  -5.25170788e-02f,
  -2.35144086e-02f,  -6.73637539e-02f,  4.92053851e-02f,  -3.09650823e-02f,  -3.74833643e-02f,  4.46207970e-02f,  4.55414727e-02f,  -2.66292319e-02f,
  1.68827549e-02f,  -1.47746690e-02f,  1.74499974e-02f,  -5.32475412e-02f,  2.36255750e-02f,  5.83834946e-02f,  4.64494824e-02f,  2.02539191e-02f,
  7.09685832e-02f,  -3.09759341e-02f,  -5.42855635e-02f,  2.20777169e-02f,  -9.08260047e-03f,  -5.72103262e-03f,  5.61917424e-02f,  9.80047882e-03f,
  -6.59077615e-02f,  1.80879682e-02f,  5.81309497e-02f,  6.55435473e-02f,  -1.23267621e-02f,  6.05554432e-02f,  5.19619733e-02f,  5.71936518e-02f,
  5.06106541e-02f,  3.12523171e-02f,  2.51831785e-02f,  -2.13631690e-02f,  -1.15607828e-02f,  -2.67629623e-02f,  -3.57635319e-02f,  -5.35010993e-02f,
  -2.05149557e-02f,  -3.21651399e-02f,  6.64092377e-02f,  -4.75804359e-02f,  1.87141076e-02f,  -4.16502878e-02f,  6.74580559e-02f,  2.37587821e-02f,
  -4.91517298e-02f,  2.39309637e-04f,  3.98229286e-02f,  6.19697385e-03f,  -1.21647855e-02f,  6.41021803e-02f,  -7.34828934e-02f,  3.16788256e-02f,
  -2.80135684e-02f,  -5.26180351e-03f,  -7.41792321e-02f,  -1.00996140e-02f,  3.10141668e-02f,  5.89471012e-02f,  5.25073037e-02f,  2.70802397e-02f,
  2.78146509e-02f,  -5.51050678e-02f,  6.99835569e-02f,  2.52595786e-02f,  -5.04186889e-03f,  3.18120569e-02f,  3.97903137e-02f,  -7.82390237e-02f,
  -6.08209185e-02f,  -2.12318003e-02f,  6.19520508e-02f,  6.88996464e-02f,  -3.22397891e-03f,  -6.76297769e-02f,  7.54535645e-02f,  2.02607810e-02f,
  -7.77681917e-02f,  3.40956151e-02f,  -1.31082013e-02f,  -2.81187017e-02f,  3.52881365e-02f,  -4.36274707e-02f,  -4.67894711e-02f,  -7.22090229e-02f,
  -4.46733367e-03f,  6.13687113e-02f,  4.72332351e-02f,  5.43985255e-02f,  -5.67594729e-02f,  -4.31529693e-02f,  -6.50586113e-02f,  3.42501663e-02f,
  -1.03316782e-02f,  7.39592314e-02f,  2.15343144e-02f,  6.56495988e-03f,  6.79355562e-02f,  3.95227149e-02f,  6.35062307e-02f,  -2.80580781e-02f,
  7.94550180e-02f,  7.65283778e-02f,  4.39490154e-02f,  -3.87491621e-02f,  -2.13061813e-02f,  4.65627648e-02f,  -3.30003798e-02f,  2.49790940e-02f,
  -2.70448742e-03f,  -6.57841042e-02f,  1.13189863e-02f,  -4.59815888e-03f,  -6.89608827e-02f,  -7.17944512e-03f,  -3.09485607e-02f,  6.36878684e-02f,
  -1.73159670e-02f,  -4.97070290e-02f,  6.53504282e-02f,  5.53996935e-02f,  -4.27726321e-02f,  2.57896874e-02f,  -2.74663959e-02f,  2.92239208e-02f,
  -5.60710626e-03f,  3.76678482e-02f,  2.05198098e-02f,  -3.32691371e-02f,  3.13550862e-03f,  1.36149162e-03f,  1.53906513e-02f,  -7.47379288e-02f,
  -7.19581842e-02f,  -4.09920588e-02f,  4.13228348e-02f,  1.18121337e-02f,  -9.40293074e-03f,  -1.63202640e-02f,  2.66105533e-02f,  -1.75927542e-02f,
  -1.05412034e-02f,  4.08756509e-02f,  3.01359557e-02f,  4.96442467e-02f,  7.74495676e-03f,  2.92352699e-02f,  -2.71872873e-03f,  2.38072574e-02f,
  -6.73094019e-02f,  -4.03337516e-02f,  -2.29421183e-02f,  -3.44483741e-02f,  7.06362352e-02f,  -2.55423859e-02f,  -6.16102852e-02f,  6.59261346e-02f,
  -1.68037470e-02f,  -4.88645025e-02f,  6.06910437e-02f,  -6.30943850e-02f,  -3.85866910e-02f,  6.45419955e-02f,  -3.58836614e-02f,  -1.76059082e-02f,
  4.07083817e-02f,  5.25169186e-02f,  -5.63725419e-02f,  4.23811376e-04f,  -4.76326309e-02f,  -6.19159155e-02f,  1.50212701e-02f,  3.82184349e-02f,
  -2.40129288e-02f,  5.87770753e-02f,  -3.26071605e-02f,  4.12003063e-02f,  -4.99363653e-02f,  -5.00598028e-02f,  6.87826574e-02f,  -2.70642387e-03f,
  6.66771382e-02f,  -1.16252881e-02f,  -6.70510307e-02f,  -6.88703060e-02f,  7.25250989e-02f,  -4.40741405e-02f,  -3.60038914e-02f,  4.09687357e-03f,
  7.80238882e-02f,  -6.99630706e-03f,  -4.15759273e-02f,  4.79325019e-02f,  -3.70792001e-02f,  1.29530178e-02f,  2.41015498e-02f,  -7.41501600e-02f,
  -5.48072271e-02f,  3.55320983e-02f,  -7.10568726e-02f,  -7.56833144e-03f,  2.73415353e-02f,  2.00329442e-02f,  -4.60857227e-02f,  -5.56532070e-02f,
  -1.47837901e-03f,  -7.33324662e-02f,  -4.76764105e-02f,  -5.46401069e-02f,  2.75827628e-02f,  5.66468164e-02f,  6.00759871e-02f,  5.13773486e-02f,
  -2.32167989e-02f,  9.67268180e-03f,  6.28532767e-02f,  -5.55714555e-02f,  6.37925342e-02f,  3.93817350e-02f,  -4.76364754e-02f,  1.93055794e-02f,
  -6.50438070e-02f,  -7.20467046e-02f,  4.91440892e-02f,  -2.24905591e-02f,  1.33598770e-03f,  -2.33056676e-02f,  2.02261731e-02f,  2.63677835e-02f,
  7.65570104e-02f,  5.22130020e-02f,  4.32475563e-03f,  -6.48577064e-02f,  -3.24766338e-02f,  9.89603344e-03f,  -3.62566374e-02f,  3.73630896e-02f,
  -3.22104916e-02f,  2.29878053e-02f,  8.26375186e-02f,  -6.39270470e-02f,  4.88133281e-02f,  4.66675013e-02f,  3.77530721e-03f,  -8.37802701e-03f,
  -1.63950529e-02f,  1.68222357e-02f,  -3.55186127e-02f,  -3.77402231e-02f,  -9.26214177e-03f,  -6.43162876e-02f,  -1.37029143e-04f,  4.85462211e-02f,
  -6.32680953e-02f,  -4.24334072e-02f,  7.11301789e-02f,  -1.31751886e-02f,  6.11368790e-02f,  -3.33529571e-03f,  -9.53529030e-03f,  -2.78514368e-03f,
  -6.88498840e-02f,  2.50318125e-02f,  4.24006432e-02f,  -6.46353588e-02f,  9.15904623e-03f,  -2.13240217e-02f,  3.10986699e-03f,  7.09387511e-02f,
  -7.70066828e-02f,  1.51742920e-02f,  -6.89364225e-02f,  -4.60384674e-02f,  2.38211062e-02f,  -5.51601239e-02f,  2.71205418e-03f,  -1.67673063e-02f,
  -1.65849142e-02f,  -4.43229266e-02f,  -9.71707143e-03f,  -2.11736299e-02f,  5.21687418e-02f,  -5.61167561e-02f,  -3.96320261e-02f,  -5.26853725e-02f,
  -4.56693210e-02f,  2.74255080e-03f,  -2.90302224e-02f,  3.41645884e-03f,  -1.40778674e-02f,  4.78455648e-02f,  -9.41492617e-03f,  -1.46298930e-02f,
  5.69223873e-02f,  -1.86686572e-02f,  -1.78961772e-02f,  -2.67657042e-02f,  1.45134721e-02f,  -8.16804077e-03f,  -2.95356591e-03f,  -4.86788154e-02f,
  5.62181510e-02f,  -2.24298215e-03f,  -6.79395944e-02f,  6.45777434e-02f,  4.10277920e-04f,  -3.44447047e-02f,  -6.80629769e-03f,  4.31310683e-02f,
  6.65070489e-02f,  6.71193749e-02f,  -2.12690905e-02f,  4.60754484e-02f,  -2.54850797e-02f,  2.51149293e-02f,  2.23411042e-02f,  -1.63073167e-02f,
  -4.54799831e-02f,  -4.19833325e-02f,  -3.96378990e-03f,  -1.42432982e-02f,  1.15897029e-03f,  1.89688616e-02f,  4.18809429e-02f,  2.69370042e-02f,
  1.86758358e-02f,  -1.77588407e-02f,  5.43492585e-02f,  4.37737033e-02f,  -8.33922923e-02f,  -7.04436228e-02f,  -7.97312930e-02f,  2.37160344e-02f,
  2.38906853e-02f,  3.21794674e-02f,  -2.36035604e-02f,  -5.63880429e-03f,  -4.64447923e-02f,  2.85876431e-02f,  6.22896813e-02f,  3.14060971e-02f,
  7.17032002e-03f,  2.01277751e-02f,  4.23160605e-02f,  3.43790427e-02f,  4.54544239e-02f,  3.74811180e-02f,  -5.75390086e-02f,  -6.49351329e-02f,
  -5.42728156e-02f,  8.10903497e-03f,  -8.37702421e-04f,  -1.81082785e-02f,  -2.46116668e-02f,  -5.01660965e-02f,  -6.77044392e-02f,  6.00535721e-02f,
  7.28163198e-02f,  -5.89811653e-02f,  5.70764914e-02f,  -4.00933959e-02f,  7.23516420e-02f,  -2.90393382e-02f,  1.34933395e-02f,  -4.24859859e-02f,
  2.61121746e-02f,  -4.78429496e-02f,  -5.51146381e-02f,  4.13192948e-03f,  1.93471629e-02f,  8.30256101e-03f,  -7.25295544e-02f,  1.22289266e-02f,
  4.11817022e-02f,  -3.11062764e-02f,  1.94426626e-03f,  -4.45347428e-02f,  4.77398047e-03f,  -8.95887148e-03f,  8.08127597e-03f,  -1.95869301e-02f,
  1.04304031e-02f,  4.95657697e-02f,  3.30094025e-02f,  -1.90977100e-03f,  7.40765631e-02f,  2.92526782e-02f,  -1.23922760e-02f,  4.26119156e-02f,
  -4.92688082e-02f,  -7.34062493e-02f,  4.07629870e-02f,  2.70917639e-02f,  -3.33051905e-02f,  -5.91848455e-02f,  2.84452103e-02f,  -5.92395477e-02f,
  -6.93460628e-02f,  -5.21527939e-02f,  5.01187667e-02f,  5.16422056e-02f,  -6.55737370e-02f,  -5.50974980e-02f,  5.71065433e-02f,  2.52161119e-02f,
  -8.86642281e-03f,  -4.83175516e-02f,  2.73161065e-02f,  -3.35546136e-02f,  -4.18538265e-02f,  -3.75175700e-02f,  -2.52230722e-03f,  -2.21699066e-02f,
  -4.21735868e-02f,  2.46656388e-02f,  -2.59151757e-02f,  1.21902479e-02f,  7.56425485e-02f,  -7.15539828e-02f,  1.76220536e-02f,  7.07509369e-03f,
  -9.97883920e-03f,  3.84461209e-02f,  -5.09562641e-02f,  -3.30789611e-02f,  -6.97174072e-02f,  -2.98466533e-02f,  2.50118170e-02f,  -4.70287353e-02f,
  -4.30894382e-02f,  -4.92275134e-02f,  1.04143033e-02f,  6.43538032e-03f,  5.34653589e-02f,  1.60034969e-02f,  -3.49663235e-02f,  6.03894554e-02f,
  1.26941428e-02f,  6.81818202e-02f,  -4.88410667e-02f,  5.73644899e-02f,  6.52000085e-02f,  5.88495731e-02f,  1.21752573e-02f,  5.19398861e-02f,
  2.22545043e-02f,  4.90845032e-02f,  6.06363453e-03f,  -1.51127148e-02f,  3.96188255e-03f,  -7.06043141e-03f,  4.43401188e-02f,  -1.43560804e-02f,
  4.37504277e-02f,  2.03239098e-02f,  -4.12432812e-02f,  6.53924569e-02f,  4.75889966e-02f,  6.27011061e-03f,  4.71869409e-02f,  1.12521648e-03f,
  7.27704912e-02f,  -3.95840891e-02f,  -3.67581770e-02f,  6.58467710e-02f,  4.43361849e-02f,  -5.89833073e-02f,  3.22028063e-02f,  -7.04225227e-02f,
  -1.24284183e-03f,  -3.78861977e-03f,  -2.54016230e-03f,  3.93774323e-02f,  -9.39484313e-03f,  4.19631749e-02f,  -1.06242262e-02f,  -7.25069642e-02f,
  6.93942159e-02f,  2.44781598e-02f,  3.95651050e-02f,  7.19730109e-02f,  7.92654306e-02f,  -7.07433000e-02f,  6.05299622e-02f,  -4.59588319e-02f,
  -4.69044000e-02f,  6.43835142e-02f,  2.87272632e-02f,  -7.32790679e-02f,  -2.21512932e-02f,  -7.83842988e-03f,  -3.98316085e-02f,  -6.92935064e-02f,
  -6.96840286e-02f,  5.73040452e-03f,  7.51059949e-02f,  2.63350271e-02f,  7.44760484e-02f,  -6.22906424e-02f,  -5.02378047e-02f,  -6.72080964e-02f,
  3.17864977e-02f,  -5.54703549e-02f,  -6.36011586e-02f,  -1.21487463e-02f,  2.64676344e-02f,  2.77115256e-02f,  1.40509875e-02f,  5.52905314e-02f,
  6.76956549e-02f,  3.58192287e-02f,  -1.53195057e-02f,  4.77693975e-02f,  5.38662188e-02f,  -1.10481810e-02f,  2.72138212e-02f,  -2.60599684e-02f,
  3.29173566e-03f,  -7.26746768e-02f,  -6.58648387e-02f,  3.92050063e-03f,  -4.51719165e-02f,  -1.56846028e-02f,  -6.90306164e-03f,  -1.88325997e-02f,
  2.89052799e-02f,  -3.23476829e-02f,  -7.03102797e-02f,  7.03439862e-02f,  2.51765717e-02f,  1.24239246e-03f,  -7.62933418e-02f,  3.58810276e-02f,
  -1.47927459e-02f,  -2.91250888e-02f,  -5.41828759e-02f,  1.33190081e-02f,  3.33013684e-02f,  2.78455317e-02f,  -3.27384695e-02f,  -3.73375490e-02f,
  -1.10156732e-04f,  3.15424986e-02f,  2.57770866e-02f,  1.65496245e-02f,  8.97470396e-04f,  3.73099819e-02f,  -2.30949894e-02f,  6.75322711e-02f,
  -6.48427382e-02f,  2.44790725e-02f,  -2.85440544e-03f,  3.43484953e-02f,  6.72043487e-02f,  7.07774088e-02f,  -5.88170663e-02f,  3.88816632e-02f,
  -3.50475796e-02f,  3.93514968e-02f,  -2.84321774e-02f,  -2.74136178e-02f,  2.16843504e-02f,  3.39516327e-02f,  -4.22693305e-02f,  3.09353825e-02f,
  -5.68767525e-02f,  5.13702482e-02f,  -1.25283441e-02f,  -6.17780834e-02f,  2.06825919e-02f,  -2.09902171e-02f,  7.06814900e-02f,  -1.02921983e-03f,
  5.77616654e-02f,  3.55617926e-02f,  -1.23911193e-02f,  3.23794149e-02f,  5.00614531e-02f,  -5.22506349e-02f,  7.58196041e-03f,  4.80757132e-02f,
  -6.17923923e-02f,  -6.84750825e-02f,  -7.06717744e-02f,  -6.84074983e-02f,  -5.34482822e-02f,  -6.31362274e-02f,  3.62997167e-02f,  6.67156950e-02f,
  3.94074358e-02f,  -8.82711262e-03f,  6.10285886e-02f,  5.34408465e-02f,  1.06586926e-02f,  -3.97707149e-02f,  8.39128532e-03f,  -7.74181560e-02f,
  -2.89631300e-02f,  -4.09254506e-02f,  -2.27742121e-02f,  -8.91731493e-03f,  3.22935395e-02f,  1.06231449e-02f,  -3.38770845e-03f,  -7.17394128e-02f,
  -5.79568073e-02f,  -4.53722477e-02f,  8.12191665e-02f,  -8.65545310e-03f,  3.49261835e-02f,  2.88427677e-02f,  -6.56336844e-02f,  -7.72655010e-04f,
  6.70892224e-02f,  6.89080209e-02f,  2.72537563e-02f,  -5.39634340e-02f,  5.44741973e-02f,  1.52341332e-02f,  -9.62149259e-03f,  -1.64287053e-02f,
  2.14002039e-02f,  -3.55771668e-02f,  -4.98850197e-02f,  -4.17795144e-02f,  7.30781034e-02f,  -7.20970631e-02f,  1.20665515e-02f,  7.16001019e-02f,
  4.98391129e-02f,  5.18548908e-03f,  -2.32931525e-02f,  4.88268696e-02f,  -5.57157036e-04f,  -7.98453391e-02f,  -7.28979781e-02f,  -5.78409210e-02f,
  5.55977039e-02f,  6.79624975e-02f,  4.22025919e-02f,  5.35971373e-02f,  3.94140668e-02f,  -9.78893600e-03f,  2.48576282e-03f,  3.73024195e-02f,
  -5.00366352e-02f,  -6.98681399e-02f,  6.36577532e-02f,  3.66544514e-03f,  -3.08248252e-02f,  -3.75326313e-02f,  6.05248474e-02f,  -5.13329729e-02f,
  -2.51884200e-03f,  -1.89239569e-02f,  5.50481826e-02f,  1.48830656e-02f,  -5.35983630e-02f,  -6.69910535e-02f,  5.44221178e-02f,  -3.27643491e-02f,
  -5.32582030e-02f,  -3.81429913e-03f,  -2.15946063e-02f,  -3.72317918e-02f,  5.81407994e-02f,  3.74466702e-02f,  -5.91569655e-02f,  -7.50391409e-02f,
  2.53696237e-02f,  -6.46778867e-02f,  -1.86255984e-02f,  1.15372818e-02f,  6.49698153e-02f,  -4.93536070e-02f,  -5.41850179e-02f,  -6.95372298e-02f,
  2.88089179e-02f,  5.42347096e-02f,  4.72519509e-02f,  6.84887767e-02f,  6.60774857e-02f,  -6.64864406e-02f,  5.03336936e-02f,  7.59788901e-02f,
  -1.31811853e-02f,  -5.43884076e-02f,  3.30282487e-02f,  -2.91820876e-02f,  1.21728303e-02f,  6.18059672e-02f,  -5.89035898e-02f,  -3.13832834e-02f,
  3.25799063e-02f,  -1.50707236e-03f,  1.92682743e-02f,  6.60152286e-02f,  4.57493290e-02f,  6.21815138e-02f,  -1.35135641e-02f,  -5.79260029e-02f,
  -7.52560571e-02f,  -4.41706553e-03f,  -4.13848683e-02f,  8.52346867e-02f,  6.55920133e-02f,  -1.89739261e-02f,  6.65384755e-02f,  4.45562275e-03f,
  -5.78493401e-02f,  -1.78780090e-02f,  2.91013476e-02f,  -2.16927435e-02f,  -4.83088121e-02f,  7.03034997e-02f,  -3.35624255e-02f,  1.32117197e-02f,
  -6.70048296e-02f,  -5.04326597e-02f,  2.05719974e-02f,  3.75023298e-02f,  -5.91267906e-02f,  7.12252920e-03f,  2.99668610e-02f,  -3.71938720e-02f,
  4.05206569e-02f,  -8.31715986e-02f,  -1.45066408e-02f,  7.16708601e-02f,  1.19004278e-02f,  4.67234179e-02f,  5.20507321e-02f,  3.64237502e-02f,
  -7.60483965e-02f,  3.15189287e-02f,  -6.24997206e-02f,  4.30929549e-02f,  -3.09583470e-02f,  -6.94607422e-02f,  -3.14692892e-02f,  8.41922313e-03f,
  7.67389452e-03f,  -2.93536466e-02f,  -4.45943791e-03f,  -7.15936199e-02f,  -1.79045498e-02f,  -6.05511367e-02f,  5.64796180e-02f,  3.22237499e-02f,
  4.81604375e-02f,  5.56019247e-02f,  -4.47179563e-02f,  -2.10149549e-02f,  8.10299292e-02f,  -4.94134761e-02f,  1.53773716e-02f,  -4.65215109e-02f,
  3.17525826e-02f,  -5.35440855e-02f,  4.25867215e-02f,  6.14059977e-02f,  -7.20180292e-03f,  -7.30069280e-02f,  4.26044241e-02f,  3.55834328e-02f,
  -5.81327863e-02f,  6.17197342e-02f,  3.45293689e-03f,  1.73275676e-02f,  5.77121004e-02f,  -2.56955512e-02f,  7.00601637e-02f,  2.94535700e-02f,
  2.07256675e-02f,  -1.23705249e-02f,  -6.98312595e-02f,  4.72229309e-02f,  3.58668007e-02f,  -3.06483023e-02f,  -3.92004987e-03f,  -1.00678103e-02f,
  5.93346320e-02f,  -5.50512448e-02f,  -4.75571193e-02f,  5.17894514e-02f,  -2.86973082e-02f,  -5.21835387e-02f,  5.44930510e-02f,  3.20597813e-02f,
  4.10080552e-02f,  1.50378104e-02f,  7.50226304e-02f,  5.96750819e-04f,  4.38822173e-02f,  1.36244465e-02f,  -3.14099267e-02f,  5.77217638e-02f,
  -6.80318102e-02f,  4.01260816e-02f,  -3.47953476e-02f,  -2.67745624e-03f,  2.95267254e-02f,  -1.28905028e-02f,  8.57283175e-03f,  2.19022483e-03f,
  -3.01378705e-02f,  5.33805974e-02f,  -3.00701521e-02f,  -1.79680362e-02f,  5.80453463e-02f,  3.39806899e-02f,  -3.21952105e-02f,  4.80289459e-02f,
  -6.17813729e-02f,  5.75917251e-02f,  7.96014220e-02f,  2.14872416e-02f,  -1.72143318e-02f,  -6.47354424e-02f,  -1.81769244e-02f,  -5.49073666e-02f,
  3.78235132e-02f,  -1.81646668e-03f,  2.76569743e-02f,  7.78613687e-02f,  3.29797454e-02f,  -6.21570386e-02f,  3.88593711e-02f,  -3.53228673e-02f,
  2.20322981e-03f,  4.92834747e-02f,  1.74437296e-02f,  2.05367859e-02f,  8.32880139e-02f,  -5.01611158e-02f,  3.84246968e-02f,  2.27236785e-02f,
  6.30390793e-02f,  -5.19833043e-02f,  5.18953577e-02f,  -5.08222133e-02f,  3.54321226e-02f,  -2.24993899e-02f,  -4.24108841e-02f,  -3.59605439e-03f,
  -5.50677553e-02f,  -1.56408958e-02f,  1.05333302e-05f,  7.37976581e-02f,  1.44155510e-02f,  6.27899021e-02f,  -5.94764464e-02f,  1.45579195e-02f,
  5.97956143e-02f,  -4.72863130e-02f,  -3.61572839e-02f,  -3.17720510e-03f,  5.04501797e-02f,  -4.95802723e-02f,  -3.86229716e-02f,  -2.48129424e-02f,
  7.14863045e-03f,  4.56551723e-02f,  -5.28502278e-02f,  1.03566842e-02f,  8.89067259e-03f,  -2.54463982e-02f,  -4.21723984e-02f,  3.63208428e-02f,
  -5.18686958e-02f,  3.65487449e-02f,  6.31941259e-02f,  -2.07650177e-02f,  1.13875307e-02f,  3.57442610e-02f,  -4.84243743e-02f,  -3.59084867e-02f,
  -2.41164509e-02f,  5.68671674e-02f,  4.52790819e-02f,  6.75075725e-02f,  5.63033521e-02f,  -5.96546866e-02f,  1.85559429e-02f,  -8.58239159e-02f,
  -3.15426625e-02f,  8.05320442e-02f,  -6.84661120e-02f,  -3.14854719e-02f,  -3.80168594e-02f,  5.44022396e-02f,  -6.02405071e-02f,  -6.09812550e-02f,
  -5.80394361e-03f,  -3.46110091e-02f,  7.76336668e-03f,  -7.38063455e-03f,  -2.06442252e-02f,  7.06908703e-02f,  2.12504044e-02f,  -4.36078534e-02f,
  -1.47807850e-02f,  9.76206176e-03f,  4.38465923e-02f,  -1.03162033e-02f,  4.10703346e-02f,  1.37078539e-02f,  -5.35671376e-02f,  -3.99991032e-03f,
  6.23220094e-02f,  -3.61490995e-03f,  -3.36046927e-02f,  5.52848242e-02f,  -5.66785112e-02f,  -5.93741201e-02f,  7.71366581e-02f,  -6.71407999e-03f,
  4.34189774e-02f,  5.98892085e-02f,  3.66145782e-02f,  4.88715209e-02f,  -1.50647461e-02f,  -6.41720518e-02f,  1.12030152e-02f,  -7.13661835e-02f,
  4.17641923e-03f,  2.96041723e-02f,  1.26480144e-02f,  -6.12300560e-02f,  -6.63306788e-02f,  -1.22605423e-02f,  -6.94230795e-02f,  4.49445024e-02f,
  7.60899857e-02f,  5.65906167e-02f,  2.82389224e-02f,  -5.60241453e-02f,  7.84063116e-02f,  7.13185221e-02f,  3.86134572e-02f,  3.97497695e-03f,
  -5.37292920e-02f,  4.98243161e-02f,  3.19573991e-02f,  5.44972345e-03f,  6.61285594e-02f,  -2.20209491e-02f,  2.39745602e-02f,  6.72381883e-03f,
  -3.17681022e-02f,  7.42409751e-02f,  -4.83745337e-03f,  -4.02383655e-02f,  -1.16277458e-02f,  -6.49782568e-02f,  3.65241393e-02f,  4.90192845e-02f,
  1.43543743e-02f,  4.22017574e-02f,  4.10861671e-02f,  -2.69000717e-02f,  2.33269781e-02f,  -2.90813074e-02f,  6.50247857e-02f,  -2.50243433e-02f,
  -2.26571653e-02f,  -5.75445127e-03f,  -3.55024263e-02f,  -4.83589545e-02f,  -5.71705885e-02f,  -6.69565126e-02f,  7.55218137e-03f,  -6.91757724e-02f,
  5.80464564e-02f,  -5.10608591e-02f,  7.72345737e-02f,  -4.98518795e-02f,  -7.39885867e-02f,  -2.63222232e-02f,  -4.48625609e-02f,  5.72219901e-02f,
  2.39252280e-02f,  6.17382750e-02f,  6.40572980e-02f,  7.08903372e-02f,  -1.72873680e-02f,  5.16382931e-03f,  4.24299836e-02f,  4.85210754e-02f,
  6.81362227e-02f,  1.54552003e-02f,  -2.84892935e-02f,  3.89709696e-02f,  -4.80470546e-02f,  -3.79063329e-03f,  6.13273233e-02f,  6.17074519e-02f,
  2.59625800e-02f,  4.24981192e-02f,  -6.44662753e-02f,  -4.29720879e-02f,  1.04679838e-02f,  5.56803606e-02f,  3.43192555e-03f,  4.12264653e-02f,
  -8.32278058e-02f,  -7.15859234e-02f,  -5.22178262e-02f,  5.75086102e-02f,  4.56747971e-02f,  4.08404209e-02f,  -6.02510534e-02f,  2.50417851e-02f,
  4.77610901e-02f,  4.60307486e-02f,  -7.14587644e-02f,  6.17565550e-02f,  7.92132765e-02f,  2.75353361e-02f,  7.75910541e-02f,  3.48182134e-02f,
  -2.73232069e-02f,  -1.37705263e-02f,  4.93045934e-02f,  6.49695285e-03f,  -5.28217629e-02f,  -6.03589416e-02f,  -1.50745651e-02f,  -6.79567531e-02f,
  -2.72077955e-02f,  2.59731114e-02f,  1.91118661e-02f,  3.50358151e-02f,  -2.65102331e-02f,  -6.24564327e-02f,  6.40997067e-02f,  1.61359087e-02f,
  2.60471459e-02f,  -1.71720982e-03f,  -7.69123584e-02f,  1.92384105e-02f,  -4.34970483e-02f,  5.15835248e-02f,  -6.13358021e-02f,  3.09576895e-02f,
  4.97271977e-02f,  2.01276615e-02f,  -6.62808791e-02f,  -4.49304655e-02f,  1.27090598e-02f,  3.80346365e-02f,  4.81127203e-03f,  -3.76235954e-02f,
  -3.89539194e-03f,  3.53035927e-02f,  -3.35345604e-02f,  -5.42250797e-02f,  4.11823131e-02f,  -5.10979891e-02f,  6.21265173e-02f,  4.24160361e-02f,
  8.27204809e-02f,  3.17711867e-02f,  2.08530128e-02f,  -2.40811519e-02f,  -6.90586749e-04f,  1.40048598e-03f,  -3.03650256e-02f,  5.52678332e-02f,
  -4.51474590e-03f,  6.05010539e-02f,  2.94178389e-02f,  -4.60180826e-02f,  -3.64227630e-02f,  1.45139061e-02f,  -1.41214915e-02f,  -1.84685495e-02f,
  -5.53178452e-02f,  2.98062935e-02f,  -1.72803495e-02f,  4.23258431e-02f,  6.37313873e-02f,  -6.65432140e-02f,  2.83385981e-02f,  -1.33007457e-02f,
  -2.99368892e-02f,  -5.19758873e-02f,  -5.09849750e-02f,  5.30710220e-02f,  3.42184119e-02f,  -1.70729812e-02f,  5.60198016e-02f,  -2.15551723e-02f,
  -4.50427830e-02f,  -4.70595956e-02f,  2.77909860e-02f,  -7.22053722e-02f,  3.60841490e-02f,  -4.49738652e-03f,  1.17669711e-02f,  3.37147750e-02f,
  -7.48114102e-03f,  -6.08758889e-02f,  -7.37798363e-02f,  6.89464137e-02f,  4.01118845e-02f,  -5.84730171e-02f,  -7.17923641e-02f,  -6.64489940e-02f,
  -5.84440678e-02f,  2.13446133e-02f,  3.44107067e-03f,  3.49331498e-02f,  -1.71660855e-02f,  4.07096408e-02f,  5.83673902e-02f,  2.34932397e-02f,
  2.65957061e-02f,  2.04550121e-02f,  -4.79017906e-02f,  -4.75866869e-02f,  2.14907993e-02f,  7.68888891e-02f,  -9.92371887e-03f,  5.01135066e-02f,
  2.61494275e-02f,  4.35551591e-02f,  8.10233727e-02f,  -1.82115510e-02f,  -9.84315947e-03f,  -5.50144129e-02f,  5.37302196e-02f,  3.08421794e-02f,
  1.19893309e-02f,  -5.18264994e-02f,  -1.05142258e-02f,  8.98038670e-02f,  -3.96231003e-02f,  -7.66734928e-02f,  -1.92500427e-02f,  -3.03124245e-02f,
  -3.16706039e-02f,  9.27715003e-02f,  -5.44542260e-03f,  -8.33438057e-03f,  -6.04074746e-02f,  -1.63537887e-04f,  4.80613150e-02f,  5.61771952e-02f,
  8.38200003e-02f,  -2.92247292e-02f,  7.29366019e-03f,  -6.48017973e-02f,  -2.70940661e-02f,  7.12262616e-02f,  2.53640302e-02f,  1.41645744e-02f,
  -2.21210942e-02f,  -3.82345207e-02f,  5.50360642e-02f,  -1.96272414e-02f,  5.18588759e-02f,  2.95555592e-02f,  5.58279902e-02f,  -7.24181682e-02f,
  4.96986322e-02f,  4.12956178e-02f,  2.83481218e-02f,  -6.10322952e-02f,  -4.34531085e-02f,  -3.32754068e-02f,  -2.56658364e-02f,  5.10081761e-02f,
  -2.50103064e-02f,  2.66909599e-02f,  -4.08580119e-04f,  3.10959071e-02f,  2.15801299e-02f,  2.29919478e-02f,  -5.34986705e-02f,  -7.28940517e-02f,
  -6.82766140e-02f,  4.48139049e-02f,  -4.24792320e-02f,  -2.14683171e-02f,  -3.66508476e-02f,  -4.83640842e-02f,  7.28584677e-02f,  -5.40743396e-02f,
  8.38716924e-02f,  7.83230644e-03f,  -4.45401147e-02f,  -9.93549824e-03f,  2.45057605e-02f,  -1.87783148e-02f,  2.41779312e-02f,  -5.36414161e-02f,
  -6.78964108e-02f,  -3.47267203e-02f,  7.57012516e-02f,  5.36034640e-04f,  -4.32156362e-02f,  -2.70645525e-02f,  6.04656409e-04f,  -3.82182412e-02f,
  5.87075390e-02f,  5.38164563e-02f,  -3.38702137e-03f,  -2.37306952e-02f,  7.66344219e-02f,  -5.14032654e-02f,  -4.16553840e-02f,  -4.14633341e-02f,
  3.17106419e-03f,  2.94520445e-02f,  7.53624588e-02f,  5.10885902e-02f,  -4.05925363e-02f,  6.81027099e-02f,  -5.52759990e-02f,  5.17970771e-02f,
  -7.92802498e-02f,  -4.34758924e-02f,  5.52992821e-02f,  5.88590093e-02f,  5.28079830e-02f,  -3.03323604e-02f,  5.91143072e-02f,  -4.32876386e-02f,
  -2.27980018e-02f,  -3.43052782e-02f,  -6.46291077e-02f,  4.74110432e-02f,  -3.10472045e-02f,  -7.66665414e-02f,  5.29013015e-02f,  5.84667735e-02f,
  1.31756281e-02f,  8.35738033e-02f,  1.82716921e-02f,  -2.16267463e-02f,  6.76231878e-03f,  -2.30004750e-02f,  4.99141552e-02f,  -7.96974525e-02f,
  1.23591721e-03f,  5.08720167e-02f,  -3.52219567e-02f,  5.15331700e-02f,  5.69320703e-03f,  2.97755022e-02f,  -6.88787699e-02f,  -2.16309614e-02f,
  9.70571786e-02f,  9.46147554e-03f,  2.88232826e-02f,  -4.87216264e-02f,  8.68773237e-02f,  5.08248992e-02f,  -3.59394960e-02f,  -4.12980840e-02f,
  -4.62628156e-02f,  5.14065363e-02f,  5.53789623e-02f,  -4.69849817e-02f,  8.20407718e-02f,  8.39142501e-03f,  -7.73394946e-03f,  4.48706336e-02f,
  6.86818659e-02f,  -4.53729853e-02f,  -6.35213777e-02f,  -7.28951022e-02f,  7.10141435e-02f,  -4.83785681e-02f,  -4.69846763e-02f,  4.24744077e-02f,
  8.14850405e-02f,  -3.33139896e-02f,  3.28025520e-02f,  -5.82088903e-02f,  4.64552194e-02f,  -2.97403038e-02f,  -1.86675135e-02f,  2.70531327e-02f,
  5.40777743e-02f,  -4.81541567e-02f,  5.24880998e-02f,  -8.21781754e-02f,  1.69372689e-02f,  3.00828796e-02f,  3.08437869e-02f,  -7.12491572e-04f,
  -6.79623522e-03f,  4.37663645e-02f,  -2.72611957e-02f,  8.01005960e-02f,  6.46049082e-02f,  -2.44474132e-02f,  -5.18658534e-02f,  2.91352049e-02f,
  1.62171986e-04f,  2.90711205e-02f,  -7.47286677e-02f,  -1.75900664e-02f,  6.45085275e-02f,  -6.54300451e-02f,  -3.75926197e-02f,  -2.64652376e-03f,
  -6.14381768e-02f,  -2.46216636e-02f,  2.69538704e-02f,  -3.61468270e-02f,  3.65499109e-02f,  -1.46664372e-02f,  -4.88927141e-02f,  7.07498044e-02f,
  -1.41469747e-01f,  4.28256728e-02f,  4.70188670e-02f,  5.35668433e-02f,  -5.95518760e-02f,  -1.11227214e-01f,  -1.11542553e-01f,  -4.27305028e-02f,
  8.04833770e-02f,  4.62967195e-02f,  -1.90248322e-02f,  1.02198511e-01f,  -1.29509866e-02f,  -9.77353007e-03f,  1.29437223e-01f,  -3.30813155e-02f,
  -6.59354776e-02f,  2.91429516e-02f,  1.51514336e-02f,  2.08193483e-03f,  -6.73057437e-02f,  2.95468941e-02f,  -8.41321200e-02f,  4.09983285e-02f,
  3.09728216e-02f,  -4.14744392e-02f,  -3.83471958e-02f,  -5.48711158e-02f,  1.02751978e-01f,  1.08935088e-01f,  -9.31522716e-03f,  6.51812553e-03f,
  3.67096923e-02f,  2.35009715e-02f,  -4.23439592e-03f,  9.23281163e-02f,  -2.39144769e-02f,  -3.96610014e-02f,  -1.24171853e-01f,  4.46238965e-02f,
  -3.25990431e-02f,  -7.29925260e-02f,  -6.27738535e-02f,  1.72969187e-04f,  -3.66224647e-02f,  -2.42812373e-02f,  4.34975028e-02f,  5.49521782e-02f,
  -5.90094132e-03f,  -7.33279064e-02f,  9.21039134e-02f,  1.05617568e-01f,  -4.97133583e-02f,  3.11990008e-02f,  -1.02819070e-01f,  -6.37690425e-02f,
  -3.30009535e-02f,  1.15268894e-01f,  -6.52421340e-02f,  -2.97966972e-02f,  -1.09570839e-01f,  8.92678350e-02f,  -5.82008064e-02f,  -5.71200624e-02f,
  -2.40027346e-02f,  -4.01066840e-02f,  8.91598240e-02f,  -5.60149737e-02f,  9.76729020e-03f,  -7.55768940e-02f,  -8.91125426e-02f,  -6.22145720e-02f,
  1.27274347e-02f,  4.96344008e-02f,  1.16740530e-02f,  7.08160177e-02f,  -7.86809772e-02f,  8.14773142e-03f,  -1.36586577e-02f,  -8.43340755e-02f,
  -4.47831228e-02f,  3.91170382e-02f,  -1.09175518e-02f,  -1.94865819e-02f,  3.59051600e-02f,  -6.38232976e-02f,  1.12603670e-02f,  -4.65354882e-02f,
  4.56462018e-02f,  -5.42481523e-03f,  4.04221565e-02f,  -3.43094431e-02f,  -1.78156886e-02f,  9.83262137e-02f,  -8.90091956e-02f,  -4.81362231e-02f,
  5.99823296e-02f,  -1.41822593e-02f,  -4.33651470e-02f,  5.66812418e-03f,  2.73980070e-02f,  -5.26005737e-02f,  -4.63554682e-03f,  1.68192834e-02f,
  -6.83820322e-02f,  -6.06928542e-02f,  -4.65369374e-02f,  5.84531315e-02f,  -4.23367955e-02f,  -5.30792326e-02f,  -1.00928708e-03f,  2.58651897e-02f,
  -8.25046934e-03f,  5.18195406e-02f,  3.48470057e-03f,  1.50520802e-02f,  -4.77428362e-02f,  2.36278940e-02f,  -3.93099710e-02f,  -5.60971797e-02f,
  6.72612339e-02f,  -3.10577005e-02f,  -1.74207869e-03f,  5.58778867e-02f,  -6.55288994e-02f,  7.93148652e-02f,  -5.06250262e-02f,  1.20856911e-02f,
  7.43795857e-02f,  5.48255108e-02f,  5.53700738e-02f,  -4.42322567e-02f,  -4.43369821e-02f,  1.78045128e-02f,  9.21712667e-02f,  7.69118667e-02f,
  -3.21349725e-02f,  2.99218558e-02f,  9.40120518e-02f,  -6.34028390e-02f,  -3.56464386e-02f,  5.84497303e-03f,  -6.50759339e-02f,  4.20014578e-04f,
  -2.29324345e-02f,  -4.35842723e-02f,  -1.07094944e-02f,  -5.78187741e-02f,  6.70053512e-02f,  4.24690247e-02f,  7.59395212e-03f,  1.01149539e-02f,
  4.30062599e-02f,  9.50188562e-02f,  3.12122144e-02f,  -8.54263008e-02f,  -7.21632615e-02f,  -4.96277548e-02f,  6.85844645e-02f,  6.01012968e-02f,
  -1.60530023e-02f,  -4.53540236e-02f,  -2.81432993e-03f,  -4.08595838e-02f,  -6.45389631e-02f,  -4.91227210e-02f,  -2.97590122e-02f,  4.43498045e-03f,
  6.75636753e-02f,  -1.30330399e-02f,  -2.46494338e-02f,  7.34648556e-02f,  -1.50963664e-03f,  -4.03490849e-02f,  -6.65047541e-02f,  -6.23558424e-02f,
  5.22299185e-02f,  4.42661978e-02f,  -1.08339516e-02f,  -3.71454917e-02f,  -1.03259673e-02f,  -5.13430946e-02f,  1.95689611e-02f,  -5.63326962e-02f,
  5.06080985e-02f,  4.22439091e-02f,  1.26052666e-02f,  -6.33838251e-02f,  3.43669839e-02f,  6.90353662e-02f,  6.15147948e-02f,  2.50579119e-02f,
  6.61203489e-02f,  4.91384640e-02f,  1.12006357e-02f,  -2.32671201e-03f,  7.19462037e-02f,  -3.40117626e-02f,  3.56334262e-02f,  -1.81582924e-02f,
  -3.07955202e-02f,  -2.36018337e-02f,  -2.84887888e-02f,  6.83178604e-02f,  7.31768273e-03f,  -4.98331301e-02f,  3.51458937e-02f,  -6.14791214e-02f,
  -3.23194228e-02f,  -6.56221882e-02f,  -8.95182695e-03f,  2.30494831e-02f,  4.20521609e-02f,  -4.36960123e-02f,  5.14033474e-02f,  7.10428655e-02f,
  -4.37242053e-02f,  3.03076976e-03f,  4.13346738e-02f,  4.22237627e-02f,  -4.77276929e-02f,  -9.25626978e-03f,  -6.70184344e-02f,  -7.99811333e-02f,
  -4.12532538e-02f,  -1.73179917e-02f,  1.09504105e-03f,  7.37574399e-02f,  -2.47188080e-02f,  -7.64152929e-02f,  6.21775538e-02f,  -3.05211265e-02f,
  6.06235452e-02f,  -2.48334631e-02f,  -4.90179211e-02f,  -1.60387233e-02f,  -3.90746556e-02f,  1.35948332e-02f,  6.27970323e-02f,  4.87920120e-02f,
  -4.15669270e-02f,  2.43432965e-04f,  1.73085947e-02f,  4.07732204e-02f,  -5.91008142e-02f,  1.61238313e-02f,  -1.92661062e-02f,  -2.43380032e-02f,
  -7.17721554e-03f,  4.85650487e-02f,  -2.24785693e-02f,  4.08791304e-02f,  5.78469075e-02f,  -5.25994413e-02f,  -4.15540785e-02f,  5.25211543e-02f,
  6.48579597e-02f,  7.50691891e-02f,  4.09408323e-02f,  7.20836222e-04f,  -6.63008690e-02f,  1.00903185e-02f,  -1.99139062e-02f,  -3.27389576e-02f,
  2.98624542e-02f,  -3.95011082e-02f,  -4.50600423e-02f,  -7.20909536e-02f,  1.43514369e-02f,  5.01519963e-02f,  2.41693612e-02f,  -1.32794073e-02f,
  -6.40248656e-02f,  4.14646827e-02f,  -2.26087812e-02f,  1.46339787e-02f,  -9.14948061e-03f,  -2.22594608e-02f,  -3.08004376e-02f,  6.29231194e-03f,
  5.59226386e-02f,  4.22043446e-03f,  -5.16952723e-02f,  -2.08254550e-02f,  -4.53165062e-02f,  -6.25510141e-02f,  -3.92873213e-02f,  3.74110527e-02f,
  -5.95507361e-02f,  2.40387544e-02f,  6.54010102e-02f,  -7.79149309e-02f,  -2.49397606e-02f,  2.56490204e-02f,  7.47336447e-02f,  6.14127368e-02f,
  -4.67501916e-02f,  3.30368206e-02f,  3.05234771e-02f,  1.65204648e-02f,  -2.51735616e-02f,  4.62275371e-02f,  -5.76107465e-02f,  -5.80794588e-02f,
  6.02292269e-02f,  2.11135186e-02f,  6.81993812e-02f,  -5.34260944e-02f,  2.57623363e-02f,  -7.15363920e-02f,  2.05852129e-02f,  -5.31134754e-02f,
  -2.91699674e-02f,  8.89190845e-03f,  -5.55098690e-02f,  2.59343423e-02f,  1.90691687e-02f,  -1.83016080e-02f,  5.52453846e-03f,  -4.97664288e-02f,
  6.58596903e-02f,  -1.94630789e-04f,  -7.14968964e-02f,  3.91250998e-02f,  -4.42652367e-02f,  -4.68087420e-02f,  6.03042543e-02f,  -2.19184346e-02f,
  6.77715987e-02f,  -1.52680818e-02f,  4.58786674e-02f,  6.83294460e-02f,  5.79413548e-02f,  8.46471079e-03f,  -4.84816544e-02f,  6.51554242e-02f,
  2.77969632e-02f,  -2.59417035e-02f,  1.22750551e-02f,  8.41843337e-03f,  -1.93056725e-02f,  -7.90559575e-02f,  -5.49888797e-03f,  8.81447643e-03f,
  3.62676047e-02f,  4.97241244e-02f,  8.15657973e-02f,  -3.79403569e-02f,  -5.04207499e-02f,  3.56760956e-02f,  -2.80241929e-02f,  3.29074613e-03f,
  5.59520628e-03f,  5.43234982e-02f,  -9.51906014e-03f,  7.17165938e-04f,  -4.31293026e-02f,  -7.75124431e-02f,  4.58398126e-02f,  -4.32221740e-02f,
  6.55210838e-02f,  9.44516808e-03f,  -7.49077722e-02f,  -1.77561752e-02f,  3.27934921e-02f,  -9.00835451e-03f,  -1.40603399e-02f,  1.91573948e-02f,
  5.47001883e-02f,  -3.15869264e-02f,  -5.64516410e-02f,  5.54174222e-02f,  -4.83079143e-02f,  6.04261458e-02f,  -8.80451221e-03f,  -4.73214090e-02f,
  -7.17455968e-02f,  7.19936118e-02f,  6.62213042e-02f,  -4.41934615e-02f,  -1.46918120e-02f,  -6.80956710e-03f,  5.67636639e-03f,  -3.71462740e-02f,
  3.64135392e-02f,  7.79709667e-02f,  2.66514122e-02f,  3.80320325e-02f,  2.61401907e-02f,  -2.59332848e-03f,  4.56493087e-02f,  -3.62672377e-03f,
  5.58190458e-02f,  -6.24089800e-02f,  -3.15765366e-02f,  7.15480046e-03f,  3.23636010e-02f,  -6.72782212e-02f,  -6.24619573e-02f,  3.10988575e-02f,
  -2.23322511e-02f,  -4.60760221e-02f,  1.96756776e-02f,  2.35524382e-02f,  3.28027084e-02f,  -4.18454334e-02f,  2.87604928e-02f,  -1.70318801e-02f,
  6.40422851e-02f,  -2.30210349e-02f,  4.00122330e-02f,  5.03594354e-02f,  7.62607902e-02f,  -4.25708368e-02f,  -4.14812192e-02f,  -3.27379256e-02f,
  -6.93335570e-03f,  -1.03360135e-02f,  -1.14208115e-02f,  -1.83220748e-02f,  1.52829131e-02f,  1.83216874e-02f,  -6.19423750e-04f,  -6.32036924e-02f,
  2.95023639e-02f,  4.31999043e-02f,  5.07763997e-02f,  -1.71009731e-02f,  -2.57552378e-02f,  -7.88274631e-02f,  -6.24726787e-02f,  5.79315946e-02f,
  -5.28752469e-02f,  -2.51141135e-02f,  -6.97877109e-02f,  1.15872407e-02f,  8.37322250e-02f,  4.95319255e-02f,  4.51827347e-02f,  4.11205413e-03f,
  -2.77063716e-02f,  -1.47744454e-02f,  1.89477857e-02f,  7.57300034e-02f,  -3.38183343e-02f,  6.59164861e-02f,  3.60565856e-02f,  5.07630408e-02f,
  8.67462382e-02f,  -1.59306321e-02f,  3.23186107e-02f,  -6.39710128e-02f,  -5.69806620e-02f,  3.29493210e-02f,  3.92421558e-02f,  1.43198818e-02f,
  1.44525850e-02f,  4.98181768e-02f,  6.72982261e-02f,  9.57716606e-04f,  -2.14068554e-02f,  1.89307574e-02f,  -5.80347329e-02f,  3.18866894e-02f,
  -3.67088914e-02f,  7.50723183e-02f,  6.81195483e-02f,  -5.02791964e-02f,  4.00859900e-02f,  -7.83689693e-02f,  6.82756752e-02f,  4.24818918e-02f,
  1.34800724e-03f,  -4.85041402e-02f,  4.13641445e-02f,  1.15605155e-02f,  6.86928406e-02f,  -5.67471497e-02f,  4.74288967e-03f,  -5.62644564e-02f,
  -2.51747333e-02f,  -2.83688772e-02f,  -3.08980118e-03f,  1.23312846e-02f,  -5.56445867e-02f,  2.77513955e-02f,  9.28140618e-03f,  -1.67199802e-02f,
  -5.31304926e-02f,  -1.97964013e-02f,  -4.41394821e-02f,  3.42814066e-02f,  -3.63977142e-02f,  -2.58163828e-02f,  -4.89708520e-02f,  -9.20315553e-03f,
  -3.40670757e-02f,  4.88069244e-02f,  3.61917950e-02f,  5.29598631e-02f,  7.26748779e-02f,  -5.93195930e-02f,  -1.81139018e-02f,  -2.08962057e-02f,
  -7.28931427e-02f,  -2.86965854e-02f,  6.46162033e-02f,  6.79933727e-02f,  9.19162354e-04f,  6.78706020e-02f,  5.39876670e-02f,  7.24503398e-02f,
  7.21339807e-02f,  -2.73715071e-02f,  6.38779625e-02f,  -3.95490229e-03f,  -2.18668375e-02f,  -6.18051477e-02f,  -4.09370773e-02f,  -1.53039955e-02f,
  5.31042963e-02f,  5.49016986e-03f,  6.20796904e-02f,  4.63061258e-02f,  4.63952757e-02f,  -2.24540941e-02f,  -5.39863929e-02f,  7.42682517e-02f,
  3.58314961e-02f,  4.87254746e-02f,  4.56806039e-03f,  7.61148799e-03f,  4.73990627e-02f,  2.99432725e-02f,  -4.61679362e-02f,  5.30039929e-02f,
  -4.34749899e-03f,  -4.31047231e-02f,  7.67803285e-04f,  -3.82750034e-02f,  7.63439462e-02f,  -5.02922721e-02f,  -4.82868627e-02f,  2.18102615e-02f,
  5.15469350e-02f,  -5.53783812e-02f,  -3.63819078e-02f,  -3.63033004e-02f,  -6.03377335e-02f,  -2.70416066e-02f,  -1.85244363e-02f,  6.30378574e-02f,
  -6.02079667e-02f,  -2.89623924e-02f,  -2.06540953e-02f,  1.37159768e-02f,  -5.13856485e-02f,  -7.40079507e-02f,  -8.28393102e-02f,  5.66588640e-02f,
  -1.07538262e-02f,  9.03986115e-03f,  6.55776858e-02f,  2.50271391e-02f,  1.29382666e-02f,  -6.56278804e-02f,  2.93783452e-02f,  -7.62490556e-02f,
  3.42807546e-02f,  -2.11287122e-02f,  -2.93853637e-02f,  6.66084960e-02f,  -4.43543456e-02f,  -4.98379804e-02f,  -3.22958939e-02f,  3.08717191e-02f,
  -1.24288183e-02f,  -2.07268517e-03f,  -3.80106531e-02f,  4.54008579e-02f,  -1.56506915e-02f,  5.34357466e-02f,  -2.76587345e-02f,  -5.75097688e-02f,
  5.04590645e-02f,  4.55072336e-02f,  5.28117791e-02f,  7.47264400e-02f,  -6.00907058e-02f,  -1.76388621e-02f,  6.82645813e-02f,  7.35451803e-02f,
  -3.27231735e-03f,  -5.61268292e-02f,  -6.76168501e-02f,  6.64603710e-02f,  -1.51946703e-02f,  3.15566473e-02f,  2.73569841e-02f,  1.00433081e-02f,
  6.15339987e-02f,  7.32836127e-03f,  1.11719333e-02f,  3.93815748e-02f,  5.01180477e-02f,  3.07211597e-02f,  -4.78554703e-02f,  -5.47917597e-02f,
  6.57209530e-02f,  -2.82537080e-02f,  2.47325413e-02f,  2.97330823e-02f,  -3.88572179e-02f,  3.93545516e-02f,  -5.03692019e-04f,  4.26618208e-04f,
  -4.72347401e-02f,  7.35242516e-02f,  -1.02118142e-02f,  6.66790232e-02f,  -5.27885705e-02f,  1.37592014e-02f,  -7.12264935e-03f,  -6.47610053e-02f,
  5.45644276e-02f,  -5.15610091e-02f,  6.72851801e-02f,  -1.61675978e-02f,  7.12569579e-02f,  2.66885888e-02f,  -6.68057352e-02f,  -5.96129224e-02f,
  6.26222417e-02f,  2.05284934e-02f,  -3.34153585e-02f,  1.14031732e-02f,  -4.74746712e-02f,  -1.51049867e-02f,  3.18830609e-02f,  1.21920258e-02f,
  -1.04978802e-02f,  4.16430421e-02f,  -1.35315033e-02f,  -5.22339009e-02f,  -1.59709547e-02f,  5.94246797e-02f,  -5.81342019e-02f,  -2.42105946e-02f,
  4.93658669e-02f,  -2.09644716e-02f,  6.22393861e-02f,  -2.14338508e-02f,  1.07108597e-02f,  3.13335210e-02f,  3.71152128e-04f,  -7.03418255e-03f,
  -1.50207477e-02f,  -1.49318678e-02f,  -1.57609824e-02f,  1.57137663e-04f,  1.75838005e-02f,  -1.91540066e-02f,  3.27836699e-03f,  5.77525534e-02f,
  1.92208169e-03f,  -5.29032759e-02f,  2.78120637e-02f,  1.02429306e-02f,  7.47032315e-02f,  -6.43377453e-02f,  2.58766674e-02f,  2.35847756e-02f,
  -3.11009642e-02f,  3.14432979e-02f,  -2.56735310e-02f,  2.21644957e-02f,  6.08727299e-02f,  5.13393581e-02f,  -3.58075672e-03f,  1.92078743e-02f,
  5.53496964e-02f,  -1.33354217e-03f,  2.73776464e-02f,  5.58529049e-02f,  -4.63832580e-02f,  1.06731278e-03f,  3.65668088e-02f,  4.17128392e-02f,
  -1.79854836e-02f,  2.29026731e-02f,  1.88008454e-02f,  3.49080563e-02f,  2.21971199e-02f,  5.45055754e-02f,  4.44560274e-02f,  4.57914732e-02f,
  -7.33430088e-02f,  -4.66956906e-02f,  7.33710453e-02f,  5.86945601e-02f,  -2.19134074e-02f,  -6.82490990e-02f,  4.30801958e-02f,  1.88232288e-02f,
  -4.45984751e-02f,  5.37627339e-02f,  2.27582604e-02f,  3.46297249e-02f,  7.15375990e-02f,  -5.66180944e-02f,  -3.40258740e-02f,  2.10546842e-03f,
  4.33515944e-02f,  1.33269913e-02f,  -4.75764349e-02f,  4.19484489e-02f,  -7.46712908e-02f,  6.50043190e-02f,  3.69987339e-02f,  9.51778516e-03f,
  -6.52739033e-02f,  6.95838183e-02f,  -6.51262701e-03f,  -6.36296794e-02f,  -5.19575514e-02f,  6.08096421e-02f,  2.70998739e-02f,  -1.68380029e-02f,
  6.92562684e-02f,  3.78836989e-02f,  6.74889758e-02f,  -8.02042778e-04f,  4.26495336e-02f,  7.79693201e-02f,  -4.03703563e-02f,  5.66488951e-02f,
  -4.56754677e-02f,  4.03156653e-02f,  -5.87252378e-02f,  -1.76167749e-02f,  7.02170953e-02f,  5.78180365e-02f,  -8.13873485e-03f,  -2.15763748e-02f,
  -6.89974874e-02f,  -4.56083938e-02f,  -1.86067671e-02f,  -1.98602192e-02f,  3.46799195e-03f,  3.37449238e-02f,  6.20563142e-02f,  -4.23237532e-02f,
  -1.97952576e-02f,  7.07342774e-02f,  -1.21779107e-02f,  4.77772811e-03f,  -2.24361196e-02f,  3.69728133e-02f,  -2.73092650e-02f,  -2.23054886e-02f,
  -4.09639627e-02f,  6.98579922e-02f,  -5.65764084e-02f,  -7.28774220e-02f,  2.14850232e-02f,  6.53644055e-02f,  1.09392405e-02f,  -3.02009247e-02f,
  -4.12580967e-02f,  -2.97965948e-02f,  -2.54605934e-02f,  -7.07123429e-03f,  4.81521599e-02f,  -9.95802414e-03f,  7.16587668e-03f,  7.83209205e-02f,
  -4.38179411e-02f,  -4.42048199e-02f,  4.20836955e-02f,  9.60766058e-03f,  -6.44280240e-02f,  1.47476932e-02f,  -1.99214686e-02f,  -4.64467891e-03f,
  5.65912426e-02f,  -4.87993881e-02f,  -7.53359944e-02f,  7.91235082e-03f,  2.89046355e-02f,  -2.64563411e-02f,  5.32465875e-02f,  4.12283465e-02f,
  7.74666965e-02f,  7.22387135e-02f,  3.25919106e-03f,  -4.44873758e-02f,  8.20298642e-02f,  -3.39925699e-02f,  4.92965542e-02f,  -2.09026486e-02f,
  -7.25649372e-02f,  2.91306097e-02f,  4.92659062e-02f,  1.94759364e-03f,  -1.60685405e-02f,  -1.80261247e-02f,  -4.31485362e-02f,  -5.21577485e-02f,
  5.03565464e-03f,  5.21238595e-02f,  5.67956716e-02f,  -3.83446217e-02f,  -6.77520558e-02f,  -4.18657716e-03f,  4.00892831e-02f,  7.05293790e-02f,
  3.91594730e-02f,  -2.92071626e-02f,  -5.11030853e-02f,  4.95136976e-02f,  6.37227222e-02f,  -6.06530681e-02f,  -1.01144277e-02f,  -5.41199408e-02f,
  3.20342407e-02f,  7.45905116e-02f,  8.21009204e-02f,  -6.32562414e-02f,  2.09970269e-02f,  -5.17304689e-02f,  4.98860329e-03f,  1.56104416e-02f,
  -6.24127835e-02f,  -5.15588038e-02f,  -5.97992055e-02f,  6.05817586e-02f,  5.34567274e-02f,  -1.53533611e-02f,  -1.99768879e-02f,  2.33732909e-02f,
  -3.23238820e-02f,  -4.84935008e-02f,  5.21100089e-02f,  4.45840787e-03f,  4.56301011e-02f,  6.71412051e-02f,  -2.33243667e-02f,  5.71551695e-02f,
  -6.08865097e-02f,  1.67853441e-02f,  -7.73174614e-02f,  -9.47343837e-03f,  4.67468500e-02f,  -1.66726299e-02f,  9.86482948e-03f,  -1.75830722e-02f,
  -4.55438681e-02f,  5.53814471e-02f,  2.86381487e-02f,  -2.85542607e-02f,  -5.64543568e-02f,  -1.51569946e-02f,  3.49343871e-03f,  -7.88869262e-02f,
  2.47104727e-02f,  1.95500068e-02f,  -4.68380973e-02f,  -3.10156960e-03f,  4.32459973e-02f,  6.80035502e-02f,  3.55017595e-02f,  4.61262651e-02f,
  4.10184674e-02f,  4.78365049e-02f,  -6.86485991e-02f,  1.63811427e-02f,  -1.60863418e-02f,  -1.32752880e-02f,  -5.25208637e-02f,  1.54005252e-02f,
  5.42990118e-02f,  -7.81500712e-03f,  7.23765790e-02f,  -1.05604976e-02f,  -6.67450130e-02f,  -9.72033292e-03f,  -4.83754743e-03f,  2.83555157e-04f,
  1.32528218e-02f,  5.46420403e-02f,  1.10464310e-02f,  -1.04783606e-02f,  2.22168770e-02f,  4.15004566e-02f,  6.13824725e-02f,  -1.40729770e-02f,
  4.03939411e-02f,  -6.04800992e-02f,  -5.69148622e-02f,  6.23295605e-02f,  6.10341132e-02f,  -4.24554124e-02f,  3.77352014e-02f,  -3.69436145e-02f,
  -4.67384979e-02f,  4.43577990e-02f,  -2.87537482e-02f,  -6.27062656e-03f,  3.54068764e-02f,  1.76338498e-02f,  5.97227439e-02f,  -4.59076688e-02f,
  -9.41844843e-03f,  1.98046044e-02f,  1.18434185e-03f,  -1.80113278e-02f,  4.47509736e-02f,  9.77963489e-03f,  3.44152264e-02f,  5.75334541e-02f,
  7.62466937e-02f,  -3.50520536e-02f,  -2.81762518e-03f,  2.27482524e-02f,  -3.43468674e-02f,  6.68664044e-03f,  -2.90377531e-02f,  -4.86534238e-02f,
  -5.33951260e-02f,  1.61825400e-02f,  -7.79498667e-02f,  2.53291447e-02f,  4.42301258e-02f,  -3.23873311e-02f,  1.53194414e-02f,  3.66286039e-02f,
  6.55346438e-02f,  -5.42917624e-02f,  6.04644604e-02f,  -3.73821482e-02f,  6.19547255e-02f,  1.57785825e-02f,  3.46829109e-02f,  -1.18715353e-02f,
  -2.54765861e-02f,  -3.58960382e-03f,  2.15890892e-02f,  -6.46554213e-03f,  4.34746221e-02f,  3.29395607e-02f,  -1.50118116e-02f,  3.67879532e-02f,
  -3.31833810e-02f,  1.38394181e-02f,  -3.61542404e-02f,  2.08866168e-02f,  2.30997559e-02f,  -3.92223895e-02f,  2.86386833e-02f,  4.88805175e-02f,
  7.38867149e-02f,  6.15129732e-02f,  -1.98006127e-02f,  -3.42391469e-02f,  1.48773333e-03f,  -4.33207341e-02f,  6.79531023e-02f,  -4.49775942e-02f,
  2.60085110e-02f,  -6.23513311e-02f,  -6.15434721e-02f,  -5.57674803e-02f,  -3.12336367e-02f,  -7.38663003e-02f,  7.07841758e-03f,  -2.92409901e-02f,
  -3.49225663e-02f,  -6.31837845e-02f,  -3.64278629e-02f,  -3.30513455e-02f,  -4.81916927e-02f,  5.49473725e-02f,  -3.70112397e-02f,  -3.20870504e-02f,
  -2.39485912e-02f,  -1.51966698e-02f,  -1.72037687e-02f,  3.84116657e-02f,  -2.16689873e-02f,  -2.00333875e-02f,  2.80394014e-02f,  1.61115639e-02f,
  2.47311369e-02f,  4.49298732e-02f,  -1.72618069e-02f,  6.61057383e-02f,  -5.83389215e-02f,  -2.02649720e-02f,  6.88234046e-02f,  -4.22859192e-02f,
  -6.60260990e-02f,  -5.22603542e-02f,  -3.44670005e-02f,  -2.10552569e-02f,  -6.01392388e-02f,  -7.01692998e-02f,  -1.38722803e-03f,  -7.65157193e-02f,
  5.90421967e-02f,  3.85631993e-03f,  9.87181067e-03f,  -6.21172003e-02f,  5.25056086e-02f,  5.04146665e-02f,  2.06409227e-02f,  -7.97060207e-02f,
  1.59644037e-02f,  -5.43178767e-02f,  -3.57615091e-02f,  -6.59579858e-02f,  -4.03634906e-02f,  -3.32887881e-02f,  -5.20436577e-02f,  -4.70407121e-02f,
  -3.40486988e-02f,  4.47576493e-02f,  -3.06765251e-02f,  1.27285495e-02f,  2.96883634e-04f,  -1.31002236e-02f,  -4.41929884e-02f,  8.87183547e-02f,
  3.69848609e-02f,  3.14626321e-02f,  -7.27732033e-02f,  -1.31371412e-02f,  -4.49451208e-02f,  -2.12873369e-02f,  -4.89547066e-02f,  -3.72870229e-02f,
  4.16626595e-03f,  7.59133697e-03f,  -7.02408627e-02f,  6.18495047e-02f,  -1.11937765e-02f,  -3.44603956e-02f,  -2.15880387e-02f,  -6.70807883e-02f,
  -5.90291880e-02f,  -2.46411860e-02f,  3.27400193e-02f,  -1.28668491e-02f,  4.43112850e-02f,  -5.40704168e-02f,  4.25721593e-02f,  5.64967208e-02f,
  4.45815660e-02f,  1.40736997e-02f,  1.98554387e-03f,  -5.34231663e-02f,  6.66247774e-03f,  1.86876636e-02f,  1.85607783e-02f,  -7.33219832e-02f,
  -5.63641675e-02f,  -5.93055412e-02f,  4.19703946e-02f,  -5.56947663e-03f,  7.09697157e-02f,  1.43629974e-02f,  1.68154240e-02f,  4.06472273e-02f,
  -1.14147542e-02f,  -7.28464052e-02f,  5.63060679e-02f,  4.70522381e-02f,  -1.37882568e-02f,  1.95790324e-02f,  -1.25538222e-02f,  6.46363497e-02f,
  -9.23712924e-03f,  1.60274617e-02f,  -7.27745220e-02f,  6.49643391e-02f,  -2.95567513e-02f,  -1.03829894e-02f,  -2.44150348e-02f,  5.63334078e-02f,
  3.77768017e-02f,  5.63716404e-02f,  7.04576671e-02f,  -3.22832353e-02f,  -4.50120531e-02f,  7.70034492e-02f,  7.55571648e-02f,  -3.37661505e-02f,
  7.08051771e-02f,  -7.48466328e-02f,  2.13296823e-02f,  -7.93058053e-03f,  2.46947668e-02f,  -5.51635697e-02f,  -1.45600503e-02f,  1.42040811e-02f,
  -1.30750649e-02f,  -4.79187779e-02f,  6.75291643e-02f,  -1.06157837e-02f,  -4.23087180e-02f,  2.44703703e-02f,  4.73169871e-02f,  7.52013996e-02f,
  9.87075362e-03f,  -3.96623276e-02f,  -3.52630788e-03f,  3.24206799e-02f,  -1.55123249e-02f,  8.36644787e-03f,  -2.83174459e-02f,  -1.51156131e-02f,
  -5.65899611e-02f,  8.61458853e-03f,  -7.53356814e-02f,  1.92598777e-03f,  -3.28521356e-02f,  1.37327434e-02f,  4.29712497e-02f,  -3.46431211e-02f,
  -6.40180781e-02f,  2.06608251e-02f,  -1.45729596e-03f,  -5.21762064e-03f,  2.25137025e-02f,  6.33703247e-02f,  -7.05818161e-02f,  -4.28045429e-02f,
  4.36390787e-02f,  7.95233697e-02f,  -4.81335633e-03f,  -3.17504629e-02f,  -2.43242644e-02f,  -1.26592517e-02f,  5.92792518e-02f,  1.99509207e-02f,
  3.02511975e-02f,  -3.20914350e-02f,  1.48084741e-02f,  1.39409062e-02f,  -7.39912922e-03f,  5.94908148e-02f,  5.05015329e-02f,  1.41513944e-02f,
  8.30912739e-02f,  4.28916439e-02f,  -3.20939422e-02f,  2.92231515e-02f,  -1.64158344e-02f,  -5.12206480e-02f,  1.55810211e-02f,  -4.77873459e-02f,
  4.95014489e-02f,  5.44567732e-03f,  -5.38455248e-02f,  -4.38940078e-02f,  -5.96451499e-02f,  6.88797534e-02f,  -5.46607887e-03f,  -9.05070174e-03f,
  -4.63392399e-02f,  2.21059565e-02f,  -7.83767924e-02f,  1.57712202e-03f,  4.18625735e-02f,  -4.54919599e-02f,  -3.18832626e-03f,  -5.34639433e-02f,
  -4.00135592e-02f,  7.10141882e-02f,  3.74921635e-02f,  -4.14144434e-02f,  -2.59496868e-02f,  -4.61023301e-02f,  2.38458123e-02f,  4.87098582e-02f,
  4.20173295e-02f,  4.05249596e-02f,  1.47401504e-02f,  1.93399414e-02f,  5.47366403e-02f,  -7.94951692e-02f,  -4.77432124e-02f,  -1.03056924e-02f,
  -4.50774422e-03f,  -4.43781316e-02f,  5.33750579e-02f,  -4.01454009e-02f,  -5.39566427e-02f,  3.76688428e-02f,  -2.07849275e-02f,  -1.93599809e-03f,
  4.48822975e-02f,  5.54971732e-02f,  -1.96184758e-02f,  -3.75804007e-02f,  5.58089800e-02f,  5.63791730e-02f,  5.12029082e-02f,  -8.02898556e-02f,
  -5.90564832e-02f,  7.73333907e-02f,  -1.77310202e-02f,  -2.94700824e-02f,  -1.84567161e-02f,  -1.38826948e-02f,  -5.81610948e-03f,  -4.47582453e-02f,
  4.94405627e-02f,  3.28877643e-02f,  4.53747809e-03f,  7.37905204e-02f,  -4.38553654e-02f,  -2.57626176e-04f,  2.27878168e-02f,  1.14810914e-02f,
  -1.11281350e-02f,  -3.11408043e-02f,  -4.01615277e-02f,  3.24165076e-03f,  -7.13685155e-03f,  3.63067463e-02f,  5.32671809e-03f,  3.71893868e-02f,
  3.45416740e-02f,  1.68554932e-02f,  -4.96839955e-02f,  6.09318316e-02f,  2.07243636e-02f,  4.02086228e-02f,  3.03140953e-02f,  -2.33641081e-02f,
  2.40111798e-02f,  -1.83444135e-02f,  -4.69902679e-02f,  3.37508917e-02f,  -2.78552473e-02f,  -4.91238721e-02f,  3.41698527e-03f,  -4.70400043e-02f,
  -3.10540311e-02f,  -5.13845980e-02f,  -2.04408877e-02f,  -6.14083931e-02f,  7.05570728e-03f,  6.03179634e-03f,  4.04766202e-03f,  6.91746175e-03f,
  3.11233699e-02f,  3.65840420e-02f,  -3.38884257e-02f,  5.99002242e-02f,  1.92415193e-02f,  3.33383083e-02f,  -4.75711450e-02f,  -2.98880376e-02f,
  -3.26283798e-02f,  4.75497693e-02f,  5.80725521e-02f,  -1.39652044e-02f,  -5.66966981e-02f,  4.38801199e-02f,  -7.21657127e-02f,  -4.46940958e-02f,
  -6.10077567e-02f,  -2.92113461e-02f,  6.13321364e-03f,  5.77379912e-02f,  1.76381841e-02f,  2.17389837e-02f,  3.68082523e-03f,  -4.80473936e-02f,
  4.81305048e-02f,  4.13271338e-02f,  -2.15844661e-02f,  -5.11079729e-02f,  2.76366249e-02f,  -4.93088365e-03f,  -6.43076599e-02f,  2.72073448e-02f,
  -3.25405449e-02f,  4.64525446e-02f,  -3.80840488e-02f,  -3.32376510e-02f,  6.27979636e-02f,  1.88443363e-02f,  -4.83354777e-02f,  5.91998547e-02f,
  2.41284221e-02f,  -1.94692239e-02f,  -3.41592431e-02f,  -5.89233562e-02f,  1.72236934e-02f,  2.06364617e-02f,  6.32649660e-02f,  5.12409955e-03f,
  7.04097301e-02f,  5.36882728e-02f,  -4.59446907e-02f,  -6.07189536e-03f,  -7.18279108e-02f,  -5.31301722e-02f,  4.99563515e-02f,  3.67862359e-02f,
  -4.30426449e-02f,  5.47865629e-02f,  -3.64223979e-02f,  -5.61209582e-02f,  3.87181342e-03f,  -1.86156221e-02f,  1.51621476e-02f,  6.31078333e-02f,
  1.40285715e-02f,  -1.37165003e-02f,  -1.58008821e-02f,  -3.72117311e-02f,  4.22853380e-02f,  8.51476192e-03f,  -1.02790669e-02f,  6.73502684e-02f,
  7.10425824e-02f,  2.24986970e-02f,  -5.73341362e-02f,  8.08018446e-03f,  7.03243613e-02f,  2.59424299e-02f,  6.95261061e-02f,  -7.21539706e-02f,
  4.35507298e-02f,  -1.81506574e-03f,  -9.35377181e-03f,  -5.07612862e-02f,  -3.76463942e-02f,  6.88080192e-02f,  -2.86118649e-02f,  -4.38867211e-02f,
  -5.98736219e-02f,  -6.14534877e-03f,  -2.62822136e-02f,  7.35007524e-02f,  4.63275947e-02f,  -2.92102918e-02f,  4.88766804e-02f,  -5.95306978e-02f,
  -8.26712996e-02f,  7.18207890e-03f,  3.49289142e-02f,  -1.46005899e-02f,  -5.65825664e-02f,  6.51999861e-02f,  3.24652083e-02f,  -4.27871607e-02f,
  2.62596682e-02f,  5.24944961e-02f,  3.12608667e-02f,  2.85433382e-02f,  7.34399110e-02f,  -1.03938216e-02f,  -2.08381899e-02f,  3.56098972e-02f,
  -1.91399846e-02f,  1.29981749e-02f,  -6.60266355e-02f,  6.05664924e-02f,  -4.54593971e-02f,  8.31239112e-03f,  -1.50917135e-02f,  1.97608286e-04f,
  -7.61879161e-02f,  -2.34879870e-02f,  1.45680569e-02f,  -5.73192500e-02f,  -3.02212480e-02f,  -6.84385598e-02f,  5.92649728e-02f,  -6.52779341e-02f,
  2.97689345e-03f,  -3.42130139e-02f,  -1.79792996e-02f,  3.77992243e-02f,  5.33604026e-02f,  5.16886171e-03f,  -6.95846677e-02f,  8.15355033e-02f,
  -1.15751091e-03f,  7.12083653e-02f,  6.47486746e-02f,  -7.23251281e-03f,  1.31297251e-02f,  2.75760349e-02f,  -6.15269616e-02f,  4.05305028e-02f,
  -7.89633319e-02f,  2.71516927e-02f,  5.90203516e-02f,  -6.58937022e-02f,  -4.55295742e-02f,  -4.91870530e-02f,  -3.17107029e-02f,  1.07601732e-02f,
  5.37259430e-02f,  -9.27774385e-02f,  -3.49006392e-02f,  -4.31249216e-02f,  -7.94554036e-03f,  7.17485026e-02f,  2.22195797e-02f,  3.08948513e-02f,
  3.64830643e-02f,  -4.68884744e-02f,  8.08686912e-02f,  -4.47428748e-02f,  7.31859729e-02f,  3.76107171e-02f,  2.15285271e-02f,  4.68392819e-02f,
  5.81303462e-02f,  -6.36145696e-02f,  5.56604639e-02f,  -2.98250522e-02f,  9.38306302e-02f,  -5.16680069e-02f,  -4.78901267e-02f,  -7.01902201e-03f,
  -6.45283163e-02f,  5.40646873e-02f,  7.55035132e-02f,  -4.44476157e-02f,  -3.54973599e-02f,  -8.44217986e-02f,  9.04080346e-02f,  7.57940346e-03f,
  -4.26890068e-02f,  -2.29674485e-03f,  -7.60847479e-02f,  -8.99460837e-02f,  -4.48920019e-02f,  4.58746031e-02f,  3.00808083e-02f,  6.58509433e-02f,
  2.60966849e-02f,  -3.35588790e-02f,  3.77467982e-02f,  9.89143923e-02f,  6.71880469e-02f,  -5.58960699e-02f,  -3.55778984e-03f,  -2.24911571e-02f,
  9.02683511e-02f,  5.44595625e-03f,  -8.18084478e-02f,  3.14286575e-02f,  9.50095057e-02f,  -1.67001300e-02f,  3.48433517e-02f,  3.36478166e-02f,
  -1.53165348e-02f,  6.59007654e-02f,  -7.81253651e-02f,  3.11961374e-03f,  4.05063219e-02f,  -2.20583994e-02f,  -3.05996984e-02f,  4.75079715e-02f,
  5.90874627e-02f,  7.34346882e-02f,  -8.17815661e-02f,  9.26809758e-03f,  6.35395646e-02f,  6.38240203e-02f,  4.85856086e-02f,  -8.33110884e-03f,
  6.39415458e-02f,  6.47691414e-02f,  -4.60526347e-02f,  -5.09850942e-02f,  2.34362241e-02f,  -2.40997784e-02f,  7.47387391e-03f,  8.93504322e-02f,
  5.77087179e-02f,  -3.62695418e-02f,  -6.89315721e-02f,  3.09251565e-02f,  8.07998851e-02f,  7.38636032e-02f,  7.76135623e-02f,  4.00153957e-02f,
  5.79508767e-02f,  -2.66561676e-02f,  -5.85383736e-03f,  2.48043854e-02f,  5.16737662e-02f,  4.06384654e-02f,  3.71536948e-02f,  -9.54186916e-03f,
  2.37175114e-02f,  -4.39191125e-02f,  6.11251108e-02f,  2.16331203e-02f,  -5.76980412e-02f,  -1.69526208e-02f,  -2.57517081e-02f,  5.99368755e-03f,
  -1.39073504e-03f,  -5.35266995e-02f,  1.62848644e-02f,  -5.09250350e-02f,  7.82548357e-03f,  -4.16416228e-02f,  -9.13813859e-02f,  7.47090802e-02f,
  3.43888216e-02f,  -3.28041427e-02f,  5.37422746e-02f,  2.90463027e-03f,  6.25061691e-02f,  3.72976810e-02f,  1.49621163e-02f,  -1.42553849e-02f,
  3.90309133e-02f,  8.32134485e-02f,  -4.95399833e-02f,  3.66902910e-02f,  6.59249797e-02f,  -1.99710368e-03f,  -2.92252786e-02f,  1.31896809e-02f,
  4.22476456e-02f,  -7.00943619e-02f,  -6.54634684e-02f,  3.82502452e-02f,  1.95518509e-02f,  -5.07980445e-03f,  -1.99881252e-02f,  -3.32026258e-02f,
  1.94130503e-02f,  3.02324202e-02f,  7.27057084e-02f,  5.25525957e-03f,  -9.28873487e-05f,  2.74923965e-02f,  4.89418805e-02f,  8.44623521e-02f,
  -5.03523089e-02f,  -4.47925180e-03f,  -7.84341991e-02f,  -5.32919876e-02f,  7.85721838e-02f,  7.66727775e-02f,  1.04719270e-02f,  -8.10699072e-03f,
  3.53342183e-02f,  -3.35444696e-02f,  3.70322019e-02f,  -1.65766831e-02f,  -3.93695533e-02f,  2.33172625e-02f,  7.02459216e-02f,  -5.26258387e-02f,
  1.74675640e-02f,  -5.20492531e-02f,  -1.31829316e-03f,  3.92572861e-03f,  -3.03142089e-02f,  -2.10186988e-02f,  2.36745607e-02f,  6.91497028e-02f,
  -4.42100130e-02f,  6.04374856e-02f,  3.79656330e-02f,  9.14763883e-02f,  -1.24362707e-02f,  5.91206662e-02f,  -9.07195583e-02f,  4.75037247e-02f,
  5.93969077e-02f,  8.68356824e-02f,  -6.49927706e-02f,  6.20496757e-02f,  3.52166109e-02f,  -2.13230122e-02f,  9.60238185e-03f,  2.54188478e-02f,
  -1.80569384e-02f,  5.96382059e-02f,  2.90928222e-02f,  -5.69395125e-02f,  9.37175825e-02f,  6.46641403e-02f,  9.78218764e-03f,  2.10909843e-02f,
  -3.26144993e-02f,  -5.80375195e-02f,  -5.79977557e-02f,  4.67209741e-02f,  -2.23280229e-02f,  -2.46339664e-02f,  1.20168468e-02f,  1.26419368e-03f,
  2.83927396e-02f,  -3.02638207e-02f,  4.80458178e-02f,  6.22074082e-02f,  3.32832597e-02f,  -3.52110565e-02f,  8.87861568e-03f,  7.86988530e-03f,
  5.94001971e-02f,  -5.94935343e-02f,  5.98842986e-02f,  -7.51932934e-02f,  5.35898581e-02f,  -5.91193549e-02f,  -5.75343370e-02f,  2.16808897e-02f,
  1.85796861e-02f,  -1.61128435e-02f,  8.96169059e-03f,  -4.65847477e-02f,  -1.58117190e-02f,  5.04337996e-02f,  -6.10564612e-02f,  6.18031360e-02f,
  -2.04840060e-02f,  2.67000729e-03f,  -3.29018980e-02f,  -6.48152903e-02f,  5.31637445e-02f,  4.91779670e-02f,  1.23768458e-02f,  4.49067913e-02f,
  1.95163283e-02f,  5.58647513e-02f,  6.80755898e-02f,  6.30700067e-02f,  -9.62340459e-03f,  4.45308052e-02f,  -4.97998595e-02f,  -4.33522500e-02f,
  1.36120925e-02f,  1.11322347e-02f,  -4.67070155e-02f,  9.79599077e-03f,  3.57528515e-02f,  -1.02073243e-02f,  -4.14860547e-02f,  -9.29828733e-03f,
  -5.28676771e-02f,  -6.21729298e-03f,  5.38977012e-02f,  -4.33895178e-03f,  3.95504236e-02f,  -1.28921019e-02f,  -4.64976393e-02f,  -2.97421999e-02f,
  -7.14013800e-02f,  -2.02488005e-02f,  8.68478343e-02f,  5.38792312e-02f,  -4.87734266e-02f,  -1.09436968e-02f,  3.72887067e-02f,  5.54900169e-02f,
  -1.55953178e-03f,  3.77163962e-02f,  1.45827036e-03f,  2.50291117e-02f,  -6.30794764e-02f,  -6.00369386e-02f,  -6.93923309e-02f,  6.20762177e-04f,
  -2.53268015e-02f,  -5.96457347e-02f,  1.33980736e-02f,  3.87024581e-02f,  4.64272425e-02f,  -1.94188412e-02f,  -5.48994876e-02f,  2.52430085e-02f,
  -1.59698576e-02f,  -5.21930233e-02f,  -6.79963976e-02f,  2.90198941e-02f,  8.29211473e-02f,  5.86944120e-03f,  -3.58620360e-02f,  6.20811544e-02f,
  1.28405925e-03f,  4.12396826e-02f,  -3.68282087e-02f,  4.83985767e-02f,  4.80964482e-02f,  -1.75583176e-02f,  2.89452891e-03f,  -5.21685556e-02f,
  6.26143441e-02f,  -6.77445233e-02f,  -1.59427971e-02f,  -5.77269904e-02f,  -6.92634061e-02f,  -2.78814379e-02f,  -2.01931018e-02f,  -1.61920991e-02f,
  -2.22745650e-02f,  2.73496099e-02f,  2.73235273e-02f,  4.71032485e-02f,  1.30506204e-02f,  -2.84738913e-02f,  -8.40401426e-02f,  -4.71156947e-02f,
  3.26366425e-02f,  2.18734629e-02f,  7.36021623e-02f,  3.12837325e-02f,  -2.21860372e-02f,  5.36976568e-02f,  -3.36971916e-02f,  5.32746315e-04f,
  -1.13518372e-01f,  -1.97968874e-02f,  -4.03450383e-03f,  -2.82679051e-02f,  3.75701822e-02f,  4.23787255e-03f,  -8.38816166e-02f,  -1.09075746e-02f,
  3.50299366e-02f,  1.33022174e-01f,  -5.44714509e-03f,  -5.59244258e-03f,  -5.71901500e-02f,  4.95501608e-02f,  8.35688040e-03f,  -6.26653135e-02f,
  2.08480880e-02f,  -9.79972817e-03f,  -2.58579403e-02f,  9.41788778e-02f,  -7.76230246e-02f,  -1.57739222e-03f,  7.26366416e-02f,  8.67278129e-02f,
  7.62022585e-02f,  -1.25400126e-02f,  -3.29743698e-02f,  -1.36810597e-02f,  7.61897936e-02f,  1.14730179e-01f,  -1.25874162e-01f,  -1.52504072e-02f,
  3.04705221e-02f,  -5.85445724e-02f,  5.40275574e-02f,  5.25631346e-02f,  -4.31037992e-02f,  5.87079674e-02f,  -8.58579576e-02f,  -6.28583133e-03f,
  -2.95393169e-04f,  -5.06305173e-02f,  -3.78311127e-02f,  -1.04752205e-01f,  2.50076987e-02f,  -6.85458034e-02f,  -3.14152613e-02f,  1.14092022e-01f,
  -3.85778397e-03f,  6.22662827e-02f,  6.99015558e-02f,  5.33624813e-02f,  -3.11802495e-02f,  5.57321459e-02f,  -1.29551157e-01f,  -6.49928898e-02f,
  -2.36723013e-02f,  4.61135022e-02f,  -3.71905556e-03f,  -2.79125422e-02f,  -5.28122149e-02f,  8.65130126e-02f,  2.45422870e-03f,  5.36531210e-02f,
  -9.90298204e-03f,  -1.25143537e-02f,  -8.12220760e-03f,  -4.97281514e-02f,  5.25492094e-02f,  3.62366512e-02f,  -3.70163880e-02f,  -5.62723875e-02f,
  1.22772055e-02f,  4.51407209e-02f,  8.59808773e-02f,  -1.83636062e-02f,  1.11754797e-02f,  -6.45839795e-02f,  5.90989813e-02f,  7.45745003e-02f,
  1.93000957e-03f,  -4.64436784e-02f,  3.82559723e-04f,  3.03621292e-02f,  -1.78562719e-02f,  4.01778445e-02f,  -4.35736552e-02f,  -2.46076193e-02f,
  6.69327304e-02f,  2.89353286e-03f,  -4.20642644e-02f,  -1.19369589e-02f,  7.14539662e-02f,  -6.18591756e-02f,  6.20774142e-02f,  4.93558832e-02f,
  4.32648882e-02f,  -6.88256547e-02f,  7.84165859e-02f,  2.21011154e-02f,  -7.32429028e-02f,  6.02527820e-02f,  6.74260035e-02f,  4.60884348e-02f,
  -6.43576533e-02f,  -2.21631080e-02f,  -1.81183568e-03f,  -1.72830131e-02f,  4.67457622e-02f,  4.15230580e-02f,  -5.75952977e-02f,  5.80649488e-02f,
  2.52424572e-02f,  9.89860073e-02f,  -5.65343760e-02f,  -6.57254606e-02f,  -2.46901214e-02f,  -2.67964043e-02f,  8.21401030e-02f,  4.65261191e-02f,
  2.45160214e-03f,  6.97005689e-02f,  1.58830434e-02f,  6.69780001e-02f,  7.81153888e-02f,  1.28122820e-02f,  3.46972197e-02f,  5.51036298e-02f,
  -7.95853208e-04f,  4.32249829e-02f,  7.47092739e-02f,  -2.84400880e-02f,  3.01228724e-02f,  5.81947491e-02f,  -9.04942211e-03f,  -1.52312126e-02f,
  7.07184523e-02f,  4.01091725e-02f,  2.99264677e-02f,  2.67164726e-02f,  4.17067371e-02f,  -2.65296735e-02f,  -6.59634769e-02f,  3.79089229e-02f,
  1.26998061e-02f,  -5.21109104e-02f,  4.38878313e-02f,  -4.76104878e-02f,  -6.38944283e-02f,  -1.85020957e-02f,  -3.35644633e-02f,  -4.30435576e-02f,
  -5.33470176e-02f,  5.34611046e-02f,  1.31676551e-02f,  3.93289234e-03f,  8.04877877e-02f,  3.13502550e-02f,  -6.01825165e-03f,  -7.00545264e-03f,
  -1.71585809e-02f,  2.26235986e-02f,  -1.66612007e-02f,  -3.71283218e-02f,  6.79996563e-03f,  4.19187881e-02f,  -1.28685040e-02f,  4.87912744e-02f,
  3.98030654e-02f,  5.71501255e-02f,  -7.15569928e-02f,  -1.97162721e-02f,  -2.64901831e-03f,  3.91653292e-02f,  2.36667246e-02f,  -1.67445298e-02f,
  4.24964586e-03f,  -3.19005316e-03f,  -1.31841737e-03f,  4.23312187e-02f,  4.55398187e-02f,  5.90371750e-02f,  -9.97253042e-03f,  -1.78938322e-02f,
  -4.24802862e-02f,  5.52752055e-02f,  6.04660548e-02f,  -2.65859496e-02f,  -5.35773709e-02f,  4.77711111e-02f,  -5.57826310e-02f,  -3.98313589e-02f,
  -5.86869493e-02f,  -3.99622023e-02f,  -1.23961456e-02f,  2.32997835e-02f,  5.03024738e-03f,  4.79230024e-02f,  -6.00358546e-02f,  1.74808111e-02f,
  -4.90507595e-02f,  -6.95600584e-02f,  5.96442781e-02f,  2.56748609e-02f,  5.46118617e-02f,  6.78058565e-02f,  6.46929396e-03f,  4.99413200e-02f,
  4.13740193e-03f,  1.34920198e-02f,  -3.43118310e-02f,  2.80929450e-03f,  -3.70765924e-02f,  4.25615832e-02f,  1.39077678e-02f,  -3.69482674e-02f,
  2.70166118e-02f,  1.24431122e-02f,  4.85216081e-02f,  4.22273129e-02f,  6.03770316e-02f,  -3.92869450e-02f,  -4.90999967e-02f,  -6.86315000e-02f,
  -5.52743347e-03f,  3.00647132e-03f,  1.14698848e-02f,  -4.51524444e-02f,  -5.40761836e-02f,  5.74971437e-02f,  -8.08708835e-03f,  5.83560057e-02f,
  -7.36561120e-02f,  5.53175509e-02f,  -7.94527829e-02f,  8.63723233e-02f,  -2.90202834e-02f,  2.69705076e-02f,  -4.22855467e-03f,  2.61192070e-03f,
  7.49948919e-02f,  -2.07326822e-02f,  -1.98033992e-02f,  -5.45068905e-02f,  -5.94852120e-02f,  -5.05573861e-02f,  -4.70096916e-02f,  2.81507969e-02f,
  -5.82460463e-02f,  -6.73694164e-02f,  -4.21632640e-02f,  3.64887156e-02f,  1.30346762e-02f,  2.85135321e-02f,  -1.23817734e-02f,  -1.07638538e-02f,
  -1.73366908e-03f,  4.90006432e-02f,  1.01531828e-02f,  -3.30652408e-02f,  -1.34920245e-02f,  2.29068510e-02f,  2.18971670e-02f,  3.07111256e-02f,
  -6.57977983e-02f,  -2.12001218e-03f,  -2.91824918e-02f,  -3.22039276e-02f,  5.57174794e-02f,  -6.77422658e-02f,  -6.78072423e-02f,  -9.67013929e-03f,
  -3.52716609e-03f,  -4.67111878e-02f,  -6.89161569e-02f,  -3.10896542e-02f,  6.30878657e-02f,  -7.96045735e-02f,  5.34265488e-02f,  3.14624794e-02f,
  -5.69780469e-02f,  -6.50714114e-02f,  -4.48386976e-03f,  7.96082541e-02f,  2.98822653e-02f,  4.33467701e-02f,  -5.20032458e-02f,  6.47170702e-04f,
  -3.17381993e-02f,  -5.84222190e-02f,  -1.15311127e-02f,  -6.71147257e-02f,  3.60016781e-03f,  -3.68607827e-02f,  4.87263389e-02f,  -4.99968305e-02f,
  5.47401160e-02f,  -2.39426605e-02f,  -1.51295392e-02f,  -1.04343724e-02f,  6.52671605e-02f,  -2.73401216e-02f,  -5.28409965e-02f,  -1.43178487e-02f,
  -6.60562366e-02f,  -3.06624081e-03f,  -1.56225655e-02f,  5.43978848e-02f,  4.47405651e-02f,  -3.48112844e-02f,  4.32074815e-03f,  -7.83386827e-02f,
  -3.02330982e-02f,  -4.42791544e-02f,  4.11020741e-02f,  -5.98106198e-02f,  -6.63658604e-02f,  4.15162593e-02f,  1.00241601e-03f,  -8.88663530e-03f,
  -4.17575985e-02f,  2.08134875e-02f,  -3.39287333e-03f,  -6.25675917e-03f,  3.84815224e-02f,  5.55117428e-02f,  -4.42181081e-02f,  3.87265868e-02f,
  4.20057662e-02f,  -3.62329111e-02f,  -4.54182550e-02f,  3.46061923e-02f,  -2.89489515e-02f,  5.95178157e-02f,  5.95532544e-02f,  -4.79400121e-02f,
  6.03830181e-02f,  1.16073666e-02f,  3.33894491e-02f,  2.83807293e-02f,  4.71727848e-02f,  -3.29501145e-02f,  3.27888988e-02f,  5.27275652e-02f,
  -6.90567344e-02f,  3.34207788e-02f,  -6.76488355e-02f,  8.35696757e-02f,  -5.89694865e-02f,  -1.80585906e-02f,  -4.34315018e-03f,  -7.02625141e-02f,
  3.91908512e-02f,  -6.14361688e-02f,  -4.80134860e-02f,  -5.99476472e-02f,  3.94416712e-02f,  -5.24628311e-02f,  -1.05579812e-02f,  2.04501972e-02f,
  4.80815805e-02f,  7.08970428e-02f,  3.43762785e-02f,  4.05256674e-02f,  -4.51910272e-02f,  2.38187555e-02f,  6.32885695e-02f,  -3.49544622e-02f,
  -1.90721154e-02f,  -7.95614719e-02f,  -2.69370247e-02f,  -7.84247667e-02f,  -5.18808700e-02f,  4.09521163e-02f,  -5.33742271e-02f,  -4.34219949e-02f,
  -3.64371873e-02f,  3.74922454e-02f,  -5.35427406e-02f,  -7.58813769e-02f,  4.02940586e-02f,  -1.73760410e-02f,  6.91511184e-02f,  -2.29410045e-02f,
  2.98607145e-02f,  4.62651588e-02f,  1.26162739e-02f,  -5.95504045e-03f,  6.92141727e-02f,  6.53896760e-03f,  9.55738407e-03f,  -1.65589526e-02f,
  -6.40387461e-02f,  7.90469125e-02f,  -2.42509469e-02f,  2.92465165e-02f,  -2.04109307e-02f,  -6.44200668e-02f,  5.51239960e-02f,  -5.24969362e-02f,
  -4.26920839e-02f,  1.63454190e-02f,  -6.87883869e-02f,  4.75449599e-02f,  5.73468581e-03f,  -3.83450314e-02f,  2.44930182e-02f,  2.92270333e-02f,
  -2.29460234e-03f,  -2.08659824e-02f,  1.48815289e-02f,  8.16170722e-02f,  5.27426228e-02f,  7.46169463e-02f,  -3.24641503e-02f,  -6.41055778e-02f,
  2.93133650e-02f,  -1.82125140e-02f,  -2.25895979e-02f,  -5.72159514e-02f,  -2.24196091e-02f,  4.76177894e-02f,  4.00893651e-02f,  -3.10049169e-02f,
  -4.40877043e-02f,  -2.75636613e-02f,  2.40789517e-03f,  -4.55914326e-02f,  5.74122556e-02f,  4.58487831e-02f,  6.74747601e-02f,  7.28099942e-02f,
  2.34728940e-02f,  -1.10595822e-02f,  -4.65730578e-02f,  1.20170265e-02f,  8.73057824e-03f,  -7.56233484e-02f,  -6.15401156e-02f,  1.57494750e-02f,
  6.72366992e-02f,  -5.48377028e-03f,  7.41159245e-02f,  1.92648899e-02f,  4.55218293e-02f,  6.64303526e-02f,  -2.96013355e-02f,  -2.06633881e-02f,
  2.01632064e-02f,  3.82860862e-02f,  4.29389477e-02f,  -6.39474764e-02f,  -7.42611960e-02f,  -2.55116150e-02f,  -4.20181593e-03f,  3.04888953e-02f,
  8.67401063e-02f,  8.69589020e-03f,  -2.83585694e-02f,  1.91758480e-02f,  -2.91293953e-02f,  2.93094981e-02f,  5.40084764e-02f,  -5.12116216e-02f,
  7.14120716e-02f,  -8.95233080e-03f,  -1.45908520e-02f,  3.65966209e-03f,  -4.76446077e-02f,  -4.96482067e-02f,  -1.00753702e-01f,  7.99974278e-02f,
  -2.49629598e-02f,  4.23093773e-02f,  -7.39045888e-02f,  -6.70484677e-02f,  3.85860577e-02f,  3.92092913e-02f,  6.18745713e-03f,  -1.51277543e-03f,
  -6.63971379e-02f,  -5.20795174e-02f,  3.79540361e-02f,  1.12265795e-01f,  7.33978748e-02f,  4.89964634e-02f,  -4.39992547e-02f,  2.96194106e-02f,
  -2.38284450e-02f,  5.84283769e-02f,  -4.08819094e-02f,  -3.32617760e-03f,  -6.12421744e-02f,  -7.73980990e-02f,  5.92827015e-02f,  5.80145828e-02f,
  -1.19155526e-01f,  -2.51889341e-02f,  8.45376775e-02f,  6.04596436e-02f,  -1.19844479e-02f,  -1.12838829e-02f,  -6.36486784e-02f,  3.22747231e-02f,
  -6.85613379e-02f,  5.29125333e-02f,  7.95962885e-02f,  6.48512244e-02f,  -6.60796836e-02f,  4.60279472e-02f,  -4.73600440e-02f,  1.50755718e-02f,
  3.35994437e-02f,  4.09403294e-02f,  -2.26266682e-02f,  -3.14977616e-02f,  2.48500183e-02f,  1.17020905e-02f,  2.80302465e-02f,  -4.99187112e-02f,
  -1.46965012e-02f,  -6.02448732e-03f,  2.41090581e-02f,  5.19017875e-03f,  -1.06860399e-02f,  4.74992096e-02f,  5.90830296e-03f,  5.14820367e-02f,
  -3.50575708e-02f,  -3.07387188e-02f,  4.22293693e-02f,  1.77116841e-02f,  6.26955181e-02f,  -6.40563145e-02f,  2.31136382e-03f,  4.15543467e-03f,
  7.59962946e-03f,  -4.43291068e-02f,  6.51846081e-03f,  3.95348296e-02f,  -7.53785670e-03f,  -4.85858992e-02f,  -1.40533037e-02f,  4.23985794e-02f,
  2.03403011e-02f,  2.00043842e-02f,  -2.72032022e-02f,  7.14845359e-02f,  4.41863313e-02f,  1.31085217e-02f,  -5.58648705e-02f,  5.67414165e-02f,
  2.59764567e-02f,  -3.28591689e-02f,  -7.46434182e-03f,  -1.90421939e-04f,  -4.08546329e-02f,  7.31846839e-02f,  -6.16243072e-02f,  3.84840369e-03f,
  -6.46390244e-02f,  -2.39103660e-02f,  -5.37757054e-02f,  6.81176484e-02f,  -2.63192691e-02f,  6.05261028e-02f,  5.34633845e-02f,  5.85144907e-02f,
  1.00348070e-02f,  -5.54050133e-02f,  6.88049346e-02f,  -2.66887061e-02f,  4.40748408e-02f,  6.27131611e-02f,  -2.82459334e-02f,  -2.60176584e-02f,
  -6.08236082e-02f,  -5.66569064e-03f,  9.57278088e-02f,  -7.03024864e-02f,  4.35718521e-02f,  -2.96415109e-02f,  -1.07935993e-02f,  -2.47476622e-02f,
  3.86433303e-03f,  4.88566346e-02f,  -3.92616689e-02f,  -3.96793336e-02f,  -2.94117350e-03f,  4.29815799e-02f,  8.61499384e-02f,  2.45502945e-02f,
  -2.53931396e-02f,  4.74886335e-02f,  6.17904030e-02f,  4.11831727e-03f,  -5.09129725e-02f,  4.91937660e-02f,  -1.20379189e-02f,  2.79351529e-02f,
  -6.76476210e-02f,  1.79646332e-02f,  4.24222387e-02f,  -7.34064430e-02f,  1.05112651e-02f,  2.47391947e-02f,  -6.40809685e-02f,  -7.64650106e-02f,
  6.59467280e-02f,  5.07467687e-02f,  4.45446260e-02f,  8.18015933e-02f,  2.24579573e-02f,  6.62691593e-02f,  -7.00001838e-03f,  3.51208150e-02f,
  -1.17562041e-02f,  4.12823707e-02f,  3.61606330e-02f,  -7.00613158e-03f,  3.44655961e-02f,  6.69123903e-02f,  -3.59227210e-02f,  7.71472976e-02f,
  4.38682223e-03f,  5.59516177e-02f,  6.16609268e-02f,  7.42060691e-02f,  -1.98351927e-02f,  -6.09918013e-02f,  -1.06741805e-02f,  1.96335232e-03f,
  -2.63628922e-02f,  4.00468670e-02f,  1.67918280e-02f,  -2.92732604e-02f,  -6.91809580e-02f,  -4.92471978e-02f,  6.90101832e-03f,  4.23365086e-02f,
  7.21513666e-03f,  -3.93031351e-02f,  4.11910564e-02f,  -6.29210174e-02f,  -2.21838783e-02f,  5.00380136e-02f,  7.60796666e-02f,  2.32008379e-02f,
  -9.90018900e-03f,  1.47101348e-02f,  3.93594941e-03f,  3.40472572e-02f,  3.93580310e-02f,  -4.86258604e-02f,  -5.12756072e-02f,  2.21369117e-02f,
  -5.10790125e-02f,  -4.17158827e-02f,  -2.38499381e-02f,  3.80236879e-02f,  4.91956547e-02f,  4.05270159e-02f,  6.35580271e-02f,  -6.57883435e-02f,
  -1.44033143e-02f,  -4.51037027e-02f,  5.50814122e-02f,  8.15641508e-02f,  -5.41930981e-02f,  -3.80783491e-02f,  5.96400797e-02f,  5.01586124e-02f,
  -3.26823704e-02f,  2.25924496e-02f,  6.00338578e-02f,  -2.68687773e-02f,  7.67194852e-02f,  -5.89416549e-02f,  6.04214519e-03f,  -3.84546220e-02f,
  -5.23300618e-02f,  7.36503601e-02f,  -3.56623195e-02f,  3.41503769e-02f,  -3.14580388e-02f,  -3.56879532e-02f,  7.55835474e-02f,  1.07813976e-03f,
  -1.72834825e-02f,  4.61489111e-02f,  -5.24641424e-02f,  3.36696096e-02f,  -3.98959219e-02f,  -9.58705228e-03f,  5.58489487e-02f,  -6.02043048e-02f,
  3.80616188e-02f,  -5.27479537e-02f,  8.17266926e-02f,  9.87691805e-03f,  -4.62787300e-02f,  -1.70299783e-02f,  9.89162177e-03f,  8.96436721e-03f,
  -8.49477425e-02f,  5.39840423e-02f,  5.40583581e-02f,  -6.86475933e-02f,  3.67737561e-02f,  5.30462945e-03f,  -8.72594863e-02f,  3.91680077e-02f,
  -3.10369786e-02f,  4.51393910e-02f,  1.99230481e-02f,  -3.55639681e-02f,  -7.06499815e-03f,  3.17877159e-02f,  6.75648898e-02f,  -1.91781635e-03f,
  -5.07930145e-02f,  -6.52970467e-03f,  1.29392594e-02f,  1.70215927e-02f,  -5.73920608e-02f,  -9.55832936e-03f,  -6.24036863e-02f,  -3.80295664e-02f,
  2.13147681e-02f,  -1.21243093e-02f,  -6.84304386e-02f,  -1.00117624e-02f,  -1.17104165e-02f,  4.85204980e-02f,  -3.12358927e-04f,  7.25381002e-02f,
  -3.35683674e-02f,  -4.90974747e-02f,  5.44057414e-02f,  4.79937494e-02f,  -6.79375753e-02f,  1.48204342e-02f,  2.33928021e-02f,  6.15144074e-02f,
  2.67041987e-03f,  3.96466553e-02f,  -1.93697847e-02f,  1.65234767e-02f,  5.85606508e-02f,  6.06864050e-04f,  -4.18704152e-02f,  1.02909938e-01f,
  -9.23859552e-02f,  1.59378834e-02f,  -1.73348673e-02f,  3.71879153e-02f,  4.80907895e-02f,  -6.22827820e-02f,  -4.74494472e-02f,  -3.88155058e-02f,
  7.57642509e-03f,  -2.74513699e-02f,  -4.69763055e-02f,  -1.37146539e-03f,  -8.96406621e-02f,  -4.26887907e-02f,  6.82682544e-02f,  -4.67293635e-02f,
  9.44565013e-02f,  -2.50262655e-02f,  -3.78167517e-02f,  -6.22715801e-03f,  6.94970712e-02f,  3.80934998e-02f,  6.07213303e-02f,  7.21529871e-02f,
  -3.78841460e-02f,  -6.31828830e-02f,  -3.02422158e-02f,  2.66195778e-02f,  8.54970738e-02f,  -7.09304400e-03f,  -3.19543667e-02f,  6.53428137e-02f,
  5.88674769e-02f,  5.50215803e-02f,  -3.00598089e-02f,  -3.80197540e-02f,  3.74588333e-02f,  -2.97178496e-02f,  -1.61502082e-02f,  1.49317207e-02f,
  8.64628106e-02f,  3.32669020e-02f,  -2.00531855e-02f,  2.90278755e-02f,  -1.29677663e-02f,  -4.76429332e-03f,  6.82916865e-02f,  6.62471876e-02f,
  3.68350670e-02f,  -1.85803361e-02f,  -3.00545171e-02f,  5.63762523e-02f,  7.73124546e-02f,  1.28532154e-02f,  -6.67093396e-02f,  8.87042284e-03f,
  -5.92434071e-02f,  -3.46324891e-02f,  -3.23234461e-02f,  7.41384104e-02f,  8.41678865e-03f,  3.67888398e-02f,  1.99538395e-02f,  4.81947400e-02f,
  -1.07009355e-02f,  -2.95094401e-02f,  8.42108112e-03f,  -4.72899452e-02f,  3.32628116e-02f,  -1.84073346e-03f,  4.98317406e-02f,  -6.32457510e-02f,
  -6.74044788e-02f,  -1.32638505e-02f,  6.55626208e-02f,  1.15612084e-02f,  2.00684611e-02f,  1.00565897e-02f,  5.46970665e-02f,  -6.86909035e-02f,
  -9.83230188e-04f,  8.12103525e-02f,  -3.65190506e-02f,  -4.39134575e-02f,  3.66964452e-02f,  3.82031314e-02f,  -4.45964895e-02f,  5.25573716e-02f,
  -4.02177833e-02f,  5.04215993e-02f,  7.27634877e-03f,  6.63503930e-02f,  -9.09157470e-02f,  -3.30653228e-02f,  4.76416983e-02f,  -1.00162216e-01f,
  3.34160924e-02f,  8.36873055e-02f,  -1.86398216e-02f,  -5.35197370e-02f,  -9.17066485e-02f,  2.78862566e-02f,  -4.59270254e-02f,  9.21434257e-03f,
  -7.80735761e-02f,  2.40434390e-02f,  3.33356187e-02f,  8.49398598e-02f,  1.89335574e-03f,  6.18675500e-02f,  1.60452928e-02f,  -5.95049225e-02f,
  -3.24187130e-02f,  3.53845134e-02f,  -4.46472391e-02f,  1.05028553e-02f,  7.99013525e-02f,  5.37780523e-02f,  -1.06530953e-02f,  4.64457870e-02f,
  -2.48877425e-02f,  -3.57684903e-02f,  -5.05201742e-02f,  -4.77266945e-02f,  1.75675396e-02f,  -4.78497557e-02f,  7.69278556e-02f,  2.91452818e-02f,
  1.57522969e-02f,  5.22111841e-02f,  7.07390383e-02f,  -6.30775318e-02f,  -8.84908214e-02f,  1.87203921e-02f,  -1.33602889e-02f,  1.67287830e-02f,
  -5.97003363e-02f,  8.60663224e-03f,  -3.22920308e-02f,  -3.58213522e-02f,  4.47498448e-02f,  5.71043119e-02f,  -3.12264301e-02f,  -6.74639270e-02f,
  3.24899368e-02f,  -4.21286859e-02f,  -1.18665239e-02f,  4.54642028e-02f,  6.48545325e-02f,  -7.19812065e-02f,  -5.89712560e-02f,  -1.01980651e-02f,
  -2.87567042e-02f,  -1.08286561e-02f,  3.75180915e-02f,  9.24340785e-02f,  -4.17512730e-02f,  -4.76002693e-04f,  5.67121506e-02f,  3.72230895e-02f,
  4.53262627e-02f,  -3.80857587e-02f,  -2.44492441e-02f,  -2.81453021e-02f,  -6.19370490e-02f,  1.76382381e-02f,  -1.30279372e-02f,  -3.09196934e-02f,
  -9.60388780e-03f,  -5.40887900e-02f,  -5.75728789e-02f,  2.43322868e-02f,  3.04462537e-02f,  3.02257226e-03f,  -7.30885640e-02f,  -2.40865704e-02f,
  2.62180138e-02f,  -2.34205313e-02f,  8.14467203e-03f,  9.05604810e-02f,  -3.44250575e-02f,  -1.69456657e-02f,  3.45716253e-02f,  -2.80082971e-02f,
  -4.93155643e-02f,  7.37209618e-03f,  -4.09602597e-02f,  4.41983119e-02f,  2.11117435e-02f,  -5.84128983e-02f,  -7.88823888e-02f,  8.13896134e-02f,
  7.24174781e-03f,  8.27540010e-02f,  6.46831393e-02f,  -3.50995883e-02f,  -2.45588683e-02f,  5.60231358e-02f,  -2.67671682e-02f,  -5.39967641e-02f,
  -3.44672129e-02f,  -1.51876137e-02f,  2.93947738e-02f,  6.67211087e-03f,  -7.88721964e-02f,  7.13150343e-03f,  -5.78737035e-02f,  9.43937898e-03f,
  -5.01104780e-02f,  1.35062337e-02f,  1.14988461e-02f,  3.50228027e-02f,  -3.92987169e-02f,  4.83987704e-02f,  -5.12604676e-02f,  -2.90595405e-02f,
  -1.73075497e-03f,  4.82389629e-02f,  5.83758950e-03f,  4.67980951e-02f,  1.89322233e-03f,  -6.06645234e-02f,  -7.11756200e-02f,  2.49525681e-02f,
  -4.69999723e-02f,  3.16181555e-02f,  -5.81789054e-02f,  -4.84223925e-02f,  -2.89360620e-02f,  -1.39182322e-02f,  -4.07352298e-02f,  2.35303268e-02f,
  -7.09628314e-02f,  -6.92997500e-02f,  5.16491383e-03f,  4.30266559e-02f,  6.30168170e-02f,  -2.21826397e-02f,  4.14002910e-02f,  -5.98164797e-02f,
  -6.58600330e-02f,  -3.19011584e-02f,  2.33911797e-02f,  -2.37092003e-02f,  2.42504328e-02f,  5.73426634e-02f,  -5.72836399e-03f,  -1.48761012e-02f,
  1.87385455e-02f,  2.91994140e-02f,  6.19062632e-02f,  -1.31690726e-02f,  3.22280824e-02f,  5.26890457e-02f,  -7.35518485e-02f,  3.02015468e-02f,
  -6.28901049e-02f,  -3.16197500e-02f,  5.90369254e-02f,  3.97567526e-02f,  6.86652809e-02f,  6.91855699e-02f,  -6.67367727e-02f,  1.37396157e-04f,
  -2.26464123e-03f,  -2.88341008e-02f,  2.47644857e-02f,  -5.27918115e-02f,  -5.25330454e-02f,  -1.82253867e-03f,  8.68901610e-03f,  1.42209381e-02f,
  -5.94084449e-02f,  -6.49990961e-02f,  1.64017454e-02f,  2.00353637e-02f,  -5.54986000e-02f,  5.04824445e-02f,  -4.43337113e-03f,  -4.99319583e-02f,
  1.05956942e-03f,  6.52807206e-03f,  1.56118944e-02f,  -7.12260604e-04f,  -6.97238743e-02f,  -3.78894880e-02f,  -5.02147824e-02f,  6.87599629e-02f,
  -2.72722542e-03f,  -7.42245987e-02f,  -5.75347170e-02f,  -1.49539001e-02f,  -2.05569714e-03f,  5.75674176e-02f,  -2.31711194e-02f,  -2.70638950e-02f,
  -9.53849405e-03f,  3.19659188e-02f,  3.81438434e-02f,  -2.81783678e-02f,  5.81554174e-02f,  5.50651997e-02f,  -3.51020843e-02f,  -2.28616148e-02f,
  -8.27037543e-03f,  1.35617927e-02f,  -6.94602653e-02f,  2.74383277e-03f,  2.51298100e-02f,  -2.27644853e-02f,  2.77045071e-02f,  -4.08289619e-02f,
  -9.77402180e-03f,  2.77236849e-03f,  6.39609694e-02f,  5.53867221e-03f,  -1.70238316e-02f,  5.01923263e-04f,  1.54090971e-02f,  1.52792335e-02f,
  -6.89331070e-02f,  3.02880183e-02f,  -6.32890239e-02f,  -3.16976532e-02f,  -5.00848070e-02f,  -2.57999897e-02f,  7.04670250e-02f,  3.10386717e-03f,
  -9.94248688e-03f,  5.09689450e-02f,  4.01183963e-03f,  -3.38451192e-02f,  4.25955132e-02f,  -5.21462783e-02f,  -4.48664948e-02f,  4.40233350e-02f,
  2.89903469e-02f,  -5.53887673e-02f,  8.00069887e-03f,  -2.47810557e-02f,  1.66054338e-03f,  -1.53238764e-02f,  -7.84659535e-02f,  3.27687673e-02f,
  -1.42233009e-02f,  2.56049372e-02f,  2.09112577e-02f,  6.21402301e-02f,  1.83624104e-02f,  -5.03560491e-02f,  -8.03507566e-02f,  -5.83601706e-02f,
  -5.21586724e-02f,  4.25377190e-02f,  2.26627402e-02f,  -4.38970700e-02f,  -7.74718970e-02f,  -4.62180935e-02f,  -5.97386546e-02f,  -6.56754225e-02f,
  -5.65460920e-02f,  -1.64576843e-02f,  1.57386269e-02f,  5.91845512e-02f,  2.84696780e-02f,  7.54874349e-02f,  -5.03793024e-02f,  1.76774804e-02f,
  -6.16207868e-02f,  -1.35469548e-02f,  5.58354817e-02f,  2.20026094e-02f,  8.55436474e-02f,  4.14394364e-02f,  -1.76714025e-02f,  7.29342103e-02f,
  1.81107987e-02f,  -7.09173679e-02f,  2.45144963e-02f,  -4.37715426e-02f,  6.09486699e-02f,  -4.88002338e-02f,  6.43315539e-02f,  -6.44119224e-03f,
  -2.28360016e-02f,  -1.31319799e-02f,  1.00250885e-01f,  -6.87326342e-02f,  -6.64843321e-02f,  7.62027875e-03f,  -1.30042695e-02f,  5.88145368e-02f,
  3.71003337e-02f,  2.55319327e-02f,  -2.07799748e-02f,  1.76097583e-02f,  -7.14054257e-02f,  7.56899491e-02f,  -3.03713903e-02f,  -3.08261812e-03f,
  -7.39965355e-03f,  1.63965188e-02f,  2.80061830e-02f,  -3.10597159e-02f,  5.75910695e-02f,  7.71660637e-03f,  6.49772286e-02f,  -6.94754571e-02f,
  6.88255429e-02f,  -2.09138095e-02f,  5.83994240e-02f,  -1.74547751e-02f,  -3.60004082e-02f,  3.64808962e-02f,  4.06340882e-02f,  6.21542186e-02f,
  4.39494327e-02f,  3.48225646e-02f,  -4.88270745e-02f,  1.53817860e-02f,  1.02910958e-02f,  -3.77966985e-02f,  6.49149343e-02f,  1.09015731e-02f,
  4.28618118e-02f,  4.59283777e-02f,  3.96883823e-02f,  -1.90718602e-02f,  -4.76768911e-02f,  2.45651323e-02f,  6.47134036e-02f,  -6.23621754e-02f,
  -2.17110589e-02f,  -2.33360641e-02f,  -9.08304006e-03f,  -3.10781617e-02f,  1.33893394e-03f,  -4.71775234e-03f,  -6.71162829e-02f,  5.52359000e-02f,
  -9.11357906e-03f,  7.03215152e-02f,  2.96136308e-02f,  -2.18354724e-02f,  5.04380353e-02f,  4.84227203e-02f,  -9.93950665e-03f,  -2.82985419e-02f,
  4.36934792e-02f,  3.38885710e-02f,  -4.59422618e-02f,  2.77061062e-03f,  6.75373375e-02f,  5.39909936e-02f,  -8.42021778e-02f,  -2.12619584e-02f,
  -6.40749633e-02f,  7.41451932e-03f,  -7.49908313e-02f,  8.70158616e-03f,  4.50984947e-02f,  1.07797813e-02f,  -5.26232570e-02f,  -2.42813975e-02f,
  1.16216177e-02f,  -1.96433477e-02f,  5.68773039e-03f,  -2.58069336e-02f,  2.67012995e-02f,  3.73956077e-02f,  -2.35718628e-03f,  2.29139514e-02f,
  3.87478471e-02f,  4.18198332e-02f,  -5.26130665e-03f,  6.49815276e-02f,  -3.32908258e-02f,  1.44382352e-02f,  -3.92803364e-02f,  -4.74260189e-02f,
  2.07443628e-02f,  2.13294979e-02f,  -5.25586121e-03f,  6.00454397e-02f,  -3.33210118e-02f,  -1.19523732e-02f,  4.74657351e-03f,  -4.10174765e-02f,
  3.03629320e-02f,  6.46034926e-02f,  -4.36859243e-02f,  7.82236923e-03f,  6.78940862e-02f,  -5.82924113e-02f,  -2.74634100e-02f,  1.26160933e-02f,
  -4.08442784e-03f,  4.12970185e-02f,  -4.61290143e-02f,  8.42473994e-04f,  4.83951531e-02f,  -6.44047931e-02f,  -2.00717221e-03f,  1.80056784e-02f,
  -7.31374025e-02f,  -8.88481736e-05f,  5.26198372e-02f,  -2.43985113e-02f,  4.55041528e-02f,  2.29014251e-02f,  3.81886028e-02f,  3.34782749e-02f,
  -3.81748416e-02f,  -1.47512583e-02f,  -2.98570376e-02f,  -2.47341450e-02f,  -2.10291054e-03f,  1.65277496e-02f,  5.68753704e-02f,  -3.80335152e-02f,
  -4.05188911e-02f,  -6.20794594e-02f,  2.00545937e-02f,  -4.81654406e-02f,  -4.01555672e-02f,  2.14818269e-02f,  -4.93347235e-02f,  -4.01276350e-03f,
