#pragma once

// Layer    : dense_1
// W shape  : (64, 3)
// B shape  : (3,)
// NOTE: Conv2D weight layout = (KH, KW, CIN, COUT)
//       Dense weight layout  = (IN_DIM, OUT_DIM)

#define DENSE_1_IN_DIM  64
#define DENSE_1_OUT_DIM 3

const float DENSE_1_WEIGHTS[192] = {
  1.18410595e-01f,  -8.96948203e-02f,  -2.05288410e-01f,  -2.36702785e-01f,  -1.87952951e-01f,  -2.80723333e-01f,  -3.45597476e-01f,  1.17590092e-01f,
  1.33516684e-01f,  2.58853316e-01f,  -1.78791165e-01f,  1.91180497e-01f,  -8.65746960e-02f,  -1.16427891e-01f,  -3.04313153e-01f,  4.69984971e-02f,
  -2.95711309e-01f,  -1.14887848e-01f,  2.76602030e-01f,  6.16490841e-02f,  4.98930663e-02f,  -1.10971741e-02f,  -3.04734915e-01f,  1.49639174e-01f,
  2.67895050e-02f,  3.00633013e-01f,  1.79896727e-01f,  -2.57797092e-01f,  3.19453537e-01f,  1.14843965e-01f,  1.57094240e-01f,  -5.34210727e-02f,
  -1.39926448e-01f,  -1.02382051e-02f,  1.59889355e-01f,  -4.97024246e-02f,  2.07984388e-01f,  -1.81649759e-01f,  -6.63406216e-03f,  2.16298074e-01f,
  -1.59648865e-01f,  1.53728807e-02f,  -3.02097742e-02f,  2.02514455e-01f,  -9.41779092e-02f,  6.99308142e-02f,  -1.31660119e-01f,  -1.23049334e-01f,
  -9.26015154e-02f,  5.28877564e-02f,  2.84321070e-01f,  -1.55703321e-01f,  1.85128093e-01f,  -2.71844000e-01f,  2.63086289e-01f,  -5.63057326e-02f,
  -3.04080099e-01f,  -2.64787674e-01f,  2.21485555e-01f,  -3.03003430e-01f,  1.86011121e-01f,  -2.22475842e-01f,  -2.19725430e-01f,  1.98862981e-02f,
  -2.77616560e-01f,  -2.94283390e-01f,  -1.42690018e-01f,  -1.68303177e-01f,  -3.12218130e-01f,  -1.38936728e-01f,  1.65433303e-01f,  -3.08833152e-01f,
  1.46916375e-01f,  1.41897142e-01f,  -2.22622275e-01f,  2.36980274e-01f,  2.06415370e-01f,  -2.64339477e-01f,  6.60672113e-02f,  -3.27873155e-02f,
  -2.27995485e-01f,  -2.74784863e-01f,  -2.84158826e-01f,  -1.10046178e-01f,  2.50861980e-02f,  8.43053162e-02f,  -3.06220084e-01f,  -1.90823838e-01f,
  -1.47940427e-01f,  -1.65768653e-01f,  2.76747465e-01f,  1.85600370e-02f,  1.14654571e-01f,  9.67933685e-02f,  -1.30129457e-01f,  -1.75583988e-01f,
  1.30293339e-01f,  2.11593416e-02f,  -1.05994314e-01f,  -2.40034118e-01f,  -1.60249576e-01f,  1.40844837e-01f,  -1.29202187e-01f,  2.26907015e-01f,
  2.91105211e-01f,  -8.60027689e-03f,  2.35332802e-01f,  -8.09453577e-02f,  -8.25939551e-02f,  -2.05320716e-01f,  1.49301633e-01f,  6.96274415e-02f,
  -1.35083705e-01f,  2.29753211e-01f,  1.98744789e-01f,  7.47021735e-02f,  3.11545104e-01f,  2.92538166e-01f,  -2.21886709e-01f,  1.57536387e-01f,
  8.22725967e-02f,  -5.30072860e-02f,  -1.47638517e-02f,  1.20941699e-02f,  -1.99649870e-01f,  -2.59976983e-01f,  6.98156878e-02f,  -1.85327545e-01f,
  1.27520203e-03f,  1.01318672e-01f,  -1.13386720e-01f,  -3.31739515e-01f,  2.03361958e-01f,  -1.57777190e-01f,  -1.14682287e-01f,  5.14160022e-02f,
  -4.79762070e-02f,  6.75477609e-02f,  -1.99343339e-01f,  -1.80384532e-01f,  2.62966961e-01f,  7.42167309e-02f,  2.95198798e-01f,  7.65772909e-02f,
  2.96373218e-01f,  -1.02694899e-01f,  7.54395649e-02f,  2.98330426e-01f,  2.06822172e-01f,  -2.15394899e-01f,  -3.23359311e-01f,  -5.93360178e-02f,
  3.31375711e-02f,  -6.76247478e-03f,  2.82482803e-01f,  -1.27248898e-01f,  1.56507045e-02f,  -5.08450046e-02f,  -2.24076897e-01f,  -1.25986859e-02f,
  7.00588450e-02f,  1.88143015e-01f,  2.15735599e-01f,  -3.37890595e-01f,  -6.75828084e-02f,  -6.63686320e-02f,  -2.92351723e-01f,  2.11893767e-01f,
  1.58861592e-01f,  -9.77572203e-02f,  -4.57582762e-03f,  3.49985398e-02f,  1.43842205e-01f,  -3.07424963e-01f,  -3.56304526e-01f,  2.27800589e-02f,
  2.81602070e-02f,  2.18832493e-01f,  -1.36557475e-01f,  7.00644925e-02f,  2.65645921e-01f,  2.36447677e-02f,  1.45872056e-01f,  1.09526791e-01f,
  3.09152633e-01f,  -1.07585885e-01f,  -1.26085386e-01f,  9.89122093e-02f,  1.99198723e-04f,  -9.98750329e-03f,  5.94583750e-02f,  -2.46537328e-01f,
};

const float DENSE_1_BIASES[3] = {
  -1.22048333e-02f,  1.36938076e-02f,  -8.31549114e-05f,
};

